svm_type c_svc
kernel_type linear
nr_class 2
total_sv 3396
rho 1.0001988541800126
label 1 0
probA -0.22812533057490156
probB -0.08962908629180671
nr_sv 1696 1700
SV
1.0 39:0.1111111111111111 40:0.045454545454545456 41:0.2 42:1.0 43:1.0 48:0.15789473684210525 49:0.09090909090909091 50:0.16666666666666666 51:1.0 52:1.0 
1.0 39:0.1875 40:0.15384615384615385 41:0.15384615384615385 43:1.0 44:0.2 48:0.22580645161290322 49:0.2 50:0.16666666666666666 52:1.0 53:0.6 55:0.5 
1.0 39:0.09523809523809523 40:0.06060606060606061 48:0.15 49:0.1 
1.0 39:0.09523809523809523 40:0.06060606060606061 48:0.15 49:0.1 
1.0 39:0.08333333333333333 40:0.05405405405405406 41:0.14285714285714285 42:1.0 43:1.0 44:0.2 48:0.08333333333333333 49:0.05555555555555555 50:0.14285714285714285 51:1.0 52:1.0 53:0.2 
1.0 39:0.05555555555555555 40:0.05405405405405406 48:0.08333333333333333 49:0.08333333333333333 53:0.2 
1.0 39:0.07058823529411765 40:0.05454545454545454 41:0.14705882352941177 44:0.25 46:0.2 48:0.08860759493670886 49:0.058823529411764705 50:0.1875 53:0.3125 55:0.26666666666666666 
1.0 39:0.07058823529411765 40:0.05454545454545454 41:0.14705882352941177 44:0.25 46:0.2 48:0.08860759493670886 49:0.058823529411764705 50:0.1875 53:0.3125 55:0.26666666666666666 
1.0 39:0.018518518518518517 41:0.14285714285714285 42:1.0 43:1.0 48:0.019230769230769232 50:0.14285714285714285 51:1.0 52:1.0 
1.0 39:0.07228915662650602 40:0.05714285714285714 41:0.08196721311475409 44:0.11764705882352941 48:0.07894736842105263 49:0.06060606060606061 50:0.09259259259259259 53:0.11764705882352941 
1.0 39:0.060240963855421686 41:0.08196721311475409 44:0.23529411764705882 46:0.1875 48:0.06578947368421052 50:0.09259259259259259 53:0.23529411764705882 55:0.1875 
1.0 39:0.05263157894736842 40:0.05714285714285714 41:0.14285714285714285 44:0.14285714285714285 48:0.058823529411764705 49:0.06451612903225806 50:0.14285714285714285 53:0.14285714285714285 
1.0 39:0.05263157894736842 40:0.05714285714285714 41:0.14285714285714285 44:0.14285714285714285 48:0.058823529411764705 49:0.06451612903225806 50:0.14285714285714285 53:0.14285714285714285 
1.0 39:0.14285714285714285 40:0.125 41:0.25 42:1.0 43:1.0 44:0.25 48:0.2 49:0.2 50:0.25 51:1.0 52:1.0 53:0.25 
1.0 39:0.047619047619047616 41:0.09090909090909091 48:0.15 49:0.08333333333333333 50:0.18181818181818182 53:0.25 
1.0 39:0.14285714285714285 40:0.15384615384615385 41:0.09090909090909091 44:0.25 48:0.15 49:0.16666666666666666 50:0.09090909090909091 53:0.25 
1.0 39:0.041666666666666664 41:0.2 42:1.0 43:1.0 48:0.041666666666666664 50:0.2 51:1.0 52:1.0 
1.0 39:0.23076923076923078 40:0.16666666666666666 41:0.25 42:1.0 43:1.0 44:0.2 48:0.23076923076923078 49:0.1724137931034483 50:0.25 51:1.0 52:1.0 53:0.2 
1.0 39:0.1282051282051282 40:0.10810810810810811 41:0.2 42:1.0 43:1.0 44:0.125 48:0.14705882352941177 49:0.12121212121212122 50:0.2 51:1.0 52:1.0 53:0.14285714285714285 
1.0 39:0.10256410256410256 40:0.10810810810810811 44:0.25 46:0.14285714285714285 48:0.14705882352941177 49:0.15151515151515152 53:0.2857142857142857 55:0.16666666666666666 
1.0 39:0.15789473684210525 40:0.11904761904761904 41:0.25 42:1.0 43:1.0 44:0.16666666666666666 48:0.17142857142857143 49:0.1282051282051282 50:0.25 51:1.0 52:1.0 53:0.16666666666666666 
1.0 39:0.05263157894736842 40:0.023809523809523808 41:0.25 42:1.0 43:1.0 44:0.16666666666666666 48:0.05714285714285714 49:0.02564102564102564 50:0.25 51:1.0 52:1.0 53:0.16666666666666666 
1.0 39:0.0273972602739726 40:0.024390243902439025 41:0.2 42:1.0 43:1.0 48:0.04 49:0.04878048780487805 50:0.2 51:1.0 52:1.0 53:0.16666666666666666 
1.0 39:0.08888888888888889 40:0.0967741935483871 41:0.047619047619047616 44:0.16666666666666666 48:0.11627906976744186 49:0.13333333333333333 50:0.05263157894736842 53:0.5 55:0.4 
1.0 39:0.06666666666666667 40:0.03225806451612903 41:0.09523809523809523 48:0.09302325581395349 49:0.06666666666666667 50:0.10526315789473684 
1.0 39:0.09615384615384616 40:0.06976744186046512 41:0.15384615384615385 42:1.0 43:1.0 44:0.125 48:0.1346153846153846 49:0.11627906976744186 50:0.15384615384615385 51:1.0 52:1.0 53:0.1111111111111111 
1.0 39:0.09615384615384616 40:0.06976744186046512 41:0.15384615384615385 42:1.0 43:1.0 44:0.125 48:0.1346153846153846 49:0.11627906976744186 50:0.15384615384615385 51:1.0 52:1.0 53:0.1111111111111111 
1.0 39:0.10989010989010989 41:0.1724137931034483 44:0.4375 46:0.3333333333333333 48:0.1348314606741573 50:0.20689655172413793 52:1.0 53:0.5555555555555556 55:0.47058823529411764 
1.0 39:0.1206896551724138 40:0.11428571428571428 41:0.14814814814814814 44:0.3 48:0.14035087719298245 49:0.14285714285714285 50:0.15384615384615385 53:0.36363636363636365 55:0.1 
1.0 39:0.1206896551724138 40:0.11428571428571428 41:0.14814814814814814 44:0.3 48:0.14035087719298245 49:0.14285714285714285 50:0.15384615384615385 53:0.36363636363636365 55:0.1 
1.0 39:0.10638297872340426 41:0.13513513513513514 44:0.4444444444444444 46:0.375 48:0.1276595744680851 50:0.16216216216216217 53:0.5555555555555556 55:0.5 
1.0 39:0.0425531914893617 40:0.047619047619047616 41:0.02702702702702703 48:0.0425531914893617 49:0.05 50:0.02702702702702703 
1.0 39:0.10869565217391304 40:0.075 41:0.2 42:1.0 43:1.0 44:0.5 46:0.2 48:0.13043478260869565 49:0.1 50:0.2 51:1.0 52:1.0 53:0.7142857142857143 55:0.6666666666666666 
1.0 39:0.15217391304347827 40:0.175 44:0.3333333333333333 46:0.2 48:0.2608695652173913 49:0.3 53:0.5714285714285714 55:0.5 
1.0 39:0.11363636363636363 40:0.09090909090909091 41:0.16666666666666666 44:0.125 48:0.12195121951219512 49:0.10344827586206896 50:0.16666666666666666 53:0.125 
1.0 39:0.14893617021276595 40:0.12195121951219512 41:0.14285714285714285 44:0.2857142857142857 48:0.1702127659574468 49:0.15 50:0.14285714285714285 53:0.42857142857142855 55:0.16666666666666666 
1.0 39:0.06382978723404255 40:0.07317073170731707 48:0.06382978723404255 49:0.075 
1.0 39:0.10714285714285714 40:0.08 41:0.16666666666666666 42:1.0 43:1.0 48:0.11538461538461539 49:0.08333333333333333 50:0.16666666666666666 51:1.0 52:1.0 
1.0 39:0.10666666666666667 40:0.03225806451612903 41:0.1568627450980392 44:0.4375 46:0.4 48:0.11267605633802817 49:0.03333333333333333 50:0.1702127659574468 53:0.4375 55:0.4 
1.0 39:0.04 40:0.06451612903225806 41:0.0392156862745098 48:0.056338028169014086 49:0.1 50:0.0425531914893617 53:0.125 55:0.06666666666666667 
1.0 39:0.06097560975609756 40:0.05263157894736842 41:0.08823529411764706 44:0.07692307692307693 48:0.08536585365853659 49:0.05405405405405406 50:0.1388888888888889 53:0.07142857142857142 
1.0 39:0.13095238095238096 40:0.21951219512195122 41:0.047619047619047616 44:0.06666666666666667 48:0.14285714285714285 49:0.23076923076923078 50:0.06818181818181818 53:0.058823529411764705 
1.0 39:0.023809523809523808 40:0.04878048780487805 44:0.06666666666666667 48:0.047619047619047616 49:0.05128205128205128 50:0.045454545454545456 53:0.058823529411764705 
1.0 39:0.0784313725490196 40:0.09090909090909091 41:0.07874015748031496 44:0.2903225806451613 46:0.2 48:0.08496732026143791 49:0.09375 50:0.08661417322834646 53:0.30303030303030304 55:0.21875 
1.0 39:0.05228758169934641 40:0.09090909090909091 41:0.047244094488188976 44:0.1935483870967742 46:0.13333333333333333 48:0.05228758169934641 49:0.09375 50:0.047244094488188976 53:0.18181818181818182 55:0.125 
1.0 39:0.12280701754385964 40:0.07142857142857142 41:0.2222222222222222 44:0.18181818181818182 48:0.13725490196078433 49:0.08108108108108109 50:0.2222222222222222 53:0.2 
1.0 39:0.07017543859649122 40:0.047619047619047616 41:0.1111111111111111 48:0.0784313725490196 49:0.05405405405405406 50:0.1111111111111111 
1.0 39:0.08620689655172414 40:0.06666666666666667 41:0.25 42:1.0 43:1.0 44:0.2 46:0.1111111111111111 48:0.09090909090909091 49:0.07142857142857142 50:0.25 51:1.0 52:1.0 53:0.2 55:0.1111111111111111 
1.0 39:0.06896551724137931 40:0.06666666666666667 41:0.08333333333333333 44:0.1 48:0.07272727272727272 49:0.07142857142857142 50:0.08333333333333333 53:0.1 
0.5876258527437364 39:0.1935483870967742 40:0.16666666666666666 41:0.2 42:1.0 43:1.0 44:1.0 46:1.0 48:0.20689655172413793 49:0.18181818181818182 50:0.2 51:1.0 52:1.0 53:1.0 55:1.0 
1.0 39:0.12195121951219512 40:0.09090909090909091 41:0.1111111111111111 44:0.42857142857142855 46:0.16666666666666666 48:0.14634146341463414 49:0.14285714285714285 50:0.1111111111111111 53:0.7142857142857143 55:0.6666666666666666 
1.0 39:0.04878048780487805 40:0.09090909090909091 44:0.14285714285714285 48:0.07317073170731707 49:0.14285714285714285 53:0.2857142857142857 55:0.16666666666666666 
1.0 39:0.15625 40:0.11538461538461539 41:0.2222222222222222 42:1.0 43:1.0 44:1.0 46:1.0 48:0.16666666666666666 49:0.125 50:0.2222222222222222 51:1.0 52:1.0 53:1.0 55:1.0 
1.0 39:0.06779661016949153 40:0.05405405405405406 41:0.10344827586206896 48:0.08620689655172414 49:0.08333333333333333 50:0.10714285714285714 53:0.15384615384615385 55:0.08333333333333333 
1.0 39:0.13559322033898305 40:0.1891891891891892 41:0.06896551724137931 44:0.15384615384615385 48:0.1724137931034483 49:0.2222222222222222 50:0.10714285714285714 53:0.15384615384615385 
1.0 39:0.06666666666666667 40:0.03571428571428571 41:0.2 42:1.0 43:1.0 48:0.14814814814814814 49:0.11538461538461539 50:0.2 51:1.0 52:1.0 
1.0 39:0.15151515151515152 40:0.10810810810810811 41:0.2 42:1.0 43:1.0 48:0.1875 49:0.14285714285714285 50:0.2 51:1.0 52:1.0 
1.0 39:0.12244897959183673 40:0.027777777777777776 41:0.23809523809523808 43:1.0 44:0.125 48:0.1702127659574468 49:0.08823529411764706 50:0.23809523809523808 52:1.0 53:0.125 
1.0 39:0.14285714285714285 40:0.027777777777777776 41:0.3333333333333333 44:0.25 46:0.14285714285714285 48:0.19148936170212766 49:0.08823529411764706 50:0.3333333333333333 53:0.25 55:0.14285714285714285 
1.0 39:0.07936507936507936 40:0.05263157894736842 41:0.09090909090909091 44:0.2727272727272727 48:0.08333333333333333 49:0.08333333333333333 50:0.0967741935483871 53:0.2727272727272727 
1.0 39:0.1111111111111111 40:0.10526315789473684 41:0.09090909090909091 44:0.18181818181818182 48:0.11666666666666667 49:0.1111111111111111 50:0.0967741935483871 53:0.18181818181818182 
1.0 39:0.08064516129032258 40:0.0851063829787234 41:0.08333333333333333 44:0.23076923076923078 46:0.16666666666666666 48:0.08333333333333333 49:0.08695652173913043 50:0.08333333333333333 53:0.25 55:0.18181818181818182 
1.0 39:0.0967741935483871 40:0.0851063829787234 41:0.16666666666666666 44:0.15384615384615385 46:0.08333333333333333 48:0.11666666666666667 49:0.10869565217391304 50:0.16666666666666666 53:0.16666666666666666 55:0.09090909090909091 
1.0 39:0.0975609756097561 40:0.21052631578947367 41:0.023255813953488372 44:0.1875 46:0.13333333333333333 48:0.11392405063291139 49:0.2571428571428571 50:0.023255813953488372 53:0.17647058823529413 55:0.125 
1.0 39:0.06097560975609756 40:0.02631578947368421 41:0.09302325581395349 44:0.1875 46:0.13333333333333333 48:0.06329113924050633 49:0.02857142857142857 50:0.09302325581395349 53:0.17647058823529413 55:0.125 
1.0 39:0.06299212598425197 40:0.07017543859649122 41:0.07407407407407407 44:0.24 46:0.125 48:0.06666666666666667 49:0.07407407407407407 50:0.07894736842105263 53:0.2222222222222222 55:0.11538461538461539 
1.0 39:0.031496062992125984 40:0.05263157894736842 41:0.024691358024691357 44:0.08 46:0.041666666666666664 48:0.041666666666666664 49:0.05555555555555555 50:0.039473684210526314 53:0.1111111111111111 55:0.038461538461538464 
1.0 39:0.14285714285714285 40:0.07142857142857142 41:0.125 42:1.0 43:1.0 48:0.21428571428571427 49:0.14285714285714285 50:0.125 51:1.0 52:1.0 
1.0 39:0.14285714285714285 40:0.11320754716981132 41:0.2857142857142857 42:1.0 43:1.0 44:0.16666666666666666 46:0.09090909090909091 48:0.2037037037037037 49:0.17647058823529413 50:0.2857142857142857 51:1.0 52:1.0 53:0.16666666666666666 55:0.09090909090909091 
1.0 39:0.17647058823529413 40:0.13157894736842105 41:0.125 42:1.0 43:1.0 44:0.2 48:0.21875 49:0.16666666666666666 50:0.14285714285714285 51:1.0 52:1.0 53:0.6 55:0.25 
1.0 39:0.11764705882352941 40:0.07894736842105263 41:0.125 42:1.0 43:1.0 48:0.15625 49:0.1111111111111111 50:0.14285714285714285 51:1.0 52:1.0 53:0.4 55:0.25 
0.527124717640223 39:0.046511627906976744 40:0.018518518518518517 41:1.0 42:1.0 43:1.0 44:0.1111111111111111 48:0.047619047619047616 49:0.019230769230769232 50:1.0 51:1.0 52:1.0 53:0.1111111111111111 
1.0 39:0.046511627906976744 40:0.037037037037037035 48:0.09523809523809523 49:0.07692307692307693 53:0.1111111111111111 
1.0 39:0.16129032258064516 40:0.15625 44:0.4 46:0.25 48:0.20689655172413793 49:0.16129032258064516 50:0.2 51:1.0 52:1.0 53:0.4 55:0.25 
1.0 39:0.16666666666666666 40:0.13636363636363635 41:0.2 42:1.0 43:1.0 44:1.0 46:1.0 48:0.2222222222222222 49:0.17647058823529413 50:0.25 51:1.0 52:1.0 53:1.0 55:1.0 
1.0 39:0.07894736842105263 40:0.041666666666666664 41:0.11764705882352941 42:1.0 43:1.0 44:0.16666666666666666 48:0.08571428571428572 49:0.043478260869565216 50:0.125 51:1.0 52:1.0 53:0.2 
1.0 39:0.07894736842105263 40:0.041666666666666664 41:0.11764705882352941 42:1.0 43:1.0 44:0.16666666666666666 48:0.08571428571428572 49:0.043478260869565216 50:0.125 51:1.0 52:1.0 53:0.2 
1.0 39:0.125 40:0.0967741935483871 41:0.2 42:1.0 43:1.0 44:0.16666666666666666 48:0.12121212121212122 49:0.09375 50:0.2 51:1.0 52:1.0 53:0.14285714285714285 
1.0 39:0.03125 41:0.2 42:1.0 43:1.0 48:0.06060606060606061 49:0.03125 50:0.2 51:1.0 52:1.0 
1.0 39:0.2 40:0.17857142857142858 41:0.2 44:0.6666666666666666 46:0.4 48:0.22857142857142856 49:0.21428571428571427 50:0.2 53:0.6666666666666666 55:0.4 
1.0 39:0.16666666666666666 40:0.17777777777777778 44:0.3 46:0.1111111111111111 48:0.17391304347826086 49:0.18181818181818182 53:0.3333333333333333 55:0.125 
1.0 39:0.10416666666666667 40:0.1111111111111111 48:0.10869565217391304 49:0.11363636363636363 
1.0 39:0.125 40:0.13333333333333333 41:0.12903225806451613 44:0.3333333333333333 46:0.25 48:0.14285714285714285 49:0.13793103448275862 50:0.15625 53:0.4 55:0.3333333333333333 
1.0 39:0.125 40:0.07692307692307693 41:0.17647058823529413 42:1.0 43:1.0 44:0.25 46:0.14285714285714285 48:0.125 49:0.07894736842105263 50:0.17647058823529413 51:1.0 52:1.0 53:0.25 55:0.14285714285714285 
1.0 39:0.041666666666666664 40:0.05128205128205128 48:0.041666666666666664 49:0.05263157894736842 
1.0 39:0.14583333333333334 40:0.13636363636363635 41:0.14285714285714285 42:1.0 43:1.0 44:0.25 48:0.15555555555555556 49:0.14634146341463414 50:0.14285714285714285 51:1.0 52:1.0 53:0.25 
1.0 39:0.11904761904761904 40:0.12903225806451613 41:0.05263157894736842 48:0.15789473684210525 49:0.18518518518518517 50:0.16666666666666666 53:0.14285714285714285 
1.0 39:0.11904761904761904 40:0.03225806451612903 41:0.21052631578947367 48:0.13157894736842105 49:0.1111111111111111 50:0.2777777777777778 53:0.14285714285714285 
1.0 39:0.08695652173913043 40:0.07142857142857142 41:0.125 42:1.0 43:1.0 44:0.14285714285714285 48:0.10638297872340426 49:0.09302325581395349 50:0.125 51:1.0 52:1.0 53:0.125 
1.0 39:0.08695652173913043 40:0.07142857142857142 41:0.125 42:1.0 43:1.0 48:0.1276595744680851 49:0.11627906976744186 50:0.125 51:1.0 52:1.0 53:0.125 
1.0 39:0.07692307692307693 40:0.05263157894736842 41:0.25 42:1.0 43:1.0 44:0.14285714285714285 48:0.08333333333333333 49:0.05714285714285714 50:0.25 51:1.0 52:1.0 53:0.14285714285714285 
1.0 39:0.10256410256410256 40:0.05263157894736842 41:0.5 42:1.0 43:1.0 48:0.1111111111111111 49:0.05714285714285714 50:0.5 51:1.0 52:1.0 
1.0 39:0.10526315789473684 40:0.10810810810810811 41:0.11538461538461539 48:0.10810810810810811 49:0.16666666666666666 50:0.12244897959183673 53:0.058823529411764705 
1.0 39:0.039473684210526314 41:0.057692307692307696 44:0.0625 48:0.04054054054054054 50:0.061224489795918366 53:0.058823529411764705 
1.0 39:0.058823529411764705 40:0.06060606060606061 41:0.09090909090909091 44:0.1 48:0.08888888888888889 49:0.10344827586206896 50:0.1 53:0.1 
1.0 39:0.058823529411764705 40:0.06060606060606061 41:0.09090909090909091 44:0.1 48:0.08888888888888889 49:0.10344827586206896 50:0.1 53:0.1 
1.0 39:0.019230769230769232 40:0.05714285714285714 44:0.10526315789473684 48:0.019230769230769232 49:0.05714285714285714 53:0.09523809523809523 
1.0 39:0.057692307692307696 41:0.125 44:0.10526315789473684 48:0.057692307692307696 50:0.13043478260869565 53:0.09523809523809523 
1.0 39:0.06382978723404255 40:0.04 41:0.18181818181818182 43:1.0 48:0.06818181818181818 49:0.041666666666666664 50:0.25 52:1.0 
1.0 39:0.075 40:0.05405405405405406 41:0.14285714285714285 42:1.0 43:1.0 44:0.14285714285714285 48:0.09375 49:0.06060606060606061 50:0.3333333333333333 51:1.0 52:1.0 53:0.14285714285714285 
1.0 39:0.027777777777777776 40:0.03571428571428571 41:0.09090909090909091 48:0.07894736842105263 49:0.038461538461538464 50:0.2 53:0.125 
1.0 39:0.05555555555555555 40:0.07142857142857142 41:0.09090909090909091 44:0.16666666666666666 48:0.07894736842105263 49:0.07692307692307693 50:0.13333333333333333 53:0.125 
1.0 39:0.0625 41:0.11627906976744186 44:0.21428571428571427 46:0.15384615384615385 48:0.0625 50:0.11363636363636363 53:0.2 55:0.14285714285714285 
1.0 39:0.0625 40:0.06818181818181818 41:0.046511627906976744 44:0.07142857142857142 48:0.075 49:0.07142857142857142 50:0.06818181818181818 53:0.13333333333333333 
1.0 39:0.11363636363636363 40:0.09375 41:0.21052631578947367 44:0.3333333333333333 46:0.2 48:0.175 49:0.14814814814814814 50:0.2631578947368421 53:0.5714285714285714 55:0.3333333333333333 
1.0 39:0.10869565217391304 40:0.08823529411764706 41:0.18181818181818182 44:0.14285714285714285 48:0.17391304347826086 49:0.17647058823529413 50:0.18181818181818182 53:0.25 55:0.14285714285714285 
1.0 39:0.021739130434782608 41:0.09090909090909091 48:0.10869565217391304 49:0.11764705882352941 50:0.09090909090909091 53:0.125 
1.0 39:0.1 40:0.05555555555555555 41:0.2857142857142857 42:1.0 43:1.0 44:0.125 48:0.1282051282051282 49:0.08333333333333333 50:0.2857142857142857 51:1.0 52:1.0 53:0.375 55:0.14285714285714285 
1.0 39:0.09375 40:0.058823529411764705 41:0.16666666666666666 42:1.0 43:1.0 44:0.2 48:0.125 49:0.09090909090909091 50:0.16666666666666666 51:1.0 52:1.0 53:0.4 
1.0 39:0.08860759493670886 40:0.14634146341463414 41:0.14634146341463414 44:0.15789473684210525 48:0.09090909090909091 49:0.15 50:0.15 53:0.15789473684210525 
1.0 39:0.17721518987341772 40:0.21951219512195122 41:0.2926829268292683 44:0.15789473684210525 48:0.18181818181818182 49:0.225 50:0.3 53:0.15789473684210525 
1.0 39:0.1267605633802817 40:0.20588235294117646 41:0.041666666666666664 44:0.21428571428571427 46:0.07692307692307693 48:0.13043478260869565 49:0.21212121212121213 50:0.043478260869565216 53:0.21428571428571427 55:0.07692307692307693 
1.0 39:0.15492957746478872 40:0.20588235294117646 41:0.08333333333333333 44:0.14285714285714285 48:0.15942028985507245 49:0.21212121212121213 50:0.08695652173913043 53:0.14285714285714285 
1.0 39:0.15625 40:0.25 41:0.05263157894736842 44:0.14285714285714285 48:0.16129032258064516 49:0.25 50:0.05555555555555555 53:0.125 
1.0 39:0.0975609756097561 40:0.06060606060606061 41:0.12280701754385964 44:0.26666666666666666 46:0.14285714285714285 48:0.13253012048192772 49:0.0967741935483871 50:0.15517241379310345 53:0.4375 55:0.26666666666666666 
1.0 39:0.07317073170731707 40:0.12121212121212122 41:0.07017543859649122 44:0.26666666666666666 46:0.14285714285714285 48:0.07228915662650602 49:0.12903225806451613 50:0.06896551724137931 53:0.25 55:0.13333333333333333 
1.0 39:0.047619047619047616 41:0.13333333333333333 42:1.0 43:1.0 44:0.16666666666666666 48:0.07692307692307693 49:0.03125 50:0.14285714285714285 51:1.0 52:1.0 53:0.16666666666666666 
1.0 39:0.047619047619047616 40:0.05714285714285714 48:0.05128205128205128 49:0.0625 
0.0017640503630007194 39:0.17543859649122806 40:0.11904761904761904 41:0.21739130434782608 42:1.0 43:1.0 44:0.4 46:0.2222222222222222 48:0.2 49:0.1891891891891892 50:0.2631578947368421 51:1.0 52:1.0 53:0.6 55:0.3333333333333333 
1.0 39:0.017543859649122806 41:0.043478260869565216 48:0.06 50:0.15789473684210525 
1.0 39:0.14583333333333334 40:0.13043478260869565 41:0.09090909090909091 44:0.4444444444444444 46:0.25 48:0.1875 49:0.16666666666666666 50:0.09090909090909091 53:0.5555555555555556 55:0.375 
1.0 39:0.10416666666666667 40:0.08695652173913043 41:0.09090909090909091 44:0.3333333333333333 46:0.25 48:0.10416666666666667 49:0.125 50:0.09090909090909091 53:0.3333333333333333 55:0.25 
1.0 39:0.078125 40:0.11290322580645161 41:0.1038961038961039 44:0.3103448275862069 46:0.25 48:0.08196721311475409 49:0.11475409836065574 50:0.11267605633802817 53:0.3103448275862069 55:0.25 
1.0 39:0.0703125 40:0.12903225806451613 41:0.06493506493506493 44:0.13793103448275862 46:0.03571428571428571 48:0.07377049180327869 49:0.13114754098360656 50:0.07042253521126761 53:0.13793103448275862 55:0.03571428571428571 
1.0 39:0.14583333333333334 40:0.12903225806451613 41:0.19230769230769232 44:0.45454545454545453 46:0.2 48:0.14583333333333334 49:0.13333333333333333 50:0.19230769230769232 53:0.45454545454545453 55:0.2 
1.0 39:0.05154639175257732 40:0.08620689655172414 41:0.044444444444444446 48:0.06315789473684211 49:0.10909090909090909 50:0.06521739130434782 53:0.045454545454545456 
1.0 39:0.030927835051546393 40:0.05172413793103448 41:0.044444444444444446 44:0.05 48:0.031578947368421054 49:0.05454545454545454 50:0.043478260869565216 53:0.045454545454545456 
1.0 39:0.04819277108433735 40:0.05714285714285714 48:0.075 49:0.07352941176470588 50:0.09090909090909091 53:0.058823529411764705 
1.0 39:0.03614457831325301 40:0.04285714285714286 48:0.0375 49:0.04411764705882353 
1.0 39:0.09090909090909091 40:0.07407407407407407 41:0.1 42:1.0 43:1.0 44:0.25 48:0.15151515151515152 49:0.14814814814814814 50:0.1 51:1.0 52:1.0 53:0.2 
1.0 39:0.05172413793103448 41:0.13636363636363635 44:0.2222222222222222 46:0.125 48:0.05660377358490566 50:0.14285714285714285 53:0.2222222222222222 55:0.125 
1.0 39:0.06521739130434782 40:0.08571428571428572 44:0.125 48:0.06666666666666667 49:0.08823529411764706 53:0.125 
1.0 39:0.06521739130434782 40:0.08571428571428572 44:0.125 48:0.06666666666666667 49:0.08823529411764706 53:0.125 
1.0 39:0.07692307692307693 40:0.0847457627118644 44:0.16666666666666666 46:0.09090909090909091 48:0.09375 49:0.10344827586206896 53:0.25 55:0.18181818181818182 
1.0 39:0.08196721311475409 40:0.08333333333333333 41:0.16666666666666666 42:1.0 43:1.0 44:0.2 48:0.0847457627118644 49:0.08695652173913043 50:0.16666666666666666 51:1.0 52:1.0 53:0.2 
1.0 39:0.13953488372093023 40:0.07142857142857142 41:0.2222222222222222 44:0.25 48:0.14634146341463414 49:0.07407407407407407 50:0.23529411764705882 53:0.25 
1.0 39:0.13953488372093023 40:0.07142857142857142 41:0.2222222222222222 44:0.25 48:0.14634146341463414 49:0.07407407407407407 50:0.23529411764705882 53:0.25 
1.0 39:0.06315789473684211 40:0.021739130434782608 41:0.10714285714285714 44:0.125 46:0.06666666666666667 48:0.06818181818181818 49:0.022727272727272728 50:0.12 53:0.125 55:0.06666666666666667 
1.0 39:0.042105263157894736 40:0.08695652173913043 41:0.03571428571428571 44:0.0625 48:0.056818181818181816 49:0.09090909090909091 50:0.06 53:0.0625 
1.0 39:0.09523809523809523 40:0.14814814814814814 44:0.2857142857142857 46:0.16666666666666666 48:0.0975609756097561 49:0.15384615384615385 53:0.2857142857142857 55:0.16666666666666666 
1.0 39:0.07142857142857142 40:0.037037037037037035 41:0.09090909090909091 44:0.14285714285714285 48:0.07317073170731707 49:0.038461538461538464 50:0.09523809523809523 53:0.14285714285714285 
1.0 39:0.05128205128205128 40:0.02857142857142857 41:0.14285714285714285 42:1.0 43:1.0 48:0.08108108108108109 49:0.06060606060606061 50:0.14285714285714285 51:1.0 52:1.0 53:0.16666666666666666 
1.0 39:0.10256410256410256 40:0.05714285714285714 41:0.2857142857142857 42:1.0 43:1.0 44:0.16666666666666666 48:0.10810810810810811 49:0.06060606060606061 50:0.2857142857142857 51:1.0 52:1.0 53:0.16666666666666666 
1.0 39:0.1111111111111111 40:0.09302325581395349 41:0.125 44:0.16666666666666666 48:0.11864406779661017 49:0.10256410256410256 50:0.125 53:0.16666666666666666 
1.0 39:0.17647058823529413 40:0.16129032258064516 41:0.16666666666666666 42:1.0 43:1.0 44:0.6666666666666666 46:0.6 48:0.23333333333333334 49:0.21428571428571427 53:1.0 55:1.0 
1.0 39:0.05263157894736842 40:0.027777777777777776 41:0.2 42:1.0 43:1.0 48:0.08108108108108109 49:0.05714285714285714 50:0.2 51:1.0 52:1.0 
1.0 39:0.07894736842105263 40:0.05555555555555555 41:0.2 42:1.0 43:1.0 48:0.05405405405405406 49:0.02857142857142857 50:0.2 51:1.0 52:1.0 
1.0 39:0.09523809523809523 40:0.14705882352941177 44:0.14285714285714285 48:0.16666666666666666 49:0.23529411764705882 53:0.5 55:0.2857142857142857 
1.0 39:0.047619047619047616 40:0.029411764705882353 41:0.06666666666666667 48:0.07142857142857142 49:0.058823529411764705 50:0.14285714285714285 
1.0 39:0.13793103448275862 40:0.11538461538461539 41:0.16666666666666666 42:1.0 43:1.0 44:0.25 48:0.1111111111111111 49:0.08333333333333333 50:0.16666666666666666 51:1.0 52:1.0 53:0.25 
1.0 39:0.07692307692307693 40:0.034482758620689655 41:0.09302325581395349 48:0.07692307692307693 49:0.03571428571428571 50:0.09302325581395349 
1.0 39:0.14 40:0.19444444444444445 44:0.25 46:0.14285714285714285 48:0.14285714285714285 49:0.2 53:0.25 55:0.14285714285714285 
1.0 39:0.02 40:0.027777777777777776 48:0.061224489795918366 49:0.08571428571428572 53:0.125 
1.0 39:0.10204081632653061 40:0.075 41:0.15384615384615385 42:1.0 43:1.0 44:0.2222222222222222 48:0.1276595744680851 49:0.10256410256410256 50:0.16666666666666666 51:1.0 52:1.0 53:0.2222222222222222 
1.0 39:0.11475409836065574 40:0.1 41:0.15 48:0.12280701754385964 49:0.10526315789473684 50:0.16666666666666666 
1.0 39:0.03278688524590164 40:0.05 48:0.07017543859649122 49:0.10526315789473684 53:0.09090909090909091 
1.0 39:0.15384615384615385 40:0.16666666666666666 41:0.10526315789473684 44:0.625 46:0.5714285714285714 48:0.15789473684210525 49:0.17391304347826086 50:0.10526315789473684 53:0.625 55:0.5714285714285714 
1.0 39:0.07692307692307693 40:0.125 44:0.25 46:0.14285714285714285 48:0.10526315789473684 49:0.13043478260869565 50:0.05263157894736842 53:0.375 55:0.2857142857142857 
1.0 39:0.125 40:0.10714285714285714 44:0.25 48:0.14285714285714285 49:0.11538461538461539 53:0.25 
1.0 39:0.18518518518518517 40:0.18181818181818182 41:0.1111111111111111 44:0.2 48:0.19230769230769232 49:0.19047619047619047 50:0.1111111111111111 53:0.2 
1.0 39:0.13333333333333333 40:0.19047619047619047 41:0.07142857142857142 44:0.625 46:0.5714285714285714 48:0.13953488372093023 49:0.2 50:0.07407407407407407 53:0.625 55:0.5714285714285714 
1.0 39:0.06666666666666667 40:0.14285714285714285 44:0.25 46:0.14285714285714285 48:0.09302325581395349 49:0.15 50:0.037037037037037035 53:0.375 55:0.2857142857142857 
1.0 39:0.025974025974025976 40:0.05405405405405406 41:0.046511627906976744 44:0.13333333333333333 48:0.041666666666666664 49:0.08571428571428572 50:0.07317073170731707 53:0.21428571428571427 
1.0 39:0.09448818897637795 40:0.136986301369863 41:0.1935483870967742 44:0.2857142857142857 46:0.037037037037037035 48:0.09523809523809523 49:0.1527777777777778 50:0.19672131147540983 53:0.3103448275862069 55:0.03571428571428571 
1.0 39:0.015748031496062992 40:0.0273972602739726 41:0.03225806451612903 44:0.10714285714285714 48:0.015873015873015872 49:0.027777777777777776 50:0.03278688524590164 53:0.13793103448275862 
1.0 39:0.06944444444444445 40:0.023529411764705882 41:0.11940298507462686 44:0.1111111111111111 46:0.038461538461538464 48:0.07971014492753623 49:0.037037037037037035 50:0.140625 53:0.1111111111111111 55:0.038461538461538464 
1.0 39:0.020833333333333332 40:0.011764705882352941 41:0.029850746268656716 44:0.037037037037037035 48:0.028985507246376812 49:0.037037037037037035 50:0.03125 53:0.07407407407407407 
1.0 39:0.10752688172043011 40:0.09090909090909091 41:0.14285714285714285 44:0.2631578947368421 46:0.16666666666666666 48:0.11494252873563218 49:0.1 50:0.15 53:0.2631578947368421 55:0.16666666666666666 
1.0 39:0.010752688172043012 41:0.015873015873015872 48:0.034482758620689655 49:0.03333333333333333 50:0.05 
1.0 39:0.02631578947368421 40:0.03225806451612903 48:0.08571428571428572 49:0.10344827586206896 53:0.16666666666666666 
1.0 39:0.07894736842105263 40:0.13043478260869565 48:0.1780821917808219 49:0.18421052631578946 50:0.14634146341463414 53:0.14285714285714285 55:0.07692307692307693 
1.0 39:0.07894736842105263 40:0.13043478260869565 48:0.136986301369863 49:0.15789473684210525 50:0.0975609756097561 53:0.14285714285714285 55:0.07692307692307693 
1.0 39:0.21818181818181817 40:0.2558139534883721 41:0.38095238095238093 44:0.3 48:0.21428571428571427 49:0.2619047619047619 50:0.5 53:0.36363636363636365 
1.0 39:0.10909090909090909 40:0.13953488372093023 41:0.23809523809523808 44:0.1 48:0.125 49:0.16666666666666666 50:0.2727272727272727 53:0.18181818181818182 
1.0 39:0.08823529411764706 40:0.03225806451612903 41:0.2857142857142857 42:1.0 43:1.0 48:0.14705882352941177 49:0.0967741935483871 50:0.2857142857142857 51:1.0 52:1.0 
1.0 39:0.10909090909090909 40:0.10869565217391304 41:0.125 42:1.0 43:1.0 44:0.1111111111111111 48:0.1568627450980392 49:0.16279069767441862 50:0.14285714285714285 51:1.0 52:1.0 53:0.3333333333333333 55:0.125 
1.0 39:0.05454545454545454 40:0.06521739130434782 48:0.058823529411764705 49:0.06976744186046512 
1.0 39:0.16666666666666666 40:0.13043478260869565 41:0.2 42:1.0 43:1.0 48:0.25 49:0.21739130434782608 50:0.2 51:1.0 52:1.0 53:0.2 
1.0 39:0.10714285714285714 40:0.09259259259259259 41:0.2 42:1.0 43:1.0 48:0.1111111111111111 49:0.09615384615384616 50:0.2 51:1.0 52:1.0 
1.0 39:0.038461538461538464 41:0.25 42:1.0 43:1.0 48:0.04 50:0.25 51:1.0 52:1.0 
1.0 39:0.038461538461538464 40:0.034482758620689655 48:0.08 49:0.07142857142857142 53:0.25 
1.0 39:0.11864406779661017 40:0.12962962962962962 44:0.25 46:0.18181818181818182 48:0.14545454545454545 49:0.1568627450980392 53:0.45454545454545453 55:0.4 
1.0 39:0.0847457627118644 40:0.07407407407407407 41:0.125 42:1.0 43:1.0 44:0.08333333333333333 48:0.09090909090909091 49:0.0784313725490196 50:0.125 51:1.0 52:1.0 53:0.09090909090909091 
1.0 39:0.07317073170731707 40:0.09523809523809523 41:0.05263157894736842 48:0.1282051282051282 49:0.15789473684210525 50:0.10526315789473684 53:0.2857142857142857 55:0.16666666666666666 
1.0 39:0.04878048780487805 40:0.047619047619047616 41:0.05263157894736842 48:0.07692307692307693 49:0.05263157894736842 50:0.10526315789473684 
1.0 39:0.06818181818181818 40:0.047619047619047616 41:0.16666666666666666 42:1.0 43:1.0 48:0.09302325581395349 49:0.1 50:0.16666666666666666 51:1.0 52:1.0 53:0.125 
1.0 39:0.06818181818181818 40:0.07142857142857142 48:0.09523809523809523 49:0.1 53:0.125 
1.0 39:0.15217391304347827 40:0.14705882352941177 41:0.26666666666666666 42:1.0 43:1.0 44:0.16666666666666666 48:0.16666666666666666 49:0.16129032258064516 50:0.2857142857142857 51:1.0 52:1.0 53:0.16666666666666666 
1.0 39:0.08695652173913043 40:0.11764705882352941 41:0.13333333333333333 42:1.0 43:1.0 44:0.16666666666666666 48:0.09523809523809523 49:0.12903225806451613 50:0.14285714285714285 51:1.0 52:1.0 53:0.16666666666666666 
1.0 39:0.08955223880597014 40:0.09090909090909091 41:0.06666666666666667 44:0.2727272727272727 46:0.2 48:0.09523809523809523 49:0.09615384615384616 50:0.07142857142857142 53:0.2727272727272727 55:0.2 
1.0 39:0.1044776119402985 40:0.09090909090909091 41:0.26666666666666666 42:1.0 43:1.0 44:0.09090909090909091 48:0.1111111111111111 49:0.09615384615384616 50:0.2857142857142857 51:1.0 52:1.0 53:0.09090909090909091 
1.0 39:0.14285714285714285 40:0.11428571428571428 41:0.17857142857142858 44:0.125 48:0.19298245614035087 49:0.2 50:0.17857142857142858 53:0.1111111111111111 
0.8809162479084203 39:0.16216216216216217 40:0.09090909090909091 41:0.375 42:1.0 43:1.0 44:0.2 48:0.21621621621621623 49:0.15151515151515152 50:0.375 51:1.0 52:1.0 53:0.16666666666666666 
1.0 39:0.08823529411764706 41:0.21428571428571427 42:1.0 43:1.0 44:0.4 46:0.25 48:0.13333333333333333 49:0.05263157894736842 50:0.21428571428571427 51:1.0 52:1.0 53:0.6 55:0.5 
1.0 39:0.12727272727272726 40:0.12 41:0.11764705882352941 44:0.2222222222222222 46:0.125 48:0.12962962962962962 49:0.125 50:0.11764705882352941 53:0.2222222222222222 55:0.125 
1.0 39:0.05454545454545454 40:0.08 41:0.029411764705882353 48:0.07407407407407407 49:0.125 50:0.029411764705882353 
1.0 39:0.015873015873015872 40:0.05263157894736842 41:0.03125 48:0.02459016393442623 49:0.08108108108108109 50:0.05 53:0.125 
1.0 39:0.031746031746031744 40:0.02631578947368421 41:0.0625 44:0.08333333333333333 48:0.03278688524590164 49:0.02702702702702703 50:0.06666666666666667 53:0.08333333333333333 
1.0 39:0.13636363636363635 40:0.13333333333333333 41:0.1111111111111111 44:0.125 48:0.14634146341463414 49:0.13793103448275862 50:0.125 53:0.125 
1.0 39:0.047058823529411764 40:0.075 41:0.05128205128205128 44:0.07142857142857142 48:0.08860759493670886 49:0.13157894736842105 50:0.08108108108108109 53:0.25 55:0.06666666666666667 
1.0 39:0.021505376344086023 40:0.023809523809523808 41:0.044444444444444446 44:0.07142857142857142 48:0.04597701149425287 49:0.05 50:0.06976744186046512 53:0.125 55:0.06666666666666667 
1.0 39:0.06382978723404255 40:0.047619047619047616 41:0.10344827586206896 44:0.29411764705882354 46:0.25 48:0.06593406593406594 49:0.047619047619047616 50:0.10909090909090909 53:0.29411764705882354 55:0.25 
1.0 39:0.05319148936170213 40:0.09523809523809523 41:0.05172413793103448 44:0.17647058823529413 46:0.0625 48:0.06593406593406594 49:0.11904761904761904 50:0.05454545454545454 53:0.23529411764705882 55:0.125 
1.0 39:0.09278350515463918 40:0.1323529411764706 44:0.16666666666666666 46:0.11764705882352941 48:0.10526315789473684 49:0.15384615384615385 53:0.2777777777777778 55:0.23529411764705882 
1.0 39:0.041237113402061855 40:0.029411764705882353 41:0.05405405405405406 44:0.05555555555555555 48:0.05263157894736842 49:0.046153846153846156 50:0.05555555555555555 53:0.05555555555555555 
1.0 39:0.1125 40:0.12244897959183673 41:0.13043478260869565 44:0.26666666666666666 46:0.21428571428571427 48:0.12162162162162163 49:0.1276595744680851 50:0.14285714285714285 53:0.26666666666666666 55:0.21428571428571427 
1.0 39:0.17142857142857143 40:0.1935483870967742 41:0.09090909090909091 44:0.2857142857142857 48:0.22580645161290322 49:0.25925925925925924 50:0.2 53:0.5714285714285714 55:0.3333333333333333 
1.0 39:0.17142857142857143 40:0.16129032258064516 41:0.2727272727272727 44:0.2857142857142857 48:0.1935483870967742 49:0.18518518518518517 50:0.3 53:0.42857142857142855 55:0.16666666666666666 
1.0 39:0.11864406779661017 40:0.09523809523809523 41:0.2222222222222222 42:1.0 43:1.0 44:0.46153846153846156 46:0.4166666666666667 48:0.12280701754385964 49:0.09523809523809523 50:0.24 51:1.0 52:1.0 53:0.46153846153846156 55:0.4166666666666667 
1.0 39:0.1016949152542373 40:0.07142857142857142 41:0.18518518518518517 44:0.23076923076923078 46:0.08333333333333333 48:0.12280701754385964 49:0.09523809523809523 50:0.24 53:0.23076923076923078 55:0.08333333333333333 
1.0 39:0.05454545454545454 40:0.05714285714285714 41:0.1 42:1.0 43:1.0 48:0.07547169811320754 49:0.08823529411764706 50:0.1 51:1.0 52:1.0 53:0.1 
1.0 39:0.12 40:0.08333333333333333 41:0.25 42:1.0 43:1.0 48:0.17391304347826086 49:0.13043478260869565 50:0.25 51:1.0 52:1.0 
1.0 39:0.04 40:0.041666666666666664 48:0.043478260869565216 49:0.043478260869565216 
1.0 39:0.125 40:0.11320754716981132 41:0.14285714285714285 42:1.0 43:1.0 44:0.09090909090909091 48:0.14545454545454545 49:0.1346153846153846 50:0.14285714285714285 51:1.0 52:1.0 53:0.09090909090909091 
1.0 39:0.13846153846153847 40:0.1076923076923077 41:0.5 42:1.0 43:1.0 44:0.15384615384615385 48:0.14754098360655737 49:0.11475409836065574 50:0.5 51:1.0 52:1.0 53:0.15384615384615385 
1.0 39:0.1891891891891892 40:0.17142857142857143 41:0.2 42:1.0 43:1.0 48:0.2 49:0.17647058823529413 50:0.2 51:1.0 52:1.0 
1.0 39:0.05405405405405406 40:0.05714285714285714 44:0.125 48:0.05714285714285714 49:0.058823529411764705 53:0.14285714285714285 
1.0 48:0.09090909090909091 49:0.05 50:0.1111111111111111 51:1.0 52:1.0 
1.0 39:0.08695652173913043 40:0.09523809523809523 48:0.13636363636363635 49:0.15 53:0.5 55:0.3333333333333333 
1.0 39:0.10810810810810811 40:0.03125 41:0.1875 44:0.2857142857142857 48:0.11428571428571428 49:0.03225806451612903 50:0.21428571428571427 53:0.2857142857142857 
1.0 39:0.043478260869565216 41:0.2 42:1.0 43:1.0 48:0.08333333333333333 49:0.043478260869565216 50:0.2 51:1.0 52:1.0 
1.0 39:0.044444444444444446 40:0.02857142857142857 41:0.07142857142857142 48:0.07692307692307693 49:0.03225806451612903 50:0.16666666666666666 
1.0 39:0.044444444444444446 40:0.02857142857142857 41:0.07142857142857142 48:0.07692307692307693 49:0.03225806451612903 50:0.16666666666666666 
1.0 39:0.0625 40:0.09375 44:0.1111111111111111 48:0.08888888888888889 49:0.13333333333333333 53:0.3333333333333333 55:0.25 
1.0 39:0.10416666666666667 40:0.09375 41:0.10526315789473684 44:0.1111111111111111 48:0.1111111111111111 49:0.1 50:0.1111111111111111 53:0.1111111111111111 
1.0 39:0.043478260869565216 41:0.1111111111111111 42:1.0 43:1.0 44:0.16666666666666666 48:0.07142857142857142 49:0.02857142857142857 50:0.058823529411764705 53:0.14285714285714285 
1.0 39:0.10714285714285714 40:0.1276595744680851 41:0.058823529411764705 44:0.4 46:0.3333333333333333 48:0.125 49:0.15217391304347827 50:0.058823529411764705 53:0.6 55:0.5555555555555556 
1.0 39:0.07142857142857142 40:0.0425531914893617 41:0.17647058823529413 42:1.0 43:1.0 44:0.2 46:0.1111111111111111 48:0.07142857142857142 49:0.043478260869565216 50:0.17647058823529413 51:1.0 52:1.0 53:0.2 55:0.1111111111111111 
1.0 39:0.08695652173913043 40:0.06666666666666667 41:0.2 42:1.0 43:1.0 48:0.11627906976744186 49:0.09302325581395349 50:0.25 51:1.0 52:1.0 53:0.125 
1.0 39:0.12121212121212122 40:0.1509433962264151 44:0.3333333333333333 46:0.2727272727272727 48:0.12698412698412698 49:0.16326530612244897 53:0.4166666666666667 55:0.2727272727272727 
1.0 39:0.09090909090909091 40:0.05660377358490566 41:0.13636363636363635 44:0.25 46:0.09090909090909091 48:0.09523809523809523 49:0.061224489795918366 50:0.13636363636363635 53:0.25 55:0.09090909090909091 
1.0 39:0.08771929824561403 40:0.09090909090909091 41:0.041666666666666664 44:0.1111111111111111 48:0.10204081632653061 49:0.1 50:0.05263157894736842 53:0.1111111111111111 
1.0 39:0.07017543859649122 40:0.09090909090909091 48:0.08163265306122448 49:0.1 
1.0 39:0.15517241379310345 40:0.13559322033898305 41:0.14285714285714285 42:1.0 43:1.0 44:0.3 46:0.1111111111111111 48:0.18181818181818182 49:0.16363636363636364 50:0.14285714285714285 51:1.0 52:1.0 53:0.3 55:0.1111111111111111 
1.0 39:0.16326530612244897 40:0.10344827586206896 41:0.2222222222222222 44:0.4 46:0.3333333333333333 48:0.1702127659574468 49:0.10714285714285714 50:0.24 53:0.4 55:0.3333333333333333 
1.0 39:0.10204081632653061 40:0.1724137931034483 41:0.07407407407407407 44:0.2 46:0.1111111111111111 48:0.1276595744680851 49:0.21428571428571427 50:0.08 53:0.3 55:0.2222222222222222 
1.0 39:0.14285714285714285 40:0.0967741935483871 41:0.2 42:1.0 43:1.0 48:0.18518518518518517 49:0.13333333333333333 50:0.25 51:1.0 52:1.0 53:0.2 
1.0 39:0.06666666666666667 41:0.2222222222222222 42:1.0 43:1.0 44:0.18181818181818182 46:0.1 48:0.08620689655172414 49:0.0425531914893617 50:0.23529411764705882 51:1.0 52:1.0 53:0.2727272727272727 55:0.1 
1.0 39:0.05660377358490566 40:0.0625 41:0.13333333333333333 42:1.0 43:1.0 44:0.1 48:0.0625 49:0.06666666666666667 50:0.14285714285714285 51:1.0 52:1.0 53:0.1111111111111111 
1.0 39:0.03773584905660377 40:0.03125 41:0.13333333333333333 42:1.0 43:1.0 44:0.1 48:0.041666666666666664 49:0.03333333333333333 50:0.14285714285714285 51:1.0 52:1.0 53:0.1111111111111111 
1.0 39:0.1527777777777778 40:0.09090909090909091 41:0.23076923076923078 44:0.375 46:0.2 48:0.1527777777777778 49:0.09302325581395349 50:0.23076923076923078 53:0.375 55:0.2 
1.0 39:0.12727272727272726 40:0.125 41:0.11538461538461539 44:0.1 48:0.17307692307692307 49:0.12903225806451613 50:0.2 53:0.3333333333333333 55:0.125 
1.0 39:0.05454545454545454 40:0.0625 41:0.038461538461538464 48:0.07692307692307693 49:0.06451612903225806 50:0.08 
1.0 39:0.175 40:0.13513513513513514 41:0.18181818181818182 42:1.0 43:1.0 44:0.3333333333333333 48:0.22857142857142856 49:0.1875 50:0.18181818181818182 51:1.0 52:1.0 53:0.3333333333333333 
1.0 39:0.05555555555555555 40:0.041666666666666664 41:0.08333333333333333 48:0.1 49:0.08571428571428572 50:0.09090909090909091 53:0.16666666666666666 55:0.09090909090909091 
1.0 39:0.06944444444444445 40:0.06944444444444445 44:0.18181818181818182 46:0.1 48:0.08571428571428572 49:0.07142857142857142 50:0.09090909090909091 53:0.16666666666666666 55:0.09090909090909091 
1.0 39:0.14545454545454545 40:0.1111111111111111 41:0.2 42:1.0 43:1.0 44:0.1 48:0.14814814814814814 49:0.13333333333333333 50:0.2 51:1.0 52:1.0 53:0.1 
1.0 39:0.10810810810810811 40:0.12903225806451613 44:0.2857142857142857 46:0.16666666666666666 48:0.14285714285714285 49:0.1724137931034483 53:0.5714285714285714 55:0.5 
1.0 39:0.02702702702702703 41:0.2 42:1.0 43:1.0 48:0.02857142857142857 50:0.2 51:1.0 52:1.0 
1.0 39:0.11320754716981132 40:0.10909090909090909 44:0.45454545454545453 46:0.4 48:0.12 49:0.11320754716981132 53:0.45454545454545453 55:0.4 
1.0 39:0.07547169811320754 40:0.03636363636363636 41:0.18181818181818182 44:0.18181818181818182 48:0.08 49:0.03773584905660377 50:0.25 53:0.18181818181818182 
0.2044324676574056 39:0.1 40:0.06896551724137931 41:0.2 42:1.0 43:1.0 44:0.25 48:0.16129032258064516 49:0.13333333333333333 50:0.2 51:1.0 52:1.0 53:0.6 55:0.25 
1.0 39:0.13636363636363635 40:0.09523809523809523 41:0.25 42:1.0 43:1.0 44:0.25 48:0.19047619047619047 49:0.15 50:0.25 51:1.0 52:1.0 53:0.25 
1.0 39:0.020833333333333332 40:0.029411764705882353 48:0.045454545454545456 49:0.06666666666666667 
1.0 39:0.11428571428571428 40:0.08823529411764706 41:0.25 42:1.0 43:1.0 48:0.16129032258064516 49:0.13333333333333333 50:0.25 51:1.0 52:1.0 
1.0 39:0.11428571428571428 40:0.08823529411764706 41:0.25 42:1.0 43:1.0 48:0.16129032258064516 49:0.13333333333333333 50:0.25 51:1.0 52:1.0 
1.0 39:0.2909090909090909 40:0.3488372093023256 41:0.058823529411764705 44:0.2727272727272727 46:0.2 48:0.3018867924528302 49:0.36585365853658536 50:0.058823529411764705 53:0.2727272727272727 55:0.2 
1.0 39:0.1780821917808219 40:0.18518518518518517 41:0.19230769230769232 44:0.46153846153846156 46:0.3333333333333333 48:0.2191780821917808 49:0.24528301886792453 50:0.2692307692307692 53:0.6 55:0.42857142857142855 
1.0 39:0.043478260869565216 40:0.045454545454545456 48:0.0784313725490196 49:0.08 53:0.3333333333333333 55:0.18181818181818182 
1.0 39:0.021739130434782608 40:0.022727272727272728 48:0.058823529411764705 49:0.06 53:0.25 55:0.09090909090909091 
1.0 39:0.17857142857142858 40:0.17647058823529413 41:0.1111111111111111 44:0.3 46:0.2222222222222222 48:0.2127659574468085 49:0.20930232558139536 50:0.125 53:0.3 55:0.2222222222222222 
1.0 39:0.12698412698412698 40:0.07407407407407407 41:0.13953488372093023 44:0.2727272727272727 48:0.18032786885245902 49:0.19230769230769232 50:0.21951219512195122 53:0.5 55:0.18181818181818182 
1.0 39:0.14285714285714285 40:0.14814814814814814 41:0.11627906976744186 48:0.21311475409836064 49:0.46153846153846156 50:0.12195121951219512 53:0.16666666666666666 55:0.09090909090909091 
1.0 39:0.0410958904109589 41:0.06521739130434782 44:0.16666666666666666 46:0.09090909090909091 48:0.045454545454545456 50:0.07692307692307693 53:0.16666666666666666 55:0.09090909090909091 
1.0 39:0.0547945205479452 40:0.029411764705882353 41:0.06521739130434782 44:0.08333333333333333 48:0.07575757575757576 49:0.030303030303030304 50:0.10256410256410256 53:0.08333333333333333 
1.0 39:0.1 40:0.0967741935483871 44:0.25 48:0.10344827586206896 49:0.10344827586206896 53:0.25 
1.0 39:0.06666666666666667 40:0.06451612903225806 48:0.06896551724137931 49:0.06896551724137931 
1.0 39:0.1 40:0.07407407407407407 41:0.16666666666666666 42:1.0 43:1.0 48:0.14814814814814814 49:0.11538461538461539 50:0.2 51:1.0 52:1.0 53:0.25 
1.0 39:0.06666666666666667 40:0.07407407407407407 48:0.1111111111111111 49:0.11538461538461539 
1.0 39:0.19230769230769232 40:0.2777777777777778 41:0.1111111111111111 42:1.0 43:1.0 44:0.3333333333333333 46:0.125 48:0.2 49:0.2857142857142857 50:0.1111111111111111 51:1.0 52:1.0 53:0.375 55:0.14285714285714285 
1.0 39:0.019230769230769232 41:0.1111111111111111 42:1.0 43:1.0 48:0.02 50:0.1111111111111111 51:1.0 52:1.0 
1.0 39:0.05357142857142857 40:0.046511627906976744 41:0.2 42:1.0 43:1.0 44:0.2727272727272727 46:0.1 48:0.07692307692307693 49:0.07317073170731707 50:0.2 51:1.0 52:1.0 53:0.3 55:0.1111111111111111 
1.0 39:0.06818181818181818 40:0.05 41:0.14285714285714285 44:0.1 48:0.1951219512195122 49:0.10256410256410256 50:0.6666666666666666 51:1.0 52:1.0 53:0.2222222222222222 
1.0 39:0.05263157894736842 40:0.02 41:0.12121212121212122 44:0.17647058823529413 46:0.125 48:0.05263157894736842 49:0.02 50:0.125 53:0.15789473684210525 55:0.1111111111111111 
1.0 39:0.039473684210526314 40:0.06 41:0.030303030303030304 44:0.11764705882352941 46:0.0625 48:0.09210526315789473 49:0.1 50:0.09375 53:0.10526315789473684 55:0.05555555555555555 
1.0 39:0.06521739130434782 40:0.023809523809523808 41:0.16666666666666666 42:1.0 43:1.0 44:0.125 48:0.06666666666666667 49:0.024390243902439025 50:0.18181818181818182 51:1.0 52:1.0 53:0.125 
1.0 39:0.13043478260869565 40:0.14285714285714285 44:0.25 46:0.14285714285714285 48:0.15555555555555556 49:0.17073170731707318 53:0.25 55:0.14285714285714285 
1.0 39:0.02666666666666667 41:0.044444444444444446 44:0.09090909090909091 48:0.06578947368421052 50:0.10638297872340426 53:0.15384615384615385 55:0.08333333333333333 
1.0 39:0.06666666666666667 40:0.11428571428571428 41:0.06666666666666667 44:0.09090909090909091 48:0.13157894736842105 49:0.11764705882352941 50:0.1702127659574468 53:0.07692307692307693 
1.0 39:0.06779661016949153 40:0.08695652173913043 44:0.1111111111111111 48:0.08620689655172414 49:0.1111111111111111 53:0.2 55:0.1111111111111111 
1.0 39:0.03389830508474576 40:0.043478260869565216 48:0.05172413793103448 49:0.06666666666666667 53:0.1 
1.0 39:0.14893617021276595 40:0.11538461538461539 41:0.14285714285714285 44:0.375 46:0.14285714285714285 48:0.17777777777777778 49:0.16 50:0.14814814814814814 53:0.625 55:0.42857142857142855 
1.0 39:0.1076923076923077 40:0.13513513513513514 41:0.09523809523809523 44:0.07692307692307693 48:0.14516129032258066 49:0.14285714285714285 50:0.18181818181818182 53:0.07692307692307693 
1.0 39:0.07692307692307693 40:0.13513513513513514 48:0.0967741935483871 49:0.14285714285714285 50:0.045454545454545456 
1.0 39:0.13636363636363635 40:0.11764705882352941 41:0.14285714285714285 48:0.16279069767441862 49:0.15151515151515152 50:0.14285714285714285 53:0.1111111111111111 
1.0 39:0.13636363636363635 40:0.11764705882352941 41:0.14285714285714285 48:0.16279069767441862 49:0.15151515151515152 50:0.14285714285714285 53:0.1111111111111111 
1.0 39:0.08695652173913043 40:0.043478260869565216 41:0.25 42:1.0 43:1.0 48:0.16666666666666666 49:0.125 50:0.25 51:1.0 52:1.0 53:0.2 
1.0 39:0.0625 40:0.07692307692307693 44:0.18181818181818182 46:0.1 48:0.06382978723404255 49:0.08108108108108109 53:0.18181818181818182 55:0.1 
1.0 39:0.041666666666666664 40:0.02631578947368421 41:0.2 42:1.0 43:1.0 48:0.043478260869565216 49:0.02702702702702703 50:0.2 51:1.0 52:1.0 
1.0 39:0.0625 40:0.07894736842105263 44:0.1111111111111111 48:0.06521739130434782 49:0.08108108108108109 53:0.125 
1.0 39:0.06451612903225806 40:0.03333333333333333 41:0.25 42:1.0 43:1.0 48:0.10344827586206896 49:0.07142857142857142 50:0.25 51:1.0 52:1.0 53:0.2 
1.0 39:0.11428571428571428 40:0.08 41:0.14285714285714285 48:0.08823529411764706 49:0.08333333333333333 50:0.07142857142857142 
1.0 39:0.06 40:0.03225806451612903 41:0.21428571428571427 42:1.0 43:1.0 44:0.2222222222222222 46:0.125 48:0.061224489795918366 49:0.03225806451612903 50:0.21428571428571427 51:1.0 52:1.0 53:0.25 55:0.14285714285714285 
1.0 39:0.04 40:0.06451612903225806 44:0.1111111111111111 48:0.061224489795918366 49:0.0967741935483871 53:0.25 55:0.14285714285714285 
1.0 39:0.05263157894736842 40:0.041666666666666664 48:0.05555555555555555 49:0.043478260869565216 
1.0 39:0.05263157894736842 40:0.041666666666666664 48:0.05555555555555555 49:0.043478260869565216 
1.0 39:0.06382978723404255 40:0.05454545454545454 44:0.125 48:0.08888888888888889 49:0.07692307692307693 53:0.25 
1.0 39:0.0425531914893617 40:0.03636363636363636 44:0.125 48:0.044444444444444446 49:0.038461538461538464 53:0.125 
1.0 39:0.10344827586206896 40:0.06666666666666667 41:0.3333333333333333 42:1.0 43:1.0 48:0.2 49:0.16129032258064516 50:0.3333333333333333 51:1.0 52:1.0 
1.0 39:0.09090909090909091 40:0.10810810810810811 44:0.25 46:0.14285714285714285 48:0.09523809523809523 49:0.11428571428571428 53:0.25 55:0.14285714285714285 
1.0 39:0.045454545454545456 40:0.05405405405405406 48:0.047619047619047616 49:0.05714285714285714 
1.0 39:0.06382978723404255 40:0.07692307692307693 44:0.125 48:0.10638297872340426 49:0.1282051282051282 53:0.3333333333333333 55:0.25 
1.0 39:0.02127659574468085 41:0.14285714285714285 42:1.0 43:1.0 48:0.06382978723404255 49:0.05128205128205128 50:0.14285714285714285 51:1.0 52:1.0 
1.0 39:0.08823529411764706 40:0.08955223880597014 44:0.14285714285714285 48:0.15384615384615385 49:0.15384615384615385 53:0.35714285714285715 55:0.23076923076923078 
1.0 39:0.10344827586206896 40:0.08928571428571429 41:0.2 42:1.0 43:1.0 44:0.16666666666666666 46:0.09090909090909091 48:0.10714285714285714 49:0.09090909090909091 50:0.2 51:1.0 52:1.0 53:0.2727272727272727 55:0.1 
1.0 39:0.05263157894736842 40:0.038461538461538464 48:0.1 49:0.07407407407407407 53:0.25 
1.0 39:0.16216216216216217 40:0.17142857142857143 41:0.2 42:1.0 43:1.0 48:0.21052631578947367 49:0.2222222222222222 50:0.2 51:1.0 52:1.0 53:0.2857142857142857 55:0.16666666666666666 
1.0 39:0.05405405405405406 40:0.05714285714285714 48:0.10526315789473684 49:0.1111111111111111 53:0.2857142857142857 55:0.16666666666666666 
1.0 39:0.1875 40:0.16666666666666666 41:0.1875 44:0.7777777777777778 46:0.75 48:0.22916666666666666 49:0.21621621621621623 50:0.2 53:0.8 55:0.7777777777777778 
1.0 39:0.15 40:0.18 44:0.3076923076923077 46:0.25 48:0.15517241379310345 49:0.1836734693877551 53:0.3333333333333333 55:0.2727272727272727 
1.0 39:0.0967741935483871 40:0.06451612903225806 41:0.25 42:1.0 43:1.0 48:0.16129032258064516 49:0.12903225806451613 50:0.25 51:1.0 52:1.0 53:0.16666666666666666 
1.0 39:0.09523809523809523 40:0.2222222222222222 48:0.10526315789473684 49:0.23529411764705882 
1.0 39:0.058823529411764705 40:0.06896551724137931 48:0.08823529411764706 49:0.10714285714285714 
1.0 48:0.043478260869565216 50:0.16666666666666666 
1.0 39:0.05263157894736842 40:0.027777777777777776 41:0.16666666666666666 42:1.0 43:1.0 48:0.08333333333333333 49:0.058823529411764705 50:0.16666666666666666 51:1.0 52:1.0 
1.0 39:0.08771929824561403 40:0.037037037037037035 41:0.10810810810810811 44:0.4 46:0.3333333333333333 48:0.09615384615384616 49:0.07692307692307693 50:0.125 53:0.4 55:0.3333333333333333 
1.0 39:0.08771929824561403 40:0.037037037037037035 41:0.10810810810810811 44:0.3 46:0.2222222222222222 48:0.09615384615384616 49:0.07692307692307693 50:0.125 53:0.3 55:0.2222222222222222 
1.0 39:0.08571428571428572 40:0.03125 41:0.18181818181818182 42:1.0 43:1.0 44:0.16666666666666666 48:0.11428571428571428 49:0.06451612903225806 50:0.18181818181818182 51:1.0 52:1.0 53:0.16666666666666666 
1.0 39:0.11428571428571428 40:0.09375 41:0.09090909090909091 44:0.3333333333333333 46:0.2 48:0.11428571428571428 49:0.0967741935483871 50:0.09090909090909091 53:0.3333333333333333 55:0.2 
1.0 39:0.1568627450980392 40:0.15 41:0.13333333333333333 42:1.0 43:1.0 44:0.5 46:0.2857142857142857 48:0.2 49:0.2 50:0.14285714285714285 51:1.0 52:1.0 53:0.5555555555555556 55:0.25 
1.0 39:0.14285714285714285 40:0.26666666666666666 41:0.1 44:0.3333333333333333 46:0.09090909090909091 48:0.140625 49:0.27586206896551724 50:0.0975609756097561 53:0.3076923076923077 55:0.08333333333333333 
1.0 39:0.12698412698412698 40:0.16666666666666666 41:0.125 44:0.16666666666666666 48:0.171875 49:0.1724137931034483 50:0.1951219512195122 53:0.15384615384615385 
1.0 39:0.1694915254237288 40:0.13636363636363635 41:0.17391304347826086 44:0.45454545454545453 46:0.2 48:0.1896551724137931 49:0.16279069767441862 50:0.18181818181818182 53:0.5454545454545454 55:0.3 
1.0 39:0.1694915254237288 40:0.18181818181818182 41:0.08695652173913043 44:0.18181818181818182 48:0.1896551724137931 49:0.20930232558139536 50:0.09090909090909091 53:0.2727272727272727 55:0.1 
1.0 39:0.14285714285714285 40:0.125 41:0.14285714285714285 42:1.0 43:1.0 44:0.25 48:0.16 49:0.14285714285714285 50:0.14285714285714285 51:1.0 52:1.0 53:0.25 
1.0 39:0.06818181818181818 40:0.08333333333333333 41:0.043478260869565216 44:0.14285714285714285 48:0.07317073170731707 49:0.09090909090909091 50:0.043478260869565216 53:0.16666666666666666 
1.0 39:0.06818181818181818 40:0.041666666666666664 41:0.08695652173913043 48:0.07317073170731707 49:0.045454545454545456 50:0.08695652173913043 
1.0 39:0.08620689655172414 40:0.09259259259259259 44:0.3333333333333333 46:0.2727272727272727 48:0.09090909090909091 49:0.09615384615384616 53:0.3333333333333333 55:0.2727272727272727 
1.0 39:0.04878048780487805 41:0.3333333333333333 43:1.0 48:0.1 49:0.04878048780487805 50:0.3333333333333333 52:1.0 
1.0 39:0.0625 40:0.04477611940298507 41:0.16666666666666666 42:1.0 43:1.0 44:0.13333333333333333 46:0.07142857142857142 48:0.0684931506849315 49:0.05 50:0.16666666666666666 51:1.0 52:1.0 53:0.13333333333333333 55:0.07142857142857142 
1.0 39:0.0875 40:0.1044776119402985 41:0.1111111111111111 44:0.26666666666666666 46:0.14285714285714285 48:0.0958904109589041 49:0.11666666666666667 50:0.1111111111111111 53:0.26666666666666666 55:0.14285714285714285 
1.0 39:0.06666666666666667 40:0.03333333333333333 41:0.14285714285714285 48:0.06896551724137931 49:0.034482758620689655 50:0.14285714285714285 
1.0 39:0.06666666666666667 41:0.2857142857142857 42:1.0 43:1.0 44:0.2 48:0.06896551724137931 50:0.2857142857142857 51:1.0 52:1.0 53:0.2 
1.0 39:0.02 40:0.023809523809523808 48:0.13043478260869565 49:0.15 50:0.06666666666666667 53:0.3333333333333333 55:0.125 
1.0 39:0.04 40:0.023809523809523808 41:0.11764705882352941 44:0.125 48:0.10869565217391304 49:0.1 50:0.13333333333333333 53:0.2222222222222222 
1.0 39:0.1 40:0.14285714285714285 44:0.25 46:0.09090909090909091 48:0.12727272727272726 49:0.19444444444444445 53:0.38461538461538464 55:0.25 
1.0 39:0.03333333333333333 40:0.047619047619047616 44:0.08333333333333333 48:0.07272727272727272 49:0.08333333333333333 50:0.04 53:0.07692307692307693 
1.0 39:0.15789473684210525 40:0.10344827586206896 41:0.6 42:1.0 43:1.0 44:0.1 48:0.16666666666666666 49:0.10714285714285714 50:0.6 51:1.0 52:1.0 53:0.1111111111111111 
1.0 39:0.1 40:0.06060606060606061 41:0.16666666666666666 44:0.18181818181818182 46:0.1 48:0.13636363636363635 49:0.06451612903225806 50:0.2631578947368421 53:0.36363636363636365 55:0.3 
1.0 39:0.18 40:0.24242424242424243 41:0.125 44:0.18181818181818182 46:0.1 48:0.22727272727272727 49:0.2903225806451613 50:0.15789473684210525 53:0.2727272727272727 55:0.1 
1.0 39:0.225 40:0.175 41:0.25 44:0.375 46:0.2857142857142857 48:0.23076923076923078 49:0.18421052631578946 50:0.25 53:0.375 55:0.2857142857142857 
0.7055557926854475 39:0.1388888888888889 40:0.10638297872340426 41:0.25 43:1.0 44:0.38461538461538464 46:0.16666666666666666 48:0.15492957746478872 49:0.13043478260869565 50:0.25 52:1.0 53:0.38461538461538464 55:0.16666666666666666 
0.06311611260703807 39:0.21153846153846154 40:0.2608695652173913 41:0.24242424242424243 42:1.0 43:1.0 44:1.0 46:1.0 48:0.22 49:0.2608695652173913 50:0.25806451612903225 51:1.0 52:1.0 53:1.0 55:1.0 
1.0 39:0.14285714285714285 40:0.1206896551724138 41:0.14285714285714285 44:0.45454545454545453 46:0.4 48:0.16363636363636364 49:0.14545454545454545 50:0.14285714285714285 53:0.5454545454545454 55:0.4 
1.0 39:0.17857142857142858 40:0.1724137931034483 44:0.36363636363636365 46:0.2 48:0.18181818181818182 49:0.18181818181818182 53:0.36363636363636365 55:0.2 
1.0 39:0.12727272727272726 40:0.14583333333333334 44:0.6666666666666666 46:0.375 48:0.14285714285714285 49:0.16666666666666666 53:0.6666666666666666 55:0.375 
1.0 39:0.03488372093023256 40:0.05357142857142857 41:0.02702702702702703 44:0.125 46:0.06666666666666667 48:0.05 49:0.08 50:0.05555555555555555 53:0.11764705882352941 55:0.0625 
1.0 39:0.046511627906976744 40:0.05357142857142857 41:0.08108108108108109 44:0.1875 46:0.06666666666666667 48:0.0625 49:0.08 50:0.1111111111111111 53:0.17647058823529413 55:0.0625 
1.0 39:0.09523809523809523 40:0.06557377049180328 41:0.13333333333333333 44:0.23076923076923078 48:0.11842105263157894 49:0.08771929824561403 50:0.15384615384615385 53:0.23076923076923078 
1.0 39:0.08333333333333333 40:0.06976744186046512 44:0.14285714285714285 48:0.11428571428571428 49:0.09523809523809523 53:0.125 
1.0 39:0.05555555555555555 40:0.046511627906976744 44:0.14285714285714285 48:0.05714285714285714 49:0.047619047619047616 53:0.125 
1.0 39:0.1 40:0.05263157894736842 41:0.125 42:1.0 43:1.0 48:0.17647058823529413 49:0.1111111111111111 50:0.16666666666666666 51:1.0 52:1.0 53:1.0 55:1.0 
1.0 39:0.16129032258064516 40:0.13793103448275862 41:0.2 42:1.0 43:1.0 48:0.2 49:0.1724137931034483 50:0.2 51:1.0 52:1.0 53:0.2 
1.0 39:0.03225806451612903 40:0.034482758620689655 48:0.1 49:0.10344827586206896 
1.0 39:0.0625 40:0.03225806451612903 41:0.2 42:1.0 43:1.0 44:0.25 48:0.06451612903225806 49:0.03333333333333333 50:0.2 51:1.0 52:1.0 53:0.2 
1.0 39:0.11764705882352941 40:0.07407407407407407 41:0.18181818181818182 44:0.3333333333333333 46:0.2 48:0.14705882352941177 49:0.1111111111111111 50:0.18181818181818182 53:0.42857142857142855 55:0.16666666666666666 
1.0 39:0.17647058823529413 40:0.14814814814814814 41:0.18181818181818182 44:0.3333333333333333 46:0.2 48:0.35294117647058826 49:0.37037037037037035 50:0.18181818181818182 53:0.42857142857142855 55:0.16666666666666666 
1.0 39:0.04 40:0.05555555555555555 44:0.14285714285714285 48:0.061224489795918366 49:0.08333333333333333 53:0.25 55:0.14285714285714285 
1.0 39:0.038461538461538464 41:0.2 42:1.0 43:1.0 48:0.04 50:0.2 51:1.0 52:1.0 
1.0 39:0.11538461538461539 40:0.09090909090909091 48:0.12 49:0.0967741935483871 
1.0 39:0.07142857142857142 40:0.037037037037037035 41:0.2 42:1.0 43:1.0 48:0.2413793103448276 49:0.21428571428571427 50:0.2 51:1.0 52:1.0 53:0.3333333333333333 55:0.2 
1.0 39:0.06060606060606061 40:0.045454545454545456 48:0.1 49:0.075 
1.0 39:0.030303030303030304 40:0.022727272727272728 48:0.1 49:0.1 
1.0 39:0.10256410256410256 40:0.10810810810810811 42:1.0 48:0.125 49:0.10526315789473684 50:0.2 51:1.0 52:1.0 
1.0 39:0.02564102564102564 41:0.2 42:1.0 43:1.0 48:0.025 50:0.2 51:1.0 52:1.0 
1.0 39:0.045454545454545456 40:0.02702702702702703 41:0.1 42:1.0 43:1.0 48:0.047619047619047616 49:0.027777777777777776 50:0.1 51:1.0 52:1.0 
1.0 39:0.07317073170731707 40:0.02702702702702703 41:0.16666666666666666 44:0.14285714285714285 48:0.1 49:0.05555555555555555 50:0.18181818181818182 53:0.2857142857142857 
1.0 39:0.09090909090909091 40:0.05263157894736842 41:0.12280701754385964 44:0.2 46:0.14285714285714285 48:0.0975609756097561 49:0.05405405405405406 50:0.1568627450980392 53:0.26666666666666666 55:0.14285714285714285 
1.0 39:0.06818181818181818 40:0.07894736842105263 41:0.05263157894736842 48:0.0975609756097561 49:0.08108108108108109 50:0.13725490196078433 53:0.13333333333333333 55:0.07142857142857142 
1.0 39:0.05 40:0.03225806451612903 41:0.0625 48:0.07317073170731707 49:0.06666666666666667 50:0.058823529411764705 53:0.125 
1.0 39:0.13253012048192772 40:0.22916666666666666 44:0.4117647058823529 46:0.375 48:0.14102564102564102 49:0.23404255319148937 53:0.4117647058823529 55:0.375 
1.0 39:0.14457831325301204 40:0.20833333333333334 41:0.047619047619047616 44:0.11764705882352941 48:0.1794871794871795 49:0.2553191489361702 50:0.05405405405405406 53:0.17647058823529413 
1.0 39:0.11363636363636363 40:0.0851063829787234 41:0.2 42:1.0 43:1.0 44:0.42857142857142855 46:0.3333333333333333 48:0.11363636363636363 49:0.08695652173913043 50:0.2 51:1.0 52:1.0 53:0.42857142857142855 55:0.3333333333333333 
1.0 39:0.13636363636363635 40:0.10256410256410256 41:0.19230769230769232 44:0.21428571428571427 46:0.15384615384615385 48:0.15873015873015872 49:0.1111111111111111 50:0.23076923076923078 53:0.23076923076923078 55:0.16666666666666666 
1.0 39:0.14 40:0.08108108108108109 41:0.20833333333333334 44:0.4 46:0.3333333333333333 48:0.14 49:0.08333333333333333 50:0.20833333333333334 53:0.4 55:0.3333333333333333 
1.0 39:0.12 40:0.10810810810810811 41:0.125 44:0.2 48:0.12 49:0.1111111111111111 50:0.125 53:0.2 
1.0 39:0.0625 40:0.02631578947368421 41:0.15789473684210525 42:1.0 43:1.0 44:0.2857142857142857 46:0.16666666666666666 48:0.061224489795918366 49:0.02631578947368421 50:0.15789473684210525 51:1.0 52:1.0 53:0.25 55:0.14285714285714285 
1.0 39:0.0625 40:0.07894736842105263 41:0.05263157894736842 44:0.14285714285714285 48:0.10204081632653061 49:0.13157894736842105 50:0.05263157894736842 53:0.375 55:0.2857142857142857 
1.0 39:0.0975609756097561 40:0.06060606060606061 41:0.125 44:0.14285714285714285 48:0.12195121951219512 49:0.09375 50:0.125 53:0.2857142857142857 
1.0 39:0.04878048780487805 40:0.06060606060606061 44:0.14285714285714285 48:0.04878048780487805 49:0.0625 53:0.14285714285714285 
1.0 39:0.13043478260869565 40:0.16666666666666666 41:0.08333333333333333 48:0.25 49:0.11764705882352941 50:0.2727272727272727 53:0.25 
1.0 39:0.045454545454545456 40:0.08108108108108109 44:0.14285714285714285 48:0.14285714285714285 49:0.19444444444444445 53:0.125 
1.0 39:0.05405405405405406 41:0.3333333333333333 42:1.0 43:1.0 44:0.2 48:0.08333333333333333 49:0.02857142857142857 50:0.3333333333333333 51:1.0 52:1.0 53:0.16666666666666666 
1.0 39:0.05405405405405406 41:0.3333333333333333 42:1.0 43:1.0 44:0.2 48:0.08333333333333333 49:0.02857142857142857 50:0.3333333333333333 51:1.0 52:1.0 53:0.16666666666666666 
1.0 39:0.1111111111111111 40:0.1 41:0.19047619047619047 44:0.42105263157894735 46:0.2222222222222222 48:0.12745098039215685 49:0.10526315789473684 50:0.23684210526315788 53:0.47368421052631576 55:0.2777777777777778 
1.0 39:0.046296296296296294 40:0.1 41:0.023809523809523808 44:0.21052631578947367 46:0.1111111111111111 48:0.049019607843137254 49:0.10526315789473684 50:0.02631578947368421 53:0.21052631578947367 55:0.1111111111111111 
1.0 39:0.14285714285714285 40:0.125 41:0.14285714285714285 42:1.0 43:1.0 44:0.6 46:0.25 48:0.17073170731707318 49:0.15625 50:0.15384615384615385 51:1.0 52:1.0 53:0.6666666666666666 55:0.4 
1.0 39:0.14492753623188406 40:0.2 41:0.0967741935483871 44:0.3076923076923077 46:0.16666666666666666 48:0.17647058823529413 49:0.23255813953488372 50:0.12903225806451613 53:0.46153846153846156 55:0.3333333333333333 
1.0 39:0.14492753623188406 40:0.2222222222222222 41:0.03225806451612903 44:0.07692307692307693 48:0.14705882352941177 49:0.23255813953488372 50:0.03225806451612903 53:0.07692307692307693 
1.0 39:0.03278688524590164 40:0.022222222222222223 41:0.06666666666666667 48:0.05 49:0.045454545454545456 50:0.06666666666666667 53:0.09090909090909091 
1.0 39:0.16279069767441862 40:0.15384615384615385 41:0.20833333333333334 44:0.2222222222222222 48:0.16279069767441862 49:0.15384615384615385 50:0.21739130434782608 53:0.2222222222222222 
1.0 39:0.09302325581395349 40:0.15384615384615385 41:0.041666666666666664 44:0.3333333333333333 46:0.25 48:0.09302325581395349 49:0.15384615384615385 50:0.043478260869565216 53:0.3333333333333333 55:0.25 
1.0 39:0.09433962264150944 40:0.1111111111111111 41:0.09523809523809523 44:0.1111111111111111 48:0.09259259259259259 49:0.1111111111111111 50:0.09523809523809523 53:0.1111111111111111 
1.0 39:0.07547169811320754 41:0.09523809523809523 48:0.09259259259259259 49:0.05555555555555555 50:0.11904761904761904 
1.0 39:0.13333333333333333 40:0.045454545454545456 41:0.3333333333333333 42:1.0 43:1.0 48:0.13333333333333333 49:0.045454545454545456 50:0.3333333333333333 51:1.0 52:1.0 
1.0 39:0.12727272727272726 40:0.12195121951219512 41:0.09090909090909091 44:0.2 46:0.1111111111111111 48:0.12727272727272726 49:0.125 50:0.09090909090909091 53:0.2 55:0.1111111111111111 
1.0 39:0.09090909090909091 40:0.07317073170731707 41:0.09090909090909091 44:0.1 48:0.10909090909090909 49:0.1 50:0.09090909090909091 53:0.1 
1.0 39:0.13725490196078433 40:0.125 41:0.19230769230769232 44:0.4 46:0.2222222222222222 48:0.1568627450980392 49:0.1935483870967742 50:0.19230769230769232 53:0.5 55:0.3333333333333333 
1.0 39:0.09803921568627451 40:0.15625 41:0.07692307692307693 44:0.1 48:0.09803921568627451 49:0.16129032258064516 50:0.07692307692307693 53:0.1 
1.0 39:0.06060606060606061 40:0.03225806451612903 41:0.16666666666666666 44:0.16666666666666666 48:0.06060606060606061 49:0.034482758620689655 50:0.16666666666666666 53:0.16666666666666666 
1.0 39:0.13636363636363635 40:0.08695652173913043 41:0.3333333333333333 42:1.0 43:1.0 44:0.25 48:0.18181818181818182 49:0.13043478260869565 50:0.3333333333333333 51:1.0 52:1.0 53:0.2 
1.0 39:0.04 40:0.02040816326530612 41:0.25 42:1.0 43:1.0 48:0.06521739130434782 49:0.043478260869565216 50:0.25 51:1.0 52:1.0 
1.0 39:0.08 40:0.08163265306122448 48:0.08695652173913043 49:0.08695652173913043 
1.0 39:0.06976744186046512 40:0.044444444444444446 41:0.14285714285714285 42:1.0 43:1.0 44:0.125 48:0.06976744186046512 49:0.045454545454545456 50:0.14285714285714285 51:1.0 52:1.0 53:0.125 
1.0 39:0.023255813953488372 41:0.14285714285714285 42:1.0 43:1.0 48:0.046511627906976744 49:0.045454545454545456 50:0.14285714285714285 51:1.0 52:1.0 53:0.125 
1.0 39:0.1724137931034483 40:0.125 41:0.2 42:1.0 43:1.0 44:0.16666666666666666 48:0.20689655172413793 49:0.16129032258064516 50:0.2 51:1.0 52:1.0 53:0.3333333333333333 55:0.2 
1.0 39:0.034482758620689655 40:0.017241379310344827 41:0.125 42:1.0 43:1.0 48:0.034482758620689655 49:0.017543859649122806 50:0.125 51:1.0 52:1.0 
1.0 39:0.03389830508474576 40:0.044444444444444446 48:0.11666666666666667 49:0.15217391304347827 
1.0 39:0.03389830508474576 40:0.044444444444444446 48:0.11666666666666667 49:0.15217391304347827 
1.0 39:0.05555555555555555 40:0.02857142857142857 41:0.2 42:1.0 43:1.0 48:0.05714285714285714 49:0.029411764705882353 50:0.2 51:1.0 52:1.0 
1.0 39:0.136986301369863 41:0.23809523809523808 44:0.23076923076923078 46:0.08333333333333333 48:0.136986301369863 50:0.23809523809523808 53:0.21428571428571427 55:0.07692307692307693 
1.0 39:0.0684931506849315 40:0.1 41:0.07142857142857142 44:0.07692307692307693 48:0.0821917808219178 49:0.10256410256410256 50:0.09523809523809523 53:0.07142857142857142 
1.0 39:0.06172839506172839 40:0.15151515151515152 44:0.3333333333333333 46:0.18181818181818182 48:0.10256410256410256 49:0.25 53:0.42857142857142855 55:0.3076923076923077 
1.0 39:0.037037037037037035 40:0.09090909090909091 48:0.0641025641025641 49:0.15625 53:0.14285714285714285 
1.0 39:0.1282051282051282 40:0.07692307692307693 41:0.4 42:1.0 43:1.0 44:0.14285714285714285 48:0.15384615384615385 49:0.10256410256410256 50:0.4 51:1.0 52:1.0 53:0.25 
1.0 39:0.11627906976744186 40:0.1 41:0.16666666666666666 42:1.0 43:1.0 44:0.14285714285714285 48:0.16666666666666666 49:0.15 50:0.16666666666666666 51:1.0 52:1.0 53:0.2857142857142857 55:0.16666666666666666 
1.0 39:0.06976744186046512 40:0.05 41:0.16666666666666666 42:1.0 43:1.0 48:0.14285714285714285 49:0.125 50:0.16666666666666666 51:1.0 52:1.0 53:0.2857142857142857 55:0.16666666666666666 
1.0 39:0.029411764705882353 41:0.25 42:1.0 43:1.0 48:0.029411764705882353 50:0.25 51:1.0 52:1.0 
1.0 39:0.06666666666666667 40:0.06896551724137931 42:1.0 44:0.2 48:0.10344827586206896 49:0.07142857142857142 50:0.25 51:1.0 52:1.0 53:0.2 
1.0 39:0.16279069767441862 40:0.1 41:0.25 42:1.0 43:1.0 44:0.25 46:0.14285714285714285 48:0.1794871794871795 49:0.1111111111111111 50:0.2727272727272727 51:1.0 52:1.0 53:0.25 55:0.14285714285714285 
1.0 39:0.23076923076923078 40:0.3125 41:0.13333333333333333 48:0.2564102564102564 49:0.3333333333333333 50:0.16666666666666666 
1.0 39:0.05128205128205128 40:0.0625 41:0.03333333333333333 48:0.07692307692307693 49:0.06666666666666667 50:0.06666666666666667 
1.0 39:0.09090909090909091 40:0.09433962264150944 41:0.16666666666666666 44:0.23076923076923078 46:0.08333333333333333 48:0.09523809523809523 49:0.09803921568627451 50:0.16666666666666666 53:0.25 55:0.09090909090909091 
1.0 39:0.03389830508474576 40:0.020833333333333332 41:0.08695652173913043 44:0.1 48:0.05357142857142857 49:0.044444444444444446 50:0.09090909090909091 53:0.2 55:0.1111111111111111 
1.0 39:0.15254237288135594 40:0.14583333333333334 41:0.34782608695652173 44:0.2 48:0.17857142857142858 49:0.2222222222222222 50:0.36363636363636365 53:0.3 55:0.1111111111111111 
1.0 39:0.09420289855072464 40:0.05660377358490566 41:0.13636363636363635 44:0.25 46:0.1111111111111111 48:0.09558823529411764 49:0.07547169811320754 50:0.13953488372093023 53:0.27586206896551724 55:0.10714285714285714 
1.0 39:0.06521739130434782 40:0.03773584905660377 41:0.10227272727272728 44:0.10714285714285714 46:0.07407407407407407 48:0.0661764705882353 49:0.05660377358490566 50:0.10465116279069768 53:0.10344827586206896 55:0.07142857142857142 
1.0 39:0.12359550561797752 40:0.2 41:0.030303030303030304 48:0.16279069767441862 49:0.2641509433962264 50:0.03125 
1.0 39:0.13636363636363635 40:0.07692307692307693 41:0.16666666666666666 42:1.0 43:1.0 44:0.3333333333333333 48:0.15 49:0.08333333333333333 50:0.16666666666666666 51:1.0 52:1.0 53:0.3333333333333333 
1.0 39:0.08333333333333333 40:0.07894736842105263 41:0.10344827586206896 44:0.09090909090909091 48:0.08928571428571429 49:0.08571428571428572 50:0.14814814814814814 53:0.09090909090909091 
1.0 39:0.08333333333333333 40:0.10526315789473684 41:0.06896551724137931 48:0.08928571428571429 49:0.11428571428571428 50:0.07407407407407407 
1.0 39:0.06756756756756757 40:0.06818181818181818 41:0.05 44:0.23076923076923078 46:0.08333333333333333 48:0.0821917808219178 49:0.09090909090909091 50:0.05128205128205128 53:0.2 55:0.07142857142857142 
1.0 39:0.04054054054054054 40:0.06818181818181818 44:0.15384615384615385 46:0.08333333333333333 48:0.0684931506849315 49:0.11363636363636363 50:0.05128205128205128 53:0.2 55:0.07142857142857142 
1.0 39:0.1388888888888889 40:0.075 41:0.2857142857142857 43:1.0 44:0.14285714285714285 48:0.1388888888888889 49:0.07692307692307693 50:0.2857142857142857 52:1.0 53:0.14285714285714285 
1.0 39:0.027777777777777776 40:0.025 48:0.027777777777777776 49:0.02564102564102564 
1.0 39:0.15789473684210525 40:0.12195121951219512 41:0.25 42:1.0 43:1.0 44:0.3333333333333333 48:0.16666666666666666 49:0.1282051282051282 50:0.25 51:1.0 52:1.0 53:0.3333333333333333 
1.0 39:0.13157894736842105 40:0.12195121951219512 44:0.16666666666666666 48:0.1388888888888889 49:0.15384615384615385 53:0.16666666666666666 
1.0 39:0.08641975308641975 40:0.10714285714285714 41:0.4444444444444444 42:1.0 43:1.0 44:0.1875 48:0.0945945945945946 49:0.11538461538461539 50:0.5 51:1.0 52:1.0 53:0.2 
1.0 39:0.1111111111111111 40:0.1111111111111111 41:0.08333333333333333 44:0.3333333333333333 48:0.15384615384615385 49:0.1111111111111111 50:0.18181818181818182 52:1.0 53:0.3333333333333333 
1.0 39:0.1 40:0.07407407407407407 41:0.1 44:0.375 46:0.14285714285714285 48:0.10869565217391304 49:0.07692307692307693 50:0.11538461538461539 53:0.375 55:0.14285714285714285 
1.0 39:0.08333333333333333 40:0.03333333333333333 41:0.12121212121212122 44:0.3 46:0.2222222222222222 48:0.08771929824561403 49:0.06451612903225806 50:0.13793103448275862 53:0.2727272727272727 55:0.2 
1.0 39:0.08536585365853659 40:0.022727272727272728 41:0.15555555555555556 44:0.4 46:0.35714285714285715 48:0.08860759493670886 49:0.023255813953488372 50:0.16279069767441862 53:0.375 55:0.3333333333333333 
1.0 39:0.04878048780487805 40:0.06818181818181818 41:0.022222222222222223 44:0.06666666666666667 48:0.05063291139240506 49:0.06976744186046512 50:0.023255813953488372 53:0.0625 
1.0 39:0.12857142857142856 40:0.25 41:0.15789473684210525 44:0.4 46:0.2857142857142857 48:0.13846153846153847 49:0.2727272727272727 50:0.16981132075471697 53:0.4 55:0.2857142857142857 
1.0 39:0.02857142857142857 40:0.16666666666666666 41:0.03508771929824561 44:0.06666666666666667 48:0.03076923076923077 49:0.18181818181818182 50:0.03773584905660377 53:0.06666666666666667 
1.0 39:0.024096385542168676 40:0.043478260869565216 42:1.0 44:0.125 48:0.024691358024691357 49:0.044444444444444446 51:1.0 53:0.125 
1.0 39:0.024096385542168676 40:0.043478260869565216 42:1.0 48:0.04938271604938271 49:0.06666666666666667 50:0.3333333333333333 51:1.0 52:1.0 
1.0 39:0.14893617021276595 40:0.18421052631578946 44:0.4444444444444444 46:0.375 48:0.15217391304347827 49:0.1891891891891892 53:0.4444444444444444 55:0.375 
1.0 39:0.06451612903225806 40:0.07547169811320754 48:0.14516129032258066 49:0.16981132075471697 53:0.14285714285714285 55:0.07692307692307693 
1.0 39:0.04838709677419355 40:0.05660377358490566 44:0.1 48:0.0967741935483871 49:0.11320754716981132 53:0.14285714285714285 
1.0 39:0.0625 40:0.043478260869565216 41:0.16666666666666666 42:1.0 43:1.0 48:0.10416666666666667 49:0.08695652173913043 50:0.16666666666666666 51:1.0 52:1.0 
1.0 39:0.14736842105263157 40:0.047619047619047616 41:0.1875 44:0.4444444444444444 46:0.35294117647058826 48:0.17582417582417584 49:0.0975609756097561 50:0.23333333333333334 52:1.0 53:0.4444444444444444 55:0.35294117647058826 
1.0 39:0.042105263157894736 40:0.07142857142857142 41:0.015625 44:0.05555555555555555 48:0.054945054945054944 49:0.0975609756097561 50:0.03333333333333333 53:0.05555555555555555 
1.0 39:0.07272727272727272 40:0.125 48:0.09615384615384616 49:0.13333333333333333 50:0.034482758620689655 53:0.1 
1.0 39:0.05454545454545454 40:0.09375 48:0.07692307692307693 49:0.13333333333333333 
1.0 39:0.109375 41:0.14285714285714285 44:0.5454545454545454 46:0.5 48:0.12903225806451613 49:0.047619047619047616 50:0.14893617021276595 53:0.5454545454545454 55:0.5 
0.018539914453770123 39:0.19047619047619047 40:0.058823529411764705 41:0.42857142857142855 42:1.0 43:1.0 44:0.25 48:0.2631578947368421 49:0.0625 50:0.6666666666666666 51:1.0 52:1.0 53:0.25 
1.0 39:0.0851063829787234 40:0.10810810810810811 44:0.1 48:0.13953488372093023 49:0.18181818181818182 53:0.1 
1.0 39:0.14285714285714285 40:0.05263157894736842 41:0.1875 44:0.4 46:0.25 48:0.2222222222222222 49:0.05555555555555555 50:0.3333333333333333 53:0.4 55:0.25 
1.0 39:0.14285714285714285 40:0.15789473684210525 41:0.0625 48:0.14814814814814814 49:0.2222222222222222 50:0.06666666666666667 
1.0 39:0.05555555555555555 40:0.029411764705882353 41:0.2 42:1.0 43:1.0 48:0.08571428571428572 49:0.058823529411764705 50:0.2 51:1.0 52:1.0 
1.0 39:0.03636363636363636 40:0.02040816326530612 41:0.2 42:1.0 43:1.0 48:0.07407407407407407 49:0.0625 50:0.2 51:1.0 52:1.0 
1.0 39:0.038461538461538464 41:0.16666666666666666 42:1.0 43:1.0 44:0.125 48:0.04081632653061224 50:0.18181818181818182 51:1.0 52:1.0 53:0.125 
1.0 39:0.06896551724137931 40:0.06557377049180328 44:0.3333333333333333 46:0.25 48:0.07407407407407407 49:0.07017543859649122 53:0.3333333333333333 55:0.25 
1.0 39:0.08620689655172414 40:0.06557377049180328 41:0.2 42:1.0 43:1.0 48:0.09259259259259259 49:0.07017543859649122 50:0.2 51:1.0 52:1.0 
1.0 39:0.15384615384615385 40:0.058823529411764705 41:0.3333333333333333 42:1.0 43:1.0 48:0.16666666666666666 49:0.0625 50:0.3333333333333333 51:1.0 52:1.0 
1.0 39:0.07692307692307693 40:0.058823529411764705 48:0.16666666666666666 49:0.125 
1.0 39:0.10416666666666667 40:0.12903225806451613 41:0.13513513513513514 44:0.2631578947368421 46:0.16666666666666666 48:0.10869565217391304 49:0.13114754098360656 50:0.14285714285714285 53:0.2777777777777778 55:0.17647058823529413 
1.0 39:0.08333333333333333 40:0.0967741935483871 41:0.10810810810810811 44:0.2631578947368421 46:0.1111111111111111 48:0.08695652173913043 49:0.09836065573770492 50:0.11428571428571428 53:0.2777777777777778 55:0.11764705882352941 
1.0 39:0.07407407407407407 40:0.060240963855421686 41:0.14285714285714285 42:1.0 43:1.0 48:0.07692307692307693 49:0.0625 50:0.14285714285714285 51:1.0 52:1.0 
1.0 39:0.04938271604938271 40:0.03614457831325301 41:0.14285714285714285 42:1.0 43:1.0 48:0.05128205128205128 49:0.0375 50:0.14285714285714285 51:1.0 52:1.0 
1.0 39:0.10714285714285714 40:0.08333333333333333 48:0.14285714285714285 49:0.11428571428571428 53:0.25 
1.0 39:0.07142857142857142 40:0.05555555555555555 48:0.10714285714285714 49:0.08571428571428572 53:0.25 
1.0 39:0.07936507936507936 40:0.07352941176470588 41:0.13114754098360656 44:0.17391304347826086 46:0.09090909090909091 48:0.09016393442622951 49:0.07462686567164178 50:0.15254237288135594 53:0.2727272727272727 55:0.19047619047619047 
1.0 39:0.047619047619047616 40:0.014705882352941176 41:0.08196721311475409 44:0.13043478260869565 46:0.045454545454545456 48:0.04918032786885246 49:0.014925373134328358 50:0.0847457627118644 53:0.13636363636363635 55:0.047619047619047616 
1.0 39:0.12 40:0.09836065573770492 44:0.3333333333333333 46:0.25 48:0.12244897959183673 49:0.1016949152542373 53:0.3333333333333333 55:0.25 
1.0 39:0.04 40:0.03278688524590164 44:0.1111111111111111 48:0.04081632653061224 49:0.03389830508474576 53:0.1111111111111111 
1.0 39:0.07317073170731707 40:0.043478260869565216 41:0.3333333333333333 42:1.0 43:1.0 44:0.14285714285714285 48:0.10256410256410256 49:0.06976744186046512 50:0.3333333333333333 51:1.0 52:1.0 53:0.14285714285714285 
1.0 39:0.0392156862745098 40:0.02127659574468085 41:0.125 42:1.0 43:1.0 44:0.14285714285714285 48:0.061224489795918366 49:0.044444444444444446 50:0.125 51:1.0 52:1.0 53:0.14285714285714285 
1.0 39:0.0196078431372549 41:0.125 42:1.0 43:1.0 48:0.04081632653061224 49:0.022222222222222223 50:0.125 51:1.0 52:1.0 
1.0 39:0.07317073170731707 40:0.05263157894736842 41:0.16666666666666666 42:1.0 43:1.0 48:0.07692307692307693 49:0.05405405405405406 50:0.16666666666666666 51:1.0 52:1.0 
1.0 39:0.024390243902439025 40:0.02631578947368421 48:0.05128205128205128 49:0.05405405405405406 
1.0 39:0.10344827586206896 40:0.14285714285714285 41:0.043478260869565216 44:0.16666666666666666 46:0.058823529411764705 48:0.12048192771084337 49:0.16666666666666666 50:0.045454545454545456 53:0.2631578947368421 55:0.1111111111111111 
1.0 39:0.034482758620689655 40:0.047619047619047616 44:0.05555555555555555 48:0.03614457831325301 49:0.05 53:0.05263157894736842 
1.0 39:0.11290322580645161 40:0.07317073170731707 41:0.16666666666666666 42:1.0 43:1.0 44:0.36363636363636365 46:0.3 48:0.14754098360655737 49:0.07692307692307693 50:0.23333333333333334 51:1.0 52:1.0 53:0.4166666666666667 55:0.36363636363636365 
1.0 39:0.07692307692307693 40:0.07272727272727272 41:0.07692307692307693 44:0.07142857142857142 48:0.12 49:0.07407407407407407 50:0.2 53:0.15384615384615385 
1.0 39:0.06741573033707865 40:0.125 41:0.020833333333333332 44:0.0625 48:0.08641975308641975 49:0.1282051282051282 50:0.04878048780487805 53:0.0625 
1.0 39:0.0449438202247191 40:0.1 44:0.0625 48:0.06172839506172839 49:0.10256410256410256 50:0.024390243902439025 53:0.0625 
1.0 39:0.11290322580645161 40:0.17647058823529413 41:0.05714285714285714 44:0.15384615384615385 46:0.08333333333333333 48:0.13333333333333333 49:0.21875 50:0.058823529411764705 53:0.15384615384615385 55:0.08333333333333333 
1.0 39:0.08064516129032258 40:0.08823529411764706 41:0.08571428571428572 44:0.07692307692307693 48:0.1 49:0.125 50:0.11764705882352941 53:0.07692307692307693 
1.0 39:0.02564102564102564 41:0.1111111111111111 48:0.02631578947368421 50:0.14285714285714285 
1.0 39:0.23076923076923078 40:0.21052631578947367 41:0.19047619047619047 44:0.3333333333333333 46:0.125 48:0.3076923076923077 49:0.32432432432432434 50:0.23809523809523808 52:1.0 53:0.6 55:0.3333333333333333 
1.0 39:0.038461538461538464 40:0.05263157894736842 48:0.038461538461538464 49:0.05405405405405406 
1.0 39:0.125 40:0.13636363636363635 44:0.2222222222222222 46:0.125 48:0.13043478260869565 49:0.14285714285714285 53:0.2222222222222222 55:0.125 
1.0 39:0.10810810810810811 40:0.05128205128205128 41:0.3333333333333333 48:0.13513513513513514 49:0.07894736842105263 50:0.3333333333333333 53:0.2857142857142857 55:0.16666666666666666 
1.0 39:0.0196078431372549 41:0.16666666666666666 42:1.0 43:1.0 48:0.020833333333333332 50:0.16666666666666666 51:1.0 52:1.0 
1.0 39:0.058823529411764705 40:0.0625 44:0.125 48:0.0625 49:0.06521739130434782 53:0.14285714285714285 
1.0 39:0.1111111111111111 40:0.07407407407407407 41:0.3333333333333333 42:1.0 43:1.0 44:0.3333333333333333 46:0.2 48:0.11538461538461539 49:0.07692307692307693 50:0.3333333333333333 51:1.0 52:1.0 53:0.3333333333333333 55:0.2 
1.0 39:0.1111111111111111 40:0.1111111111111111 44:0.3333333333333333 46:0.2 48:0.15384615384615385 49:0.15384615384615385 53:0.5 55:0.4 
1.0 39:0.0684931506849315 40:0.043478260869565216 41:0.14285714285714285 44:0.14285714285714285 46:0.07692307692307693 48:0.07142857142857142 49:0.044444444444444446 50:0.15625 53:0.14285714285714285 55:0.07692307692307693 
1.0 39:0.0684931506849315 40:0.043478260869565216 41:0.11428571428571428 44:0.07142857142857142 48:0.07142857142857142 49:0.044444444444444446 50:0.125 53:0.07142857142857142 
1.0 39:0.08823529411764706 40:0.18181818181818182 41:0.15789473684210525 44:0.07692307692307693 48:0.08955223880597014 49:0.19047619047619047 50:0.16216216216216217 53:0.07692307692307693 
1.0 39:0.029411764705882353 40:0.09090909090909091 41:0.05263157894736842 48:0.029850746268656716 49:0.09523809523809523 50:0.05405405405405406 
1.0 39:0.1875 40:0.06666666666666667 41:0.25 44:0.4 46:0.25 48:0.18181818181818182 49:0.06666666666666667 50:0.23809523809523808 53:0.3333333333333333 55:0.2 
1.0 39:0.125 40:0.06666666666666667 41:0.15 44:0.4 46:0.25 48:0.12121212121212122 49:0.06666666666666667 50:0.14285714285714285 53:0.3333333333333333 55:0.2 
1.0 39:0.047619047619047616 40:0.03571428571428571 41:0.14285714285714285 42:1.0 43:1.0 48:0.05 49:0.037037037037037035 50:0.14285714285714285 51:1.0 52:1.0 
1.0 39:0.04 40:0.045454545454545456 48:0.08695652173913043 49:0.0975609756097561 50:0.08333333333333333 53:0.2222222222222222 
1.0 39:0.14 40:0.1590909090909091 48:0.15217391304347827 49:0.17073170731707318 50:0.16666666666666666 
1.0 39:0.0963855421686747 40:0.18421052631578946 41:0.038461538461538464 44:0.13333333333333333 48:0.09876543209876543 49:0.1891891891891892 50:0.04 53:0.13333333333333333 
1.0 39:0.07228915662650602 40:0.10526315789473684 41:0.057692307692307696 48:0.07407407407407407 49:0.10810810810810811 50:0.06 
1.0 39:0.3333333333333333 40:0.26666666666666666 41:0.25 44:0.16666666666666666 48:0.36666666666666664 49:0.3103448275862069 50:0.25 53:0.16666666666666666 
1.0 39:0.18439716312056736 40:0.18421052631578946 41:0.20833333333333334 44:0.17857142857142858 46:0.07407407407407407 48:0.19285714285714287 49:0.21621621621621623 50:0.2222222222222222 53:0.17857142857142858 55:0.07407407407407407 
1.0 39:0.05673758865248227 40:0.10526315789473684 41:0.013888888888888888 48:0.05714285714285714 49:0.10810810810810811 50:0.013888888888888888 
1.0 39:0.07960199004975124 40:0.07142857142857142 41:0.10687022900763359 44:0.1 46:0.02564102564102564 48:0.09547738693467336 49:0.0975609756097561 50:0.13178294573643412 53:0.10256410256410256 55:0.02631578947368421 
1.0 39:0.014925373134328358 40:0.047619047619047616 41:0.015267175572519083 44:0.05 48:0.020100502512562814 49:0.07317073170731707 50:0.023255813953488372 53:0.07692307692307693 
1.0 39:0.06349206349206349 41:0.07547169811320754 48:0.09836065573770492 50:0.11764705882352941 53:0.07142857142857142 
1.0 39:0.031746031746031744 41:0.03773584905660377 48:0.06557377049180328 50:0.0784313725490196 
1.0 39:0.10526315789473684 40:0.12 41:0.0847457627118644 44:0.06666666666666667 48:0.1267605633802817 49:0.2 50:0.08771929824561403 53:0.06666666666666667 
1.0 39:0.13157894736842105 40:0.16 41:0.1016949152542373 44:0.06666666666666667 48:0.16901408450704225 49:0.25 50:0.12280701754385964 53:0.06666666666666667 
1.0 39:0.06779661016949153 40:0.058823529411764705 41:0.075 44:0.043478260869565216 48:0.1 49:0.0851063829787234 50:0.12162162162162163 53:0.08 55:0.041666666666666664 
1.0 39:0.05084745762711865 40:0.0784313725490196 41:0.0375 44:0.043478260869565216 48:0.05454545454545454 49:0.0851063829787234 50:0.04054054054054054 53:0.04 
1.0 39:0.2236842105263158 40:0.2727272727272727 41:0.20833333333333334 44:0.35714285714285715 46:0.07692307692307693 48:0.323943661971831 49:0.36363636363636365 50:0.3157894736842105 53:0.5 55:0.26666666666666666 
1.0 39:0.1527777777777778 40:0.15 41:0.14285714285714285 44:0.07142857142857142 48:0.17142857142857143 49:0.17857142857142858 50:0.14285714285714285 53:0.14285714285714285 
1.0 39:0.08333333333333333 40:0.05 41:0.14285714285714285 44:0.07142857142857142 48:0.1 49:0.07142857142857142 50:0.14285714285714285 53:0.07142857142857142 
1.0 39:0.1388888888888889 40:0.14516129032258066 41:0.07142857142857142 44:0.4666666666666667 46:0.42857142857142855 48:0.14864864864864866 49:0.15625 50:0.07142857142857142 53:0.5 55:0.4666666666666667 
1.0 39:0.10714285714285714 40:0.02127659574468085 41:0.17391304347826086 44:0.2777777777777778 46:0.23529411764705882 48:0.16666666666666666 49:0.09302325581395349 50:0.21428571428571427 53:0.3157894736842105 55:0.2222222222222222 
1.0 39:0.047619047619047616 40:0.0425531914893617 41:0.043478260869565216 48:0.07692307692307693 49:0.06976744186046512 50:0.07142857142857142 53:0.05263157894736842 
1.0 39:0.1111111111111111 40:0.12121212121212122 41:0.06666666666666667 44:0.2857142857142857 46:0.16666666666666666 48:0.11627906976744186 49:0.12903225806451613 50:0.06666666666666667 53:0.2857142857142857 55:0.16666666666666666 
1.0 39:0.1111111111111111 40:0.09090909090909091 41:0.13333333333333333 48:0.11627906976744186 49:0.0967741935483871 50:0.13333333333333333 
1.0 39:0.11627906976744186 40:0.12121212121212122 41:0.07692307692307693 44:0.42857142857142855 46:0.3333333333333333 48:0.12195121951219512 49:0.12903225806451613 50:0.07692307692307693 53:0.42857142857142855 55:0.3333333333333333 
1.0 39:0.11627906976744186 40:0.09090909090909091 41:0.15384615384615385 44:0.14285714285714285 48:0.12195121951219512 49:0.0967741935483871 50:0.15384615384615385 53:0.14285714285714285 
1.0 39:0.12121212121212122 40:0.12903225806451613 44:0.6 46:0.5 48:0.1935483870967742 49:0.20689655172413793 53:0.8333333333333334 55:0.8 
1.0 39:0.06060606060606061 40:0.03225806451612903 41:0.2 42:1.0 43:1.0 48:0.12903225806451613 49:0.10344827586206896 50:0.2 51:1.0 52:1.0 53:0.5 55:0.4 
1.0 39:0.13333333333333333 40:0.10204081632653061 41:0.21428571428571427 43:1.0 44:0.3333333333333333 46:0.125 48:0.13793103448275862 49:0.10638297872340426 50:0.21428571428571427 52:1.0 53:0.3333333333333333 55:0.125 
1.0 39:0.13333333333333333 40:0.10344827586206896 41:0.16666666666666666 42:1.0 43:1.0 44:0.2 48:0.14814814814814814 49:0.11538461538461539 50:0.16666666666666666 51:1.0 52:1.0 53:0.2 
1.0 39:0.1 40:0.06896551724137931 41:0.16666666666666666 42:1.0 43:1.0 48:0.1111111111111111 49:0.07692307692307693 50:0.16666666666666666 51:1.0 52:1.0 
1.0 39:0.11764705882352941 40:0.12903225806451613 44:0.2857142857142857 46:0.16666666666666666 48:0.125 49:0.13333333333333333 53:0.3333333333333333 55:0.2 
1.0 39:0.02857142857142857 41:0.16666666666666666 42:1.0 43:1.0 48:0.02702702702702703 50:0.14285714285714285 51:1.0 52:1.0 
1.0 39:0.08695652173913043 40:0.08620689655172414 41:0.05263157894736842 44:0.08333333333333333 48:0.09090909090909091 49:0.09090909090909091 50:0.05555555555555555 53:0.08333333333333333 
1.0 39:0.043478260869565216 40:0.05172413793103448 44:0.08333333333333333 48:0.045454545454545456 49:0.05454545454545454 53:0.08333333333333333 
1.0 39:0.08571428571428572 40:0.05405405405405406 41:0.2 42:1.0 43:1.0 48:0.09375 49:0.06060606060606061 50:0.2 51:1.0 52:1.0 
1.0 39:0.02857142857142857 40:0.02702702702702703 42:1.0 48:0.0625 49:0.030303030303030304 50:0.2 51:1.0 52:1.0 
1.0 39:0.16129032258064516 40:0.14285714285714285 41:0.14285714285714285 42:1.0 43:1.0 44:0.25 48:0.13333333333333333 49:0.1111111111111111 50:0.14285714285714285 51:1.0 52:1.0 53:0.25 
1.0 39:0.027777777777777776 41:0.2 42:1.0 43:1.0 48:0.02702702702702703 50:0.2 51:1.0 52:1.0 
1.0 48:0.02702702702702703 49:0.02857142857142857 
1.0 39:0.10344827586206896 40:0.06896551724137931 41:0.3333333333333333 42:1.0 43:1.0 44:0.16666666666666666 48:0.14285714285714285 49:0.10714285714285714 50:0.3333333333333333 51:1.0 52:1.0 53:0.3333333333333333 
1.0 39:0.15384615384615385 40:0.14634146341463414 44:0.25 46:0.14285714285714285 48:0.15789473684210525 49:0.15 53:0.25 55:0.14285714285714285 
1.0 39:0.10256410256410256 40:0.07317073170731707 41:0.2 42:1.0 43:1.0 48:0.10526315789473684 49:0.075 50:0.2 51:1.0 52:1.0 
1.0 39:0.046153846153846156 40:0.019230769230769232 41:0.1111111111111111 44:0.09090909090909091 48:0.06666666666666667 49:0.021739130434782608 50:0.15789473684210525 53:0.16666666666666666 55:0.09090909090909091 
1.0 39:0.10344827586206896 40:0.07692307692307693 41:0.16666666666666666 42:1.0 43:1.0 48:0.12 49:0.08695652173913043 50:0.16666666666666666 51:1.0 52:1.0 
1.0 39:0.06896551724137931 40:0.07692307692307693 48:0.12 49:0.13043478260869565 53:0.25 
1.0 39:0.07547169811320754 40:0.05660377358490566 41:0.25 42:1.0 43:1.0 48:0.12244897959183673 49:0.10204081632653061 50:0.25 51:1.0 52:1.0 53:0.2 55:0.1111111111111111 
1.0 39:0.07547169811320754 40:0.05660377358490566 41:0.25 42:1.0 43:1.0 44:0.1 48:0.08163265306122448 49:0.061224489795918366 50:0.25 51:1.0 52:1.0 53:0.1 
1.0 39:0.07407407407407407 40:0.10810810810810811 44:0.2222222222222222 46:0.125 48:0.07547169811320754 49:0.10810810810810811 53:0.2222222222222222 55:0.125 
1.0 39:0.037037037037037035 40:0.05405405405405406 48:0.03773584905660377 49:0.05405405405405406 
1.0 39:0.12 40:0.09302325581395349 41:0.20512820512820512 44:0.4666666666666667 46:0.42857142857142855 48:0.12162162162162163 49:0.09523809523809523 50:0.21052631578947367 53:0.4666666666666667 55:0.42857142857142855 
1.0 39:0.08 40:0.13953488372093023 41:0.05128205128205128 44:0.26666666666666666 46:0.21428571428571427 48:0.0945945945945946 49:0.16666666666666666 50:0.05263157894736842 53:0.4 55:0.35714285714285715 
1.0 39:0.10344827586206896 40:0.07407407407407407 41:0.2 48:0.1111111111111111 49:0.07692307692307693 50:0.2 
1.0 39:0.1276595744680851 40:0.11627906976744186 41:0.14285714285714285 42:1.0 43:1.0 44:0.2 46:0.1111111111111111 48:0.13333333333333333 49:0.11904761904761904 50:0.14285714285714285 51:1.0 52:1.0 53:0.2222222222222222 55:0.125 
1.0 39:0.1 40:0.09090909090909091 41:0.2 42:1.0 43:1.0 44:0.125 48:0.16 49:0.1590909090909091 50:0.2 51:1.0 52:1.0 53:0.3333333333333333 55:0.125 
1.0 39:0.0661764705882353 40:0.15517241379310345 44:0.5 46:0.34782608695652173 48:0.072 49:0.16981132075471697 53:0.5 55:0.34782608695652173 
1.0 39:0.07352941176470588 40:0.08620689655172414 41:0.14705882352941177 44:0.25 46:0.13043478260869565 48:0.088 49:0.09433962264150944 50:0.1935483870967742 53:0.2916666666666667 55:0.17391304347826086 
1.0 39:0.12 40:0.06060606060606061 41:0.2 42:1.0 43:1.0 44:0.3333333333333333 48:0.16666666666666666 49:0.1 50:0.2 51:1.0 52:1.0 53:1.0 55:1.0 
1.0 39:0.10344827586206896 40:0.018518518518518517 41:0.35714285714285715 43:1.0 44:0.09090909090909091 48:0.10714285714285714 49:0.019230769230769232 50:0.35714285714285715 52:1.0 53:0.09090909090909091 
1.0 39:0.08620689655172414 40:0.037037037037037035 41:0.21428571428571427 48:0.08928571428571429 49:0.038461538461538464 50:0.21428571428571427 
1.0 39:0.1 40:0.06666666666666667 41:0.5 42:1.0 43:1.0 48:0.1282051282051282 49:0.09302325581395349 50:0.5 51:1.0 52:1.0 
1.0 39:0.13333333333333333 40:0.125 48:0.17857142857142858 49:0.1724137931034483 53:0.2 
1.0 39:0.03333333333333333 40:0.03125 48:0.07142857142857142 49:0.06896551724137931 53:0.2 
1.0 39:0.13043478260869565 40:0.13953488372093023 41:0.3333333333333333 42:1.0 43:1.0 48:0.13636363636363635 49:0.14634146341463414 50:0.3333333333333333 51:1.0 52:1.0 
1.0 39:0.043478260869565216 40:0.046511627906976744 41:0.16666666666666666 42:1.0 43:1.0 48:0.06818181818181818 49:0.07317073170731707 50:0.16666666666666666 51:1.0 52:1.0 
1.0 39:0.057971014492753624 40:0.08163265306122448 44:0.09090909090909091 48:0.09230769230769231 49:0.13636363636363635 53:0.08333333333333333 
1.0 39:0.08695652173913043 40:0.08163265306122448 41:0.07142857142857142 44:0.09090909090909091 48:0.12307692307692308 49:0.11363636363636363 50:0.10714285714285714 53:0.08333333333333333 
1.0 39:0.17073170731707318 40:0.1875 41:0.16666666666666666 42:1.0 43:1.0 44:0.375 46:0.14285714285714285 48:0.1794871794871795 49:0.1935483870967742 50:0.16666666666666666 51:1.0 52:1.0 53:0.42857142857142855 55:0.16666666666666666 
1.0 39:0.07142857142857142 40:0.0684931506849315 41:0.06666666666666667 48:0.1125 49:0.11594202898550725 50:0.06666666666666667 53:0.0625 
1.0 39:0.07142857142857142 40:0.0684931506849315 41:0.06666666666666667 48:0.1125 49:0.11594202898550725 50:0.06666666666666667 53:0.0625 
1.0 39:0.1651376146788991 40:0.3684210526315789 41:0.16494845360824742 44:0.3181818181818182 46:0.23809523809523808 48:0.18095238095238095 49:0.3888888888888889 50:0.1827956989247312 53:0.3181818181818182 55:0.23809523809523808 
1.0 39:0.1834862385321101 40:0.15789473684210525 41:0.18556701030927836 44:0.13636363636363635 46:0.047619047619047616 48:0.19047619047619047 49:0.16666666666666666 50:0.1935483870967742 53:0.13636363636363635 55:0.047619047619047616 
1.0 39:0.0913978494623656 40:0.21428571428571427 41:0.10493827160493827 44:0.23076923076923078 46:0.10526315789473684 48:0.10270270270270271 49:0.23076923076923078 50:0.1165644171779141 53:0.2926829268292683 55:0.15 
1.0 39:0.0913978494623656 40:0.21428571428571427 41:0.10493827160493827 44:0.23076923076923078 46:0.10526315789473684 48:0.10270270270270271 49:0.23076923076923078 50:0.1165644171779141 53:0.2926829268292683 55:0.15 
1.0 39:0.05434782608695652 40:0.04 41:0.06756756756756757 44:0.13333333333333333 46:0.07142857142857142 48:0.05813953488372093 49:0.041666666666666664 50:0.07352941176470588 53:0.125 55:0.06666666666666667 
1.0 39:0.021739130434782608 40:0.04 41:0.02702702702702703 48:0.03488372093023256 49:0.041666666666666664 50:0.04411764705882353 
1.0 39:0.10526315789473684 41:0.15384615384615385 44:0.4 46:0.3333333333333333 48:0.14545454545454545 49:0.09090909090909091 50:0.16216216216216217 53:0.36363636363636365 55:0.3 
1.0 39:0.10526315789473684 41:0.15384615384615385 44:0.4 46:0.3333333333333333 48:0.14545454545454545 49:0.09090909090909091 50:0.16216216216216217 53:0.36363636363636365 55:0.3 
1.0 39:0.1590909090909091 40:0.14285714285714285 41:0.2 42:1.0 43:1.0 44:0.2857142857142857 46:0.16666666666666666 48:0.15217391304347827 49:0.1590909090909091 50:0.2 51:1.0 52:1.0 53:0.375 55:0.14285714285714285 
1.0 39:0.06976744186046512 40:0.10256410256410256 44:0.125 48:0.16666666666666666 49:0.18421052631578946 50:0.1 53:0.2222222222222222 
1.0 39:0.046511627906976744 41:0.18181818181818182 48:0.047619047619047616 50:0.2 
1.0 39:0.07317073170731707 40:0.047619047619047616 41:0.14285714285714285 44:0.14285714285714285 48:0.11904761904761904 49:0.09523809523809523 50:0.14285714285714285 53:0.25 
1.0 39:0.1 40:0.0625 41:0.18181818181818182 44:0.25 48:0.21052631578947367 49:0.1875 50:0.2 53:0.25 
1.0 39:0.04964539007092199 40:0.0547945205479452 41:0.09722222222222222 44:0.11538461538461539 46:0.04 48:0.07518796992481203 49:0.11267605633802817 50:0.15151515151515152 53:0.25 55:0.1111111111111111 
1.0 39:0.028368794326241134 40:0.0547945205479452 41:0.041666666666666664 44:0.038461538461538464 48:0.045112781954887216 49:0.08450704225352113 50:0.07575757575757576 53:0.10714285714285714 
1.0 39:0.06451612903225806 40:0.06 41:0.09259259259259259 44:0.23529411764705882 46:0.125 48:0.07058823529411765 49:0.06818181818181818 50:0.09803921568627451 53:0.23529411764705882 55:0.125 
1.0 39:0.07526881720430108 40:0.12 41:0.1111111111111111 44:0.11764705882352941 48:0.08235294117647059 49:0.13636363636363635 50:0.11764705882352941 53:0.11764705882352941 
1.0 39:0.16216216216216217 40:0.125 44:0.42857142857142855 46:0.16666666666666666 48:0.16666666666666666 49:0.13043478260869565 53:0.42857142857142855 55:0.16666666666666666 
1.0 39:0.13513513513513514 40:0.10416666666666667 44:0.2857142857142857 46:0.16666666666666666 48:0.1388888888888889 49:0.10869565217391304 53:0.2857142857142857 55:0.16666666666666666 
1.0 39:0.1 40:0.07692307692307693 41:0.14285714285714285 44:0.25 46:0.18181818181818182 48:0.1016949152542373 49:0.07692307692307693 50:0.15384615384615385 53:0.25 55:0.18181818181818182 
1.0 39:0.1 40:0.1282051282051282 41:0.07142857142857142 44:0.25 48:0.1016949152542373 49:0.1282051282051282 50:0.07692307692307693 53:0.25 
1.0 39:0.08108108108108109 41:0.125 44:0.125 48:0.10810810810810811 50:0.17391304347826086 53:0.25 
1.0 39:0.10810810810810811 40:0.14285714285714285 41:0.041666666666666664 44:0.125 48:0.10810810810810811 49:0.15 50:0.043478260869565216 53:0.125 
1.0 39:0.17857142857142858 40:0.125 41:0.25 42:1.0 43:1.0 44:0.2 48:0.17857142857142858 49:0.12903225806451613 50:0.25 51:1.0 52:1.0 53:0.2 
1.0 39:0.07042253521126761 40:0.08695652173913043 41:0.03571428571428571 44:0.2727272727272727 46:0.2 48:0.07575757575757576 49:0.0975609756097561 50:0.03571428571428571 53:0.2727272727272727 55:0.2 
1.0 39:0.1487603305785124 40:0.20967741935483872 41:0.1111111111111111 44:0.30434782608695654 46:0.13636363636363635 48:0.1487603305785124 49:0.2222222222222222 50:0.12903225806451613 53:0.30434782608695654 55:0.13636363636363635 
1.0 39:0.1487603305785124 40:0.20967741935483872 41:0.1111111111111111 44:0.30434782608695654 46:0.13636363636363635 48:0.1487603305785124 49:0.2222222222222222 50:0.12903225806451613 53:0.30434782608695654 55:0.13636363636363635 
1.0 39:0.065 40:0.11538461538461539 41:0.047619047619047616 44:0.10256410256410256 46:0.05263157894736842 48:0.07253886010362694 49:0.13513513513513514 50:0.056910569105691054 53:0.09523809523809523 55:0.04878048780487805 
1.0 39:0.065 40:0.11538461538461539 41:0.047619047619047616 44:0.10256410256410256 46:0.05263157894736842 48:0.07253886010362694 49:0.13513513513513514 50:0.056910569105691054 53:0.09523809523809523 55:0.04878048780487805 
1.0 39:0.08974358974358974 40:0.1 41:0.125 42:1.0 43:1.0 44:0.21428571428571427 48:0.0945945945945946 49:0.10204081632653061 50:0.13333333333333333 51:1.0 52:1.0 53:0.23076923076923078 
1.0 39:0.125 40:0.09302325581395349 41:0.2 42:1.0 43:1.0 48:0.16216216216216217 49:0.1282051282051282 50:0.2 51:1.0 52:1.0 53:0.16666666666666666 
1.0 39:0.075 40:0.046511627906976744 41:0.2 42:1.0 43:1.0 48:0.08108108108108109 49:0.05128205128205128 50:0.2 51:1.0 52:1.0 
1.0 39:0.07317073170731707 40:0.06451612903225806 41:0.2 42:1.0 43:1.0 48:0.10256410256410256 49:0.1 50:0.2 51:1.0 52:1.0 53:0.125 
1.0 39:0.1935483870967742 40:0.2 41:0.1 44:0.8 46:0.75 48:0.2 49:0.2 50:0.1111111111111111 53:0.8 55:0.75 
1.0 39:0.175 40:0.17073170731707318 44:0.25 48:0.1794871794871795 49:0.1794871794871795 53:0.25 
1.0 39:0.10526315789473684 40:0.04 41:0.1282051282051282 48:0.10526315789473684 49:0.041666666666666664 50:0.1282051282051282 
1.0 39:0.08771929824561403 40:0.12 41:0.05128205128205128 44:0.09090909090909091 48:0.08771929824561403 49:0.125 50:0.05128205128205128 53:0.08333333333333333 
1.0 39:0.12195121951219512 40:0.058823529411764705 41:0.12903225806451613 44:0.3333333333333333 46:0.25 48:0.125 49:0.0625 50:0.13333333333333333 53:0.3333333333333333 55:0.25 
1.0 39:0.04878048780487805 40:0.058823529411764705 41:0.03225806451612903 48:0.075 49:0.125 50:0.06666666666666667 
