svm_type c_svc
kernel_type linear
nr_class 2
total_sv 3446
rho 1.268763628157799
label 1 0
probA -0.4122449122821109
probB -0.08335187325398116
nr_sv 1723 1723
SV
1.0 1:0.043478260869565216 2:0.043478260869565216 3:1.0 4:1.0 
1.0 1:0.029850746268656716 
1.0 1:0.07317073170731707 
1.0 1:0.025 2:0.025 3:1.0 4:1.0 
1.0 1:0.05263157894736842 
1.0 1:0.12962962962962962 2:0.1111111111111111 
1.0 1:0.09230769230769231 2:0.06153846153846154 
1.0 1:0.07142857142857142 
1.0 1:0.125 2:0.10416666666666667 
1.0 1:0.1 2:0.1 
1.0 1:0.07142857142857142 2:0.014285714285714285 
1.0 1:0.08695652173913043 
1.0 1:0.01818181818181818 2:0.01818181818181818 3:1.0 4:1.0 
1.0 1:0.022727272727272728 2:0.022727272727272728 3:1.0 4:1.0 
1.0 1:0.06666666666666667 2:0.06666666666666667 
1.0 1:0.03636363636363636 2:0.03636363636363636 
1.0 1:0.0547945205479452 2:0.0273972602739726 3:1.0 4:1.0 
1.0 2:0.058823529411764705 3:1.0 4:1.0 
1.0 1:0.07692307692307693 2:0.01282051282051282 3:1.0 4:1.0 
1.0 1:0.06666666666666667 
1.0 1:0.031914893617021274 
1.0 1:0.046511627906976744 2:0.011627906976744186 3:1.0 4:1.0 
1.0 1:0.02040816326530612 2:0.02040816326530612 3:1.0 4:1.0 
1.0 1:0.046511627906976744 2:0.023255813953488372 3:1.0 4:1.0 
1.0 1:0.06557377049180328 2:0.01639344262295082 
1.0 1:0.06153846153846154 2:0.03076923076923077 
1.0 1:0.08108108108108109 2:0.02702702702702703 3:1.0 4:1.0 
1.0 1:0.0392156862745098 2:0.0392156862745098 3:1.0 4:1.0 
1.0 1:0.14814814814814814 2:0.07407407407407407 
1.0 1:0.08 2:0.02 
1.0 1:0.07228915662650602 2:0.07228915662650602 
1.0 1:0.04 2:0.02 
1.0 1:0.09523809523809523 2:0.047619047619047616 3:1.0 4:1.0 
1.0 1:0.061224489795918366 
1.0 1:0.061224489795918366 2:0.02040816326530612 
1.0 1:0.09859154929577464 2:0.028169014084507043 
1.0 1:0.041666666666666664 2:0.020833333333333332 
1.0 1:0.06896551724137931 2:0.034482758620689655 3:1.0 4:1.0 
1.0 1:0.1388888888888889 2:0.05555555555555555 
1.0 1:0.03076923076923077 2:0.007692307692307693 
1.0 1:0.06153846153846154 2:0.023076923076923078 
1.0 1:0.0967741935483871 2:0.06451612903225806 
1.0 1:0.18181818181818182 2:0.16666666666666666 
1.0 1:0.05223880597014925 2:0.029850746268656716 
1.0 1:0.06578947368421052 2:0.05263157894736842 
1.0 1:0.03278688524590164 2:0.01639344262295082 
1.0 1:0.16 2:0.12 
1.0 1:0.1282051282051282 2:0.07692307692307693 
1.0 1:0.11940298507462686 2:0.05970149253731343 
1.0 1:0.08035714285714286 2:0.026785714285714284 
1.0 1:0.043478260869565216 2:0.021739130434782608 3:1.0 4:1.0 
1.0 1:0.03571428571428571 2:0.008928571428571428 3:1.0 4:1.0 
1.0 1:0.06796116504854369 2:0.04854368932038835 
1.0 1:0.109375 2:0.046875 
1.0 1:0.15625 2:0.09375 
1.0 1:0.078125 2:0.03125 
1.0 1:0.1 2:0.03333333333333333 
1.0 1:0.08333333333333333 2:0.03333333333333333 
1.0 1:0.07894736842105263 2:0.008771929824561403 
1.0 1:0.07547169811320754 2:0.05660377358490566 
1.0 1:0.1891891891891892 2:0.16216216216216217 
1.0 1:0.11578947368421053 2:0.08421052631578947 
1.0 1:0.125 
1.0 1:0.08771929824561403 2:0.017543859649122806 3:1.0 4:1.0 
1.0 1:0.07246376811594203 2:0.014492753623188406 3:1.0 4:1.0 
1.0 1:0.02586206896551724 2:0.008620689655172414 3:1.0 4:1.0 
1.0 1:0.05 2:0.05 3:1.0 4:1.0 
1.0 1:0.06557377049180328 
1.0 1:0.06349206349206349 2:0.015873015873015872 3:1.0 4:1.0 
1.0 1:0.03636363636363636 2:0.01818181818181818 3:1.0 4:1.0 
1.0 1:0.0625 2:0.0625 3:1.0 4:1.0 
1.0 1:0.07407407407407407 2:0.07407407407407407 3:1.0 4:1.0 
1.0 1:0.02857142857142857 2:0.02857142857142857 3:1.0 4:1.0 
1.0 1:0.14 2:0.04 
1.0 1:0.1 
1.0 1:0.05128205128205128 
1.0 1:0.06666666666666667 2:0.03333333333333333 
1.0 1:0.10810810810810811 2:0.08108108108108109 
1.0 1:0.054945054945054944 2:0.03296703296703297 
1.0 1:0.06060606060606061 
1.0 1:0.08823529411764706 2:0.014705882352941176 3:1.0 4:1.0 
1.0 1:0.037037037037037035 2:0.037037037037037035 
1.0 1:0.05063291139240506 2:0.0379746835443038 
1.0 1:0.07142857142857142 
1.0 1:0.0967741935483871 2:0.03225806451612903 3:1.0 4:1.0 
1.0 1:0.046875 2:0.015625 3:1.0 4:1.0 
1.0 1:0.04081632653061224 2:0.04081632653061224 3:1.0 4:1.0 
1.0 1:0.034482758620689655 
1.0 1:0.14285714285714285 2:0.12244897959183673 
1.0 1:0.08 2:0.08 
1.0 1:0.07692307692307693 2:0.07692307692307693 4:1.0 
1.0 1:0.041666666666666664 2:0.027777777777777776 
1.0 1:0.10810810810810811 2:0.05405405405405406 
1.0 1:0.15 2:0.15 
1.0 1:0.045454545454545456 2:0.022727272727272728 
1.0 1:0.02631578947368421 2:0.02631578947368421 4:1.0 
1.0 1:0.02531645569620253 2:0.012658227848101266 3:1.0 4:1.0 
1.0 1:0.12 2:0.12 
1.0 1:0.039473684210526314 2:0.013157894736842105 
1.0 1:0.11363636363636363 2:0.022727272727272728 
1.0 1:0.13333333333333333 2:0.06666666666666667 
1.0 1:0.10526315789473684 2:0.07894736842105263 
1.0 1:0.13953488372093023 2:0.046511627906976744 
1.0 1:0.10526315789473684 2:0.02631578947368421 
1.0 1:0.08695652173913043 
1.0 1:0.09375 2:0.03125 3:1.0 4:1.0 
1.0 1:0.11864406779661017 2:0.1016949152542373 
1.0 1:0.1125 2:0.1 
1.0 1:0.1 2:0.025 
1.0 1:0.0847457627118644 2:0.03389830508474576 
1.0 1:0.10204081632653061 2:0.061224489795918366 
1.0 1:0.13559322033898305 2:0.15254237288135594 
1.0 1:0.10416666666666667 2:0.10416666666666667 
1.0 1:0.07142857142857142 2:0.07142857142857142 3:1.0 4:1.0 
1.0 1:0.07407407407407407 
1.0 1:0.07407407407407407 
1.0 1:0.04411764705882353 
1.0 1:0.10294117647058823 2:0.029411764705882353 
1.0 1:0.0847457627118644 2:0.01694915254237288 
1.0 1:0.16666666666666666 2:0.13333333333333333 
1.0 1:0.11842105263157894 2:0.06578947368421052 
1.0 1:0.2 2:0.14285714285714285 
1.0 1:0.08860759493670886 2:0.0379746835443038 
1.0 1:0.075 2:0.0375 
1.0 1:0.16 2:0.12 
1.0 1:0.058823529411764705 2:0.011764705882352941 
1.0 1:0.07894736842105263 
1.0 1:0.05263157894736842 2:0.017543859649122806 3:1.0 4:1.0 
1.0 1:0.05263157894736842 2:0.017543859649122806 
1.0 1:0.05405405405405406 2:0.02702702702702703 
1.0 1:0.08163265306122448 2:0.04081632653061224 
1.0 1:0.13157894736842105 
1.0 1:0.08333333333333333 2:0.1111111111111111 
1.0 1:0.10256410256410256 2:0.10256410256410256 
1.0 1:0.0975609756097561 2:0.07317073170731707 
1.0 1:0.109375 2:0.09375 
1.0 1:0.06 
1.0 1:0.10344827586206896 2:0.06896551724137931 
1.0 1:0.009009009009009009 2:0.018018018018018018 3:1.0 4:1.0 
1.0 1:0.02127659574468085 2:0.0425531914893617 3:1.0 4:1.0 
1.0 1:0.08108108108108109 2:0.08108108108108109 3:1.0 4:1.0 
1.0 1:0.05405405405405406 2:0.02702702702702703 
1.0 1:0.006329113924050633 2:0.006329113924050633 3:1.0 4:1.0 
1.0 1:0.05263157894736842 2:0.03508771929824561 3:1.0 4:1.0 
1.0 1:0.05263157894736842 2:0.02631578947368421 3:1.0 4:1.0 
1.0 1:0.10526315789473684 
1.0 1:0.07894736842105263 2:0.05263157894736842 
1.0 1:0.05714285714285714 2:0.02857142857142857 3:1.0 4:1.0 
1.0 1:0.07936507936507936 2:0.047619047619047616 
1.0 1:0.04411764705882353 
1.0 1:0.0967741935483871 2:0.03225806451612903 
1.0 1:0.11538461538461539 2:0.11538461538461539 
1.0 1:0.06349206349206349 2:0.015873015873015872 
1.0 1:0.18518518518518517 2:0.07407407407407407 
1.0 1:0.23076923076923078 2:0.11538461538461539 
1.0 1:0.0625 2:0.0625 
1.0 1:0.09302325581395349 2:0.046511627906976744 4:1.0 
1.0 1:0.16666666666666666 2:0.08333333333333333 
1.0 1:0.1388888888888889 2:0.08333333333333333 
1.0 1:0.061224489795918366 2:0.05102040816326531 
1.0 1:0.12 2:0.12 
1.0 1:0.05714285714285714 2:0.05 
1.0 1:0.07692307692307693 2:0.06293706293706294 
1.0 1:0.06 2:0.02 
1.0 1:0.10204081632653061 2:0.09183673469387756 
1.0 1:0.05154639175257732 2:0.041237113402061855 
1.0 1:0.038461538461538464 
1.0 1:0.14634146341463414 2:0.0975609756097561 
1.0 1:0.075 2:0.075 
1.0 1:0.10101010101010101 2:0.09090909090909091 
1.0 1:0.06756756756756757 2:0.05405405405405406 
1.0 1:0.022556390977443608 2:0.015037593984962405 3:1.0 4:1.0 
1.0 1:0.03508771929824561 2:0.008771929824561403 3:1.0 4:1.0 
1.0 1:0.03759398496240601 2:0.007518796992481203 3:1.0 4:1.0 
1.0 1:0.023809523809523808 
1.0 1:0.05154639175257732 2:0.010309278350515464 3:1.0 4:1.0 
1.0 1:0.050505050505050504 2:0.010101010101010102 3:1.0 4:1.0 
1.0 1:0.02564102564102564 
1.0 1:0.011494252873563218 
1.0 1:0.0851063829787234 
1.0 1:0.061224489795918366 
1.0 1:0.075 2:0.05 
1.0 1:0.061224489795918366 2:0.04081632653061224 
1.0 1:0.09375 
1.0 1:0.10344827586206896 2:0.034482758620689655 
1.0 1:0.0546875 2:0.03125 3:1.0 4:1.0 
1.0 1:0.047619047619047616 2:0.01904761904761905 3:1.0 4:1.0 
1.0 1:0.0546875 2:0.03125 3:1.0 4:1.0 
1.0 1:0.047619047619047616 2:0.01904761904761905 3:1.0 4:1.0 
1.0 1:0.057971014492753624 2:0.028985507246376812 
1.0 1:0.047619047619047616 2:0.02857142857142857 3:1.0 4:1.0 
1.0 1:0.1388888888888889 2:0.1111111111111111 
1.0 1:0.13793103448275862 2:0.034482758620689655 
1.0 1:0.043010752688172046 2:0.043010752688172046 
1.0 1:0.1 2:0.06666666666666667 
1.0 1:0.06557377049180328 2:0.04918032786885246 
1.0 1:0.15 2:0.075 
1.0 1:0.07058823529411765 2:0.03529411764705882 
1.0 1:0.12658227848101267 2:0.10126582278481013 
1.0 1:0.1346153846153846 2:0.09615384615384616 
1.0 1:0.10588235294117647 
1.0 1:0.0743801652892562 
1.0 1:0.10810810810810811 2:0.04054054054054054 
1.0 1:0.11320754716981132 2:0.03773584905660377 
1.0 1:0.19047619047619047 2:0.14285714285714285 
1.0 1:0.12 2:0.12 
1.0 1:0.08571428571428572 2:0.08571428571428572 
1.0 1:0.07547169811320754 
1.0 1:0.010752688172043012 2:0.010752688172043012 3:1.0 4:1.0 
1.0 1:0.04 
1.0 1:0.07894736842105263 2:0.013157894736842105 3:1.0 4:1.0 
1.0 1:0.05128205128205128 2:0.01282051282051282 3:1.0 4:1.0 
1.0 1:0.052083333333333336 2:0.010416666666666666 3:1.0 4:1.0 
1.0 1:0.038461538461538464 
1.0 1:0.03571428571428571 2:0.03571428571428571 3:1.0 4:1.0 
1.0 1:0.08333333333333333 2:0.05555555555555555 
1.0 1:0.041666666666666664 2:0.041666666666666664 3:1.0 4:1.0 
1.0 1:0.10526315789473684 2:0.10526315789473684 
1.0 1:0.07692307692307693 2:0.019230769230769232 
1.0 1:0.06451612903225806 2:0.03225806451612903 
1.0 1:0.05128205128205128 2:0.02564102564102564 
1.0 1:0.02564102564102564 2:0.02564102564102564 
1.0 1:0.023809523809523808 2:0.011904761904761904 
1.0 1:0.2 2:0.02857142857142857 
1.0 1:0.11764705882352941 2:0.08823529411764706 
1.0 1:0.029411764705882353 2:0.014705882352941176 3:1.0 4:1.0 
1.0 1:0.08433734939759036 
1.0 1:0.08823529411764706 2:0.04411764705882353 
1.0 1:0.04411764705882353 
1.0 1:0.2 2:0.06666666666666667 
1.0 1:0.0963855421686747 2:0.012048192771084338 3:1.0 4:1.0 
1.0 1:0.08571428571428572 2:0.04285714285714286 
1.0 1:0.13793103448275862 2:0.06896551724137931 
1.0 1:0.04285714285714286 2:0.014285714285714285 
1.0 1:0.07042253521126761 2:0.014084507042253521 
1.0 1:0.02857142857142857 2:0.02857142857142857 
1.0 1:0.017857142857142856 2:0.03571428571428571 
1.0 1:0.16176470588235295 2:0.1323529411764706 
1.0 1:0.08163265306122448 2:0.04081632653061224 
1.0 1:0.046511627906976744 2:0.046511627906976744 
1.0 1:0.04411764705882353 
1.0 1:0.09375 2:0.015625 
1.0 1:0.09090909090909091 2:0.015151515151515152 
1.0 1:0.08333333333333333 
1.0 2:0.2 3:1.0 4:1.0 
1.0 2:0.2 3:1.0 4:1.0 
1.0 1:0.0851063829787234 
1.0 1:0.08620689655172414 2:0.017241379310344827 3:1.0 4:1.0 
1.0 1:0.05555555555555555 2:0.018518518518518517 3:1.0 4:1.0 
1.0 1:0.06349206349206349 2:0.047619047619047616 
1.0 1:0.07547169811320754 2:0.018867924528301886 3:1.0 4:1.0 
1.0 1:0.1 
1.0 1:0.08737864077669903 2:0.05825242718446602 3:1.0 4:1.0 
1.0 1:0.128 2:0.008 
1.0 1:0.17721518987341772 2:0.08860759493670886 
1.0 1:0.058823529411764705 2:0.014705882352941176 3:1.0 4:1.0 
1.0 1:0.009174311926605505 2:0.009174311926605505 3:1.0 4:1.0 
1.0 1:0.1323529411764706 2:0.014705882352941176 
1.0 1:0.14285714285714285 2:0.12857142857142856 
1.0 1:0.13131313131313133 2:0.050505050505050504 
1.0 1:0.07692307692307693 2:0.09615384615384616 3:1.0 4:1.0 
1.0 1:0.09090909090909091 2:0.04040404040404041 
1.0 1:0.057692307692307696 2:0.057692307692307696 
1.0 1:0.06666666666666667 
1.0 1:0.024096385542168676 
1.0 1:0.03333333333333333 2:0.016666666666666666 3:1.0 4:1.0 
1.0 1:0.041666666666666664 
1.0 1:0.06944444444444445 2:0.006944444444444444 3:1.0 4:1.0 
1.0 1:0.043478260869565216 
1.0 1:0.09722222222222222 2:0.041666666666666664 
1.0 1:0.08695652173913043 2:0.021739130434782608 3:1.0 4:1.0 
1.0 1:0.06666666666666667 2:0.03333333333333333 3:1.0 4:1.0 
1.0 1:0.058823529411764705 2:0.058823529411764705 3:1.0 4:1.0 
1.0 1:0.20588235294117646 2:0.08823529411764706 
1.0 1:0.11475409836065574 2:0.04918032786885246 
1.0 1:0.05 2:0.05 3:1.0 4:1.0 
1.0 1:0.13793103448275862 2:0.034482758620689655 
1.0 1:0.14285714285714285 2:0.047619047619047616 
1.0 1:0.0891089108910891 2:0.07920792079207921 
1.0 1:0.1206896551724138 2:0.017241379310344827 
1.0 1:0.11428571428571428 
1.0 1:0.06930693069306931 2:0.009900990099009901 
1.0 1:0.04838709677419355 
1.0 1:0.11267605633802817 2:0.056338028169014086 
1.0 1:0.038834951456310676 2:0.009708737864077669 
1.0 1:0.08450704225352113 2:0.028169014084507043 
1.0 1:0.05434782608695652 
1.0 1:0.05434782608695652 2:0.021739130434782608 3:1.0 4:1.0 
1.0 1:0.05434782608695652 2:0.021739130434782608 
1.0 1:0.011904761904761904 2:0.011904761904761904 3:1.0 4:1.0 
1.0 1:0.13043478260869565 
1.0 1:0.05128205128205128 2:0.02564102564102564 3:1.0 4:1.0 
1.0 1:0.058823529411764705 2:0.0196078431372549 
1.0 1:0.039473684210526314 2:0.013157894736842105 
1.0 1:0.07407407407407407 2:0.1111111111111111 
1.0 
1.0 
1.0 1:0.061224489795918366 
1.0 1:0.0425531914893617 
1.0 1:0.04878048780487805 2:0.024390243902439025 
1.0 1:0.0784313725490196 2:0.0196078431372549 3:1.0 4:1.0 
1.0 1:0.10714285714285714 
1.0 1:0.045454545454545456 
1.0 1:0.06896551724137931 2:0.034482758620689655 3:1.0 4:1.0 
1.0 1:0.1111111111111111 
1.0 1:0.07792207792207792 2:0.012987012987012988 3:1.0 4:1.0 
1.0 1:0.10227272727272728 2:0.011363636363636364 3:1.0 4:1.0 
1.0 1:0.05194805194805195 2:0.012987012987012988 3:1.0 4:1.0 
1.0 1:0.02127659574468085 
1.0 1:0.09090909090909091 2:0.012987012987012988 3:1.0 4:1.0 
1.0 1:0.05660377358490566 
1.0 1:0.11688311688311688 2:0.03896103896103896 
1.0 2:0.08333333333333333 3:1.0 4:1.0 
1.0 1:0.05357142857142857 2:0.017857142857142856 3:1.0 4:1.0 
1.0 1:0.043478260869565216 
1.0 1:0.045454545454545456 
1.0 1:0.03333333333333333 
1.0 1:0.08163265306122448 2:0.04081632653061224 3:1.0 4:1.0 
1.0 1:0.08571428571428572 
1.0 1:0.029411764705882353 2:0.029411764705882353 3:1.0 4:1.0 
1.0 1:0.05357142857142857 2:0.07142857142857142 
1.0 1:0.09090909090909091 2:0.07272727272727272 
1.0 1:0.08333333333333333 2:0.08333333333333333 3:1.0 4:1.0 
1.0 1:0.08823529411764706 2:0.029411764705882353 
1.0 1:0.17307692307692307 2:0.07692307692307693 
1.0 1:0.14705882352941177 2:0.11764705882352941 
1.0 1:0.16981132075471697 2:0.07547169811320754 
1.0 1:0.1076923076923077 2:0.03076923076923077 
1.0 1:0.05405405405405406 2:0.02702702702702703 3:1.0 4:1.0 
1.0 1:0.13157894736842105 2:0.02631578947368421 
1.0 1:0.037037037037037035 2:0.018518518518518517 
1.0 1:0.075 
1.0 1:0.07936507936507936 2:0.047619047619047616 3:1.0 4:1.0 
1.0 1:0.1125 2:0.025 
1.0 1:0.03773584905660377 
1.0 1:0.027777777777777776 2:0.027777777777777776 
1.0 1:0.11363636363636363 2:0.022727272727272728 
1.0 1:0.08163265306122448 2:0.04081632653061224 
1.0 1:0.12307692307692308 2:0.06153846153846154 
1.0 1:0.20689655172413793 
1.0 1:0.07575757575757576 2:0.045454545454545456 3:1.0 4:1.0 
1.0 1:0.20689655172413793 2:0.1724137931034483 
1.0 1:0.10714285714285714 2:0.03571428571428571 
1.0 1:0.07291666666666667 2:0.052083333333333336 
1.0 1:0.06521739130434782 2:0.021739130434782608 
1.0 1:0.10869565217391304 2:0.08695652173913043 
1.0 1:0.2 2:0.16 
1.0 1:0.17391304347826086 2:0.021739130434782608 
1.0 1:0.06557377049180328 2:0.03278688524590164 
1.0 1:0.022727272727272728 2:0.022727272727272728 3:1.0 4:1.0 
1.0 1:0.06504065040650407 2:0.04878048780487805 
1.0 1:0.0784313725490196 2:0.0196078431372549 
1.0 1:0.08235294117647059 2:0.047058823529411764 
1.0 1:0.0784313725490196 
1.0 1:0.032520325203252036 
1.0 1:0.058823529411764705 2:0.058823529411764705 3:1.0 4:1.0 
1.0 1:0.05357142857142857 2:0.017857142857142856 3:1.0 4:1.0 
1.0 1:0.0967741935483871 
1.0 1:0.10810810810810811 2:0.02702702702702703 3:1.0 4:1.0 
1.0 1:0.018867924528301886 2:0.018867924528301886 3:1.0 4:1.0 
1.0 1:0.03571428571428571 2:0.02142857142857143 
1.0 1:0.07246376811594203 2:0.014492753623188406 
1.0 1:0.09701492537313433 2:0.03731343283582089 3:1.0 4:1.0 
1.0 1:0.0759493670886076 
1.0 2:0.047619047619047616 3:1.0 4:1.0 
1.0 1:0.05405405405405406 
1.0 1:0.09523809523809523 2:0.015873015873015872 3:1.0 4:1.0 
1.0 1:0.07894736842105263 
1.0 1:0.13636363636363635 
1.0 1:0.009174311926605505 2:0.009174311926605505 3:1.0 4:1.0 
1.0 2:0.1111111111111111 3:1.0 4:1.0 
1.0 1:0.045454545454545456 2:0.022727272727272728 3:1.0 4:1.0 
1.0 1:0.18181818181818182 2:0.13636363636363635 
1.0 1:0.12244897959183673 2:0.12244897959183673 
1.0 1:0.1111111111111111 2:0.09722222222222222 
1.0 1:0.02564102564102564 2:0.02564102564102564 
1.0 1:0.11428571428571428 2:0.01904761904761905 
1.0 1:0.14285714285714285 2:0.14285714285714285 
1.0 1:0.061224489795918366 2:0.02040816326530612 3:1.0 4:1.0 
1.0 1:0.16129032258064516 2:0.06451612903225806 
1.0 1:0.1794871794871795 2:0.1282051282051282 
1.0 1:0.2 2:0.16 
1.0 1:0.15384615384615385 2:0.038461538461538464 
1.0 1:0.10638297872340426 2:0.0425531914893617 
1.0 1:0.08108108108108109 
1.0 1:0.06382978723404255 2:0.0425531914893617 
1.0 1:0.08108108108108109 
1.0 1:0.017543859649122806 2:0.017543859649122806 3:1.0 4:1.0 
1.0 1:0.01694915254237288 2:0.01694915254237288 
1.0 1:0.10526315789473684 2:0.07894736842105263 
1.0 1:0.061855670103092786 2:0.030927835051546393 
1.0 1:0.07575757575757576 2:0.030303030303030304 3:1.0 4:1.0 
1.0 1:0.030927835051546393 2:0.030927835051546393 3:1.0 4:1.0 
1.0 1:0.04201680672268908 2:0.004201680672268907 
1.0 1:0.056962025316455694 2:0.012658227848101266 
1.0 1:0.05825242718446602 2:0.02912621359223301 3:1.0 4:1.0 
1.0 1:0.08823529411764706 
1.0 1:0.039473684210526314 2:0.039473684210526314 
1.0 1:0.0673076923076923 2:0.04807692307692308 
1.0 1:0.05263157894736842 2:0.039473684210526314 
1.0 1:0.06578947368421052 2:0.06578947368421052 
1.0 1:0.061224489795918366 2:0.04081632653061224 
1.0 1:0.11475409836065574 2:0.08196721311475409 
1.0 2:0.021739130434782608 3:1.0 4:1.0 
1.0 1:0.109375 2:0.03125 
1.0 1:0.06666666666666667 2:0.041666666666666664 
1.0 1:0.20512820512820512 2:0.1282051282051282 
1.0 1:0.15789473684210525 2:0.05263157894736842 
1.0 1:0.1111111111111111 2:0.07407407407407407 
1.0 1:0.046511627906976744 2:0.046511627906976744 3:1.0 4:1.0 
1.0 1:0.03636363636363636 2:0.01818181818181818 3:1.0 4:1.0 
1.0 1:0.07272727272727272 
1.0 1:0.043478260869565216 2:0.021739130434782608 3:1.0 4:1.0 
1.0 1:0.06896551724137931 2:0.034482758620689655 3:1.0 4:1.0 
1.0 1:0.037037037037037035 2:0.018518518518518517 3:1.0 4:1.0 
1.0 1:0.017241379310344827 2:0.017241379310344827 3:1.0 4:1.0 
1.0 1:0.06896551724137931 
1.0 1:0.08620689655172414 2:0.017241379310344827 
1.0 1:0.014925373134328358 2:0.014925373134328358 3:1.0 4:1.0 
1.0 1:0.06756756756756757 2:0.05405405405405406 
1.0 1:0.038461538461538464 2:0.038461538461538464 
1.0 1:0.09859154929577464 2:0.04225352112676056 
1.0 1:0.13333333333333333 2:0.044444444444444446 
1.0 1:0.05357142857142857 2:0.03571428571428571 3:1.0 4:1.0 
1.0 1:0.07042253521126761 2:0.014084507042253521 3:1.0 4:1.0 
1.0 1:0.08888888888888889 2:0.022222222222222223 3:1.0 4:1.0 
1.0 1:0.016666666666666666 2:0.03333333333333333 3:1.0 4:1.0 
1.0 1:0.04878048780487805 2:0.024390243902439025 3:1.0 4:1.0 
1.0 1:0.05 2:0.016666666666666666 
1.0 1:0.06097560975609756 2:0.03048780487804878 
1.0 1:0.11538461538461539 2:0.07692307692307693 
1.0 1:0.12195121951219512 2:0.024390243902439025 
1.0 1:0.021164021164021163 2:0.031746031746031744 3:1.0 4:1.0 
1.0 1:0.026455026455026454 
1.0 1:0.054878048780487805 2:0.04878048780487805 
1.0 1:0.042328042328042326 2:0.015873015873015872 
1.0 1:0.12371134020618557 2:0.12371134020618557 
1.0 1:0.1111111111111111 2:0.1111111111111111 
1.0 1:0.10218978102189781 2:0.0072992700729927005 
1.0 1:0.043478260869565216 2:0.043478260869565216 3:1.0 4:1.0 
1.0 1:0.04807692307692308 2:0.019230769230769232 
1.0 1:0.06569343065693431 2:0.021897810218978103 
1.0 1:0.10218978102189781 2:0.029197080291970802 
1.0 1:0.12195121951219512 2:0.04878048780487805 
1.0 1:0.07407407407407407 2:0.037037037037037035 
1.0 1:0.1 2:0.05 
1.0 1:0.06779661016949153 2:0.01694915254237288 
1.0 1:0.06593406593406594 
1.0 1:0.12727272727272726 2:0.07272727272727272 
1.0 1:0.03571428571428571 2:0.03571428571428571 
1.0 1:0.0975609756097561 2:0.024390243902439025 
1.0 1:0.15625 2:0.125 
1.0 1:0.16666666666666666 2:0.16666666666666666 
1.0 1:0.0967741935483871 2:0.03225806451612903 
1.0 1:0.11764705882352941 2:0.11764705882352941 
1.0 1:0.08823529411764706 2:0.029411764705882353 3:1.0 4:1.0 
1.0 1:0.06666666666666667 3:1.0 
1.0 1:0.07692307692307693 
1.0 1:0.05263157894736842 2:0.10526315789473684 3:1.0 4:1.0 
1.0 1:0.17647058823529413 
1.0 1:0.02127659574468085 2:0.010638297872340425 3:1.0 4:1.0 
1.0 1:0.07853403141361257 2:0.07329842931937172 
1.0 1:0.06172839506172839 2:0.037037037037037035 
1.0 1:0.05405405405405406 2:0.013513513513513514 
1.0 1:0.05405405405405406 2:0.013513513513513514 
1.0 1:0.18604651162790697 2:0.16279069767441862 
1.0 1:0.075 2:0.1 3:1.0 4:1.0 
1.0 1:0.08547008547008547 2:0.05982905982905983 3:1.0 4:1.0 
1.0 1:0.08139534883720931 
1.0 1:0.08823529411764706 2:0.07352941176470588 
1.0 1:0.15384615384615385 
1.0 1:0.014705882352941176 2:0.014705882352941176 3:1.0 4:1.0 
1.0 1:0.02564102564102564 2:0.05128205128205128 3:1.0 4:1.0 
1.0 1:0.06060606060606061 2:0.015151515151515152 3:1.0 4:1.0 
1.0 1:0.045454545454545456 
1.0 1:0.022727272727272728 2:0.022727272727272728 3:1.0 4:1.0 
1.0 1:0.015151515151515152 
1.0 1:0.12727272727272726 2:0.045454545454545456 
1.0 1:0.10483870967741936 2:0.03225806451612903 
1.0 1:0.1 2:0.02 3:1.0 4:1.0 
1.0 1:0.09090909090909091 
1.0 1:0.07317073170731707 
1.0 1:0.05128205128205128 
1.0 1:0.12345679012345678 2:0.1111111111111111 
1.0 1:0.0967741935483871 2:0.024193548387096774 
1.0 1:0.09523809523809523 
1.0 1:0.03571428571428571 
1.0 1:0.047619047619047616 2:0.015873015873015872 3:1.0 4:1.0 
1.0 1:0.043478260869565216 2:0.043478260869565216 3:1.0 4:1.0 
1.0 1:0.01818181818181818 2:0.01818181818181818 3:1.0 4:1.0 
1.0 1:0.02666666666666667 2:0.013333333333333334 3:1.0 4:1.0 
1.0 1:0.03636363636363636 
1.0 1:0.14705882352941177 2:0.014705882352941176 
1.0 1:0.13513513513513514 2:0.13513513513513514 
1.0 1:0.10891089108910891 2:0.039603960396039604 
1.0 1:0.08641975308641975 2:0.06172839506172839 
1.0 1:0.08695652173913043 2:0.028985507246376812 
1.0 1:0.04950495049504951 2:0.009900990099009901 
1.0 1:0.0945945945945946 2:0.05405405405405406 
1.0 1:0.13793103448275862 2:0.034482758620689655 
1.0 1:0.06796116504854369 
1.0 1:0.0970873786407767 2:0.038834951456310676 
1.0 1:0.02702702702702703 
1.0 1:0.12195121951219512 
1.0 1:0.06779661016949153 
1.0 1:0.05333333333333334 2:0.02666666666666667 3:1.0 4:1.0 
1.0 1:0.08823529411764706 2:0.04411764705882353 3:1.0 4:1.0 
1.0 2:0.1111111111111111 3:1.0 4:1.0 
1.0 1:0.022222222222222223 
1.0 1:0.037037037037037035 2:0.018518518518518517 3:1.0 4:1.0 
1.0 1:0.05263157894736842 2:0.02631578947368421 3:1.0 4:1.0 
1.0 1:0.13725490196078433 2:0.058823529411764705 
1.0 1:0.07407407407407407 2:0.07407407407407407 
1.0 1:0.05263157894736842 2:0.05263157894736842 
1.0 1:0.06896551724137931 2:0.06896551724137931 
1.0 1:0.09230769230769231 2:0.09230769230769231 
1.0 1:0.09523809523809523 2:0.07936507936507936 
1.0 1:0.05555555555555555 2:0.03333333333333333 3:1.0 4:1.0 
1.0 1:0.029850746268656716 2:0.014925373134328358 3:1.0 4:1.0 
1.0 2:0.05263157894736842 3:1.0 4:1.0 
1.0 1:0.04672897196261682 2:0.037383177570093455 3:1.0 4:1.0 
1.0 1:0.15384615384615385 2:0.038461538461538464 
1.0 1:0.07777777777777778 2:0.022222222222222223 
1.0 1:0.13333333333333333 2:0.08888888888888889 
1.0 1:0.08695652173913043 2:0.043478260869565216 
1.0 1:0.058823529411764705 2:0.029411764705882353 3:1.0 4:1.0 
1.0 1:0.10909090909090909 2:0.06363636363636363 
1.0 1:0.07954545454545454 
1.0 1:0.14150943396226415 2:0.11320754716981132 
1.0 1:0.15625 2:0.125 
1.0 1:0.07894736842105263 2:0.07894736842105263 
1.0 1:0.0975609756097561 2:0.0975609756097561 
1.0 1:0.1568627450980392 2:0.09803921568627451 
1.0 1:0.07352941176470588 2:0.058823529411764705 
1.0 1:0.0625 2:0.0375 
1.0 1:0.21052631578947367 2:0.18421052631578946 
1.0 1:0.16260162601626016 2:0.04878048780487805 
1.0 1:0.088 2:0.024 
1.0 1:0.08571428571428572 2:0.04285714285714286 
1.0 1:0.12745098039215685 2:0.08823529411764706 
1.0 1:0.07142857142857142 2:0.03571428571428571 
1.0 1:0.0975609756097561 2:0.04878048780487805 
1.0 1:0.06779661016949153 2:0.01694915254237288 
1.0 1:0.0975609756097561 2:0.04878048780487805 
1.0 1:0.06779661016949153 2:0.01694915254237288 
0.708453561977409 1:0.1111111111111111 2:0.037037037037037035 3:1.0 4:1.0 
1.0 1:0.1016949152542373 2:0.05084745762711865 4:1.0 
1.0 1:0.047619047619047616 2:0.023809523809523808 3:1.0 4:1.0 
1.0 1:0.0425531914893617 2:0.02127659574468085 3:1.0 4:1.0 
1.0 1:0.057692307692307696 
1.0 2:0.14285714285714285 3:1.0 4:1.0 
1.0 1:0.10714285714285714 2:0.05357142857142857 
1.0 1:0.0625 2:0.0625 
1.0 1:0.0392156862745098 2:0.0196078431372549 3:1.0 4:1.0 
1.0 1:0.025 2:0.025 3:1.0 4:1.0 
1.0 1:0.058823529411764705 2:0.029411764705882353 3:1.0 4:1.0 
1.0 2:0.09090909090909091 3:1.0 4:1.0 
1.0 1:0.022727272727272728 
1.0 1:0.043478260869565216 2:0.014492753623188406 3:1.0 4:1.0 
1.0 1:0.023809523809523808 2:0.023809523809523808 3:1.0 4:1.0 
1.0 1:0.11320754716981132 
1.0 1:0.03773584905660377 
1.0 1:0.023809523809523808 
1.0 1:0.06666666666666667 2:0.03333333333333333 3:1.0 4:1.0 
1.0 1:0.05970149253731343 2:0.014925373134328358 3:1.0 4:1.0 
1.0 1:0.08108108108108109 
1.0 1:0.05714285714285714 
1.0 1:0.17142857142857143 2:0.05714285714285714 
1.0 1:0.07142857142857142 2:0.023809523809523808 3:1.0 4:1.0 
1.0 1:0.1111111111111111 2:0.018518518518518517 3:1.0 4:1.0 
1.0 1:0.12222222222222222 2:0.06666666666666667 
1.0 1:0.0782608695652174 2:0.008695652173913044 
1.0 1:0.03333333333333333 2:0.016666666666666666 3:1.0 4:1.0 
1.0 1:0.050505050505050504 2:0.04040404040404041 
1.0 1:0.08620689655172414 2:0.08620689655172414 4:1.0 
1.0 1:0.06666666666666667 2:0.016666666666666666 3:1.0 4:1.0 
1.0 1:0.07547169811320754 
1.0 1:0.06349206349206349 2:0.015873015873015872 
1.0 1:0.09523809523809523 2:0.031746031746031744 3:1.0 4:1.0 
1.0 1:0.057692307692307696 2:0.019230769230769232 3:1.0 4:1.0 
1.0 1:0.12195121951219512 
1.0 1:0.0967741935483871 2:0.04838709677419355 
1.0 1:0.0641025641025641 2:0.01282051282051282 3:1.0 4:1.0 
1.0 1:0.0891089108910891 2:0.009900990099009901 
1.0 1:0.12195121951219512 
1.0 1:0.0625 2:0.0625 3:1.0 4:1.0 
1.0 1:0.0728476821192053 2:0.0728476821192053 
1.0 1:0.12582781456953643 2:0.11258278145695365 
1.0 1:0.11510791366906475 2:0.10071942446043165 
1.0 1:0.12582781456953643 2:0.12582781456953643 
1.0 1:0.15425531914893617 2:0.13297872340425532 
1.0 1:0.06756756756756757 2:0.06756756756756757 
1.0 1:0.02247191011235955 2:0.02247191011235955 
1.0 1:0.18604651162790697 2:0.13953488372093023 
1.0 1:0.07894736842105263 2:0.02631578947368421 
1.0 1:0.09375 2:0.03125 3:1.0 4:1.0 
1.0 1:0.16279069767441862 2:0.023255813953488372 
1.0 1:0.07228915662650602 2:0.012048192771084338 
1.0 1:0.078125 2:0.09375 3:1.0 4:1.0 
1.0 1:0.04938271604938271 2:0.024691358024691357 
1.0 1:0.043010752688172046 2:0.053763440860215055 
1.0 1:0.17647058823529413 2:0.14705882352941177 
1.0 1:0.10638297872340426 
1.0 1:0.07575757575757576 
1.0 1:0.13333333333333333 2:0.08888888888888889 
1.0 1:0.09615384615384616 2:0.038461538461538464 
1.0 1:0.0784313725490196 2:0.0784313725490196 
1.0 1:0.13636363636363635 2:0.09090909090909091 
1.0 1:0.030303030303030304 2:0.030303030303030304 3:1.0 4:1.0 
1.0 1:0.10810810810810811 2:0.02702702702702703 
1.0 1:0.12686567164179105 2:0.05970149253731343 
1.0 1:0.14102564102564102 2:0.07692307692307693 
1.0 1:0.09701492537313433 2:0.05223880597014925 
1.0 1:0.0898876404494382 2:0.06741573033707865 
1.0 1:0.047619047619047616 2:0.01904761904761905 
1.0 1:0.09090909090909091 2:0.022727272727272728 3:1.0 4:1.0 
1.0 1:0.05 2:0.025 3:1.0 4:1.0 
1.0 1:0.045454545454545456 2:0.022727272727272728 3:1.0 4:1.0 
1.0 1:0.15151515151515152 2:0.030303030303030304 
1.0 1:0.1 2:0.03333333333333333 3:1.0 4:1.0 
1.0 1:0.08 
1.0 1:0.07246376811594203 2:0.057971014492753624 
1.0 1:0.1388888888888889 2:0.05555555555555555 
1.0 1:0.1076923076923077 2:0.07692307692307693 
1.0 1:0.1388888888888889 2:0.1111111111111111 
1.0 1:0.058823529411764705 2:0.08823529411764706 3:1.0 4:1.0 
1.0 1:0.03508771929824561 2:0.05263157894736842 3:1.0 4:1.0 
1.0 1:0.01694915254237288 2:0.01694915254237288 3:1.0 4:1.0 
1.0 1:0.05263157894736842 2:0.10526315789473684 3:1.0 4:1.0 
1.0 1:0.02531645569620253 
1.0 1:0.023255813953488372 
1.0 1:0.01694915254237288 
1.0 1:0.02531645569620253 2:0.012658227848101266 3:1.0 4:1.0 
1.0 1:0.12987012987012986 2:0.1038961038961039 
1.0 1:0.11267605633802817 2:0.09859154929577464 
1.0 1:0.09322033898305085 2:0.05084745762711865 3:1.0 4:1.0 
1.0 1:0.09322033898305085 2:0.07627118644067797 
1.0 1:0.0875 2:0.075 
1.0 1:0.06944444444444445 2:0.013888888888888888 
1.0 1:0.06521739130434782 2:0.021739130434782608 
1.0 1:0.034482758620689655 2:0.034482758620689655 3:1.0 4:1.0 
1.0 1:0.0847457627118644 2:0.059322033898305086 
1.0 1:0.1 
1.0 1:0.0423728813559322 2:0.03389830508474576 3:1.0 4:1.0 
1.0 1:0.0967741935483871 2:0.03225806451612903 3:1.0 4:1.0 
1.0 1:0.02702702702702703 2:0.02702702702702703 
1.0 1:0.021739130434782608 2:0.021739130434782608 
1.0 1:0.08333333333333333 2:0.041666666666666664 3:1.0 4:1.0 
1.0 1:0.043478260869565216 
1.0 1:0.09090909090909091 
1.0 1:0.05357142857142857 2:0.017857142857142856 3:1.0 4:1.0 
1.0 1:0.038461538461538464 
1.0 1:0.05844155844155844 
1.0 1:0.1 
1.0 1:0.07272727272727272 2:0.09090909090909091 3:1.0 4:1.0 
1.0 1:0.12345679012345678 2:0.1111111111111111 
1.0 1:0.08888888888888889 2:0.07777777777777778 
1.0 1:0.12345679012345678 2:0.06172839506172839 
1.0 1:0.06172839506172839 2:0.024691358024691357 3:1.0 4:1.0 
1.0 1:0.10204081632653061 2:0.05102040816326531 
1.0 1:0.08888888888888889 2:0.05555555555555555 
1.0 1:0.0893854748603352 2:0.0223463687150838 
1.0 1:0.1276595744680851 2:0.10638297872340426 
1.0 1:0.06097560975609756 2:0.036585365853658534 
1.0 1:0.030927835051546393 2:0.020618556701030927 3:1.0 4:1.0 
1.0 2:0.16666666666666666 3:1.0 4:1.0 
1.0 1:0.1 
1.0 1:0.07272727272727272 2:0.05454545454545454 3:1.0 4:1.0 
1.0 1:0.0821917808219178 2:0.0821917808219178 3:1.0 4:1.0 
1.0 1:0.17647058823529413 
1.0 1:0.02 2:0.06 3:1.0 4:1.0 
1.0 1:0.030303030303030304 2:0.06060606060606061 3:1.0 4:1.0 
1.0 1:0.0975609756097561 2:0.0975609756097561 
1.0 1:0.029411764705882353 2:0.029411764705882353 
1.0 1:0.06382978723404255 
1.0 1:0.061224489795918366 
1.0 1:0.010638297872340425 
1.0 1:0.12 2:0.04 
1.0 1:0.0425531914893617 2:0.02127659574468085 
1.0 1:0.16666666666666666 2:0.16666666666666666 
1.0 1:0.12121212121212122 
1.0 1:0.022727272727272728 2:0.022727272727272728 3:1.0 4:1.0 
1.0 1:0.08888888888888889 
1.0 1:0.16666666666666666 
1.0 2:0.09090909090909091 3:1.0 4:1.0 
1.0 1:0.09090909090909091 2:0.05303030303030303 
1.0 1:0.0782608695652174 2:0.06086956521739131 
1.0 1:0.1259259259259259 2:0.1037037037037037 
1.0 1:0.07142857142857142 2:0.031746031746031744 
1.0 1:0.09523809523809523 2:0.07142857142857142 
1.0 1:0.12903225806451613 
1.0 1:0.2 2:0.03333333333333333 
1.0 1:0.09523809523809523 2:0.047619047619047616 
1.0 1:0.022727272727272728 2:0.022727272727272728 
1.0 1:0.15789473684210525 
1.0 1:0.1 
1.0 1:0.0449438202247191 2:0.02247191011235955 3:1.0 4:1.0 
1.0 1:0.04838709677419355 2:0.04838709677419355 3:1.0 4:1.0 
1.0 1:0.022727272727272728 2:0.022727272727272728 4:1.0 
1.0 1:0.06349206349206349 2:0.031746031746031744 3:1.0 4:1.0 
1.0 1:0.011363636363636364 2:0.011363636363636364 
1.0 1:0.07792207792207792 2:0.012987012987012988 3:1.0 4:1.0 
1.0 1:0.01875 2:0.00625 3:1.0 4:1.0 
1.0 1:0.03896103896103896 2:0.012987012987012988 
1.0 1:0.058823529411764705 
1.0 1:0.03896103896103896 
1.0 1:0.051470588235294115 2:0.007352941176470588 
1.0 1:0.04878048780487805 
1.0 1:0.0423728813559322 2:0.025423728813559324 
1.0 1:0.125 2:0.041666666666666664 
1.0 1:0.03389830508474576 2:0.025423728813559324 
1.0 1:0.046875 2:0.046875 
1.0 1:0.0975609756097561 
1.0 1:0.03225806451612903 
1.0 1:0.030303030303030304 
1.0 1:0.038461538461538464 
1.0 1:0.10638297872340426 
1.0 1:0.024390243902439025 2:0.04878048780487805 3:1.0 4:1.0 
1.0 1:0.019230769230769232 2:0.019230769230769232 
1.0 1:0.0684931506849315 2:0.0273972602739726 3:1.0 4:1.0 
1.0 1:0.05128205128205128 2:0.038461538461538464 3:1.0 4:1.0 
1.0 1:0.1111111111111111 2:0.024691358024691357 
1.0 1:0.06666666666666667 2:0.016666666666666666 3:1.0 4:1.0 
1.0 1:0.04285714285714286 
1.0 1:0.04285714285714286 2:0.014285714285714285 3:1.0 4:1.0 
1.0 1:0.06976744186046512 2:0.046511627906976744 
1.0 1:0.011235955056179775 2:0.02247191011235955 3:1.0 4:1.0 
1.0 2:0.02631578947368421 3:1.0 4:1.0 
1.0 1:0.05 2:0.1 3:1.0 4:1.0 
1.0 1:0.043859649122807015 2:0.008771929824561403 3:1.0 4:1.0 
1.0 1:0.047619047619047616 2:0.023809523809523808 3:1.0 4:1.0 
1.0 1:0.030303030303030304 2:0.030303030303030304 3:1.0 4:1.0 
1.0 1:0.019230769230769232 
1.0 1:0.058823529411764705 2:0.058823529411764705 3:1.0 4:1.0 
1.0 1:0.16666666666666666 
1.0 1:0.1111111111111111 
1.0 1:0.04 2:0.04 
1.0 1:0.08823529411764706 2:0.058823529411764705 
1.0 1:0.05660377358490566 2:0.018867924528301886 
1.0 1:0.07272727272727272 2:0.05454545454545454 
1.0 1:0.1095890410958904 2:0.0821917808219178 
1.0 1:0.17857142857142858 2:0.17857142857142858 
1.0 1:0.06451612903225806 2:0.03225806451612903 3:1.0 4:1.0 
1.0 1:0.05555555555555555 2:0.024691358024691357 
1.0 1:0.04878048780487805 2:0.008130081300813009 
1.0 1:0.1796875 2:0.1796875 
1.0 1:0.08152173913043478 2:0.021739130434782608 
1.0 1:0.05084745762711865 2:0.022598870056497175 3:1.0 4:1.0 
1.0 1:0.04487179487179487 2:0.03205128205128205 
1.0 1:0.05194805194805195 2:0.032467532467532464 
1.0 1:0.0847457627118644 2:0.05649717514124294 3:1.0 4:1.0 
1.0 1:0.08333333333333333 2:0.0641025641025641 3:1.0 4:1.0 
1.0 1:0.09090909090909091 
1.0 1:0.08333333333333333 2:0.041666666666666664 
1.0 1:0.05714285714285714 2:0.05714285714285714 
1.0 1:0.1111111111111111 2:0.08333333333333333 
1.0 1:0.08823529411764706 2:0.029411764705882353 
1.0 1:0.11764705882352941 2:0.04411764705882353 
1.0 1:0.1111111111111111 2:0.1111111111111111 
1.0 1:0.07142857142857142 2:0.014285714285714285 
1.0 1:0.02962962962962963 2:0.022222222222222223 
1.0 1:0.13636363636363635 2:0.13636363636363635 
1.0 1:0.13157894736842105 2:0.10526315789473684 
1.0 1:0.034482758620689655 2:0.017241379310344827 3:1.0 4:1.0 
1.0 1:0.015625 2:0.015625 3:1.0 4:1.0 
1.0 1:0.02127659574468085 2:0.010638297872340425 3:1.0 4:1.0 
1.0 1:0.07692307692307693 2:0.019230769230769232 3:1.0 4:1.0 
1.0 1:0.031914893617021274 
1.0 2:0.0625 3:1.0 4:1.0 
1.0 2:0.01694915254237288 3:1.0 4:1.0 
1.0 2:0.02631578947368421 3:1.0 4:1.0 
0.31601941690614865 1:0.09302325581395349 2:0.06976744186046512 3:1.0 4:1.0 
1.0 1:0.043478260869565216 2:0.043478260869565216 3:1.0 4:1.0 
1.0 1:0.04225352112676056 2:0.028169014084507043 3:1.0 4:1.0 
1.0 1:0.009009009009009009 
1.0 1:0.03355704697986577 2:0.006711409395973154 3:1.0 4:1.0 
1.0 1:0.009009009009009009 2:0.009009009009009009 3:1.0 4:1.0 
1.0 2:0.01639344262295082 3:1.0 4:1.0 
1.0 1:0.03355704697986577 2:0.006711409395973154 3:1.0 4:1.0 
1.0 1:0.02617801047120419 2:0.005235602094240838 3:1.0 4:1.0 
1.0 1:0.07936507936507936 2:0.06349206349206349 
1.0 1:0.2727272727272727 
1.0 1:0.08270676691729323 2:0.015037593984962405 
1.0 1:0.11206896551724138 2:0.008620689655172414 3:1.0 4:1.0 
1.0 1:0.10638297872340426 
1.0 1:0.04081632653061224 2:0.02040816326530612 3:1.0 4:1.0 
1.0 1:0.07692307692307693 2:0.07692307692307693 3:1.0 4:1.0 
1.0 1:0.19230769230769232 2:0.038461538461538464 
1.0 1:0.02531645569620253 2:0.012658227848101266 3:1.0 4:1.0 
1.0 1:0.05128205128205128 2:0.02564102564102564 3:1.0 4:1.0 
1.0 1:0.09433962264150944 2:0.03773584905660377 
1.0 1:0.07407407407407407 2:0.07407407407407407 
1.0 1:0.07317073170731707 2:0.07317073170731707 
1.0 1:0.16981132075471697 2:0.1509433962264151 
1.0 1:0.13253012048192772 2:0.11646586345381527 
1.0 2:0.2 3:1.0 4:1.0 
1.0 1:0.08333333333333333 2:0.05555555555555555 
1.0 1:0.057692307692307696 2:0.038461538461538464 
0.6464426508747527 1:0.22727272727272727 2:0.18181818181818182 
1.0 1:0.09090909090909091 2:0.056818181818181816 
1.0 1:0.11538461538461539 2:0.057692307692307696 
1.0 1:0.09090909090909091 2:0.022727272727272728 
1.0 1:0.0898876404494382 2:0.0449438202247191 
1.0 1:0.056179775280898875 2:0.02247191011235955 
1.0 1:0.08695652173913043 2:0.021739130434782608 
1.0 1:0.03571428571428571 2:0.03571428571428571 
1.0 1:0.0625 2:0.044642857142857144 
1.0 1:0.04716981132075472 2:0.02830188679245283 
1.0 1:0.08433734939759036 2:0.012048192771084338 3:1.0 4:1.0 
1.0 1:0.0851063829787234 2:0.07446808510638298 
1.0 1:0.1111111111111111 2:0.1111111111111111 
1.0 1:0.07142857142857142 2:0.03571428571428571 
1.0 1:0.0851063829787234 2:0.06382978723404255 
1.0 1:0.08695652173913043 2:0.06521739130434782 
1.0 1:0.0125 2:0.0125 
1.0 1:0.034482758620689655 
1.0 1:0.0759493670886076 2:0.012658227848101266 
1.0 1:0.05555555555555555 2:0.022222222222222223 
1.0 1:0.1388888888888889 2:0.08333333333333333 
1.0 1:0.0759493670886076 2:0.0379746835443038 
1.0 1:0.022222222222222223 2:0.03333333333333333 
1.0 1:0.015625 2:0.015625 3:1.0 4:1.0 
1.0 1:0.09375 2:0.078125 
1.0 1:0.07692307692307693 2:0.0641025641025641 
1.0 1:0.11538461538461539 2:0.0641025641025641 
1.0 1:0.04878048780487805 2:0.024390243902439025 
1.0 1:0.029411764705882353 
1.0 1:0.1 
1.0 1:0.029411764705882353 
1.0 1:0.02702702702702703 
1.0 1:0.2222222222222222 
1.0 1:0.03333333333333333 
1.0 1:0.05 2:0.05 
1.0 1:0.043478260869565216 2:0.043478260869565216 
1.0 1:0.05555555555555555 2:0.05555555555555555 
1.0 1:0.025 
1.0 1:0.11764705882352941 2:0.029411764705882353 
1.0 1:0.10526315789473684 
1.0 1:0.11764705882352941 2:0.029411764705882353 
1.0 1:0.06451612903225806 2:0.06451612903225806 3:1.0 4:1.0 
1.0 1:0.02564102564102564 2:0.02564102564102564 
1.0 1:0.018518518518518517 2:0.037037037037037035 3:1.0 4:1.0 
1.0 1:0.02564102564102564 
1.0 1:0.1 2:0.03333333333333333 
1.0 1:0.058823529411764705 
1.0 1:0.06666666666666667 
1.0 1:0.10344827586206896 2:0.034482758620689655 3:1.0 4:1.0 
1.0 1:0.08 2:0.04 
1.0 1:0.06666666666666667 2:0.022222222222222223 
1.0 1:0.058823529411764705 
1.0 1:0.15492957746478872 2:0.15492957746478872 
1.0 1:0.08870967741935484 2:0.06451612903225806 
1.0 1:0.1 2:0.05 
1.0 1:0.09090909090909091 2:0.05194805194805195 
1.0 1:0.06 2:0.03 
1.0 1:0.11538461538461539 2:0.019230769230769232 
1.0 1:0.057692307692307696 2:0.038461538461538464 
1.0 1:0.1076923076923077 
1.0 1:0.13846153846153847 2:0.09230769230769231 
1.0 1:0.07462686567164178 2:0.014925373134328358 3:1.0 4:1.0 
1.0 2:0.045454545454545456 3:1.0 4:1.0 
1.0 1:0.0410958904109589 
1.0 1:0.034482758620689655 
1.0 1:0.07692307692307693 
1.0 1:0.030303030303030304 2:0.030303030303030304 3:1.0 4:1.0 
1.0 1:0.05063291139240506 2:0.02531645569620253 3:1.0 4:1.0 
1.0 2:0.029411764705882353 3:1.0 4:1.0 
1.0 1:0.07865168539325842 2:0.033707865168539325 
1.0 1:0.18518518518518517 
1.0 1:0.045454545454545456 
1.0 1:0.04285714285714286 
1.0 1:0.07894736842105263 2:0.02631578947368421 3:1.0 4:1.0 
1.0 1:0.09375 2:0.0625 3:1.0 4:1.0 
1.0 1:0.05660377358490566 
1.0 1:0.05714285714285714 
1.0 1:0.05084745762711865 2:0.01694915254237288 3:1.0 4:1.0 
1.0 1:0.1 
1.0 1:0.05194805194805195 2:0.012987012987012988 3:1.0 4:1.0 
1.0 1:0.07692307692307693 2:0.038461538461538464 3:1.0 4:1.0 
1.0 1:0.07142857142857142 2:0.03571428571428571 3:1.0 4:1.0 
1.0 1:0.02564102564102564 2:0.02564102564102564 3:1.0 4:1.0 
1.0 2:0.058823529411764705 3:1.0 4:1.0 
1.0 1:0.1836734693877551 2:0.20408163265306123 
1.0 1:0.11290322580645161 2:0.11290322580645161 
1.0 1:0.05263157894736842 
1.0 1:0.12244897959183673 2:0.061224489795918366 
1.0 1:0.1694915254237288 2:0.1694915254237288 
1.0 1:0.18421052631578946 2:0.21052631578947367 
1.0 1:0.13793103448275862 2:0.10344827586206896 
1.0 1:0.13043478260869565 2:0.13043478260869565 
1.0 1:0.125 2:0.125 
1.0 1:0.07142857142857142 2:0.023809523809523808 
1.0 1:0.07575757575757576 2:0.030303030303030304 
1.0 1:0.12 2:0.04 
1.0 1:0.21052631578947367 
1.0 1:0.13333333333333333 
1.0 1:0.029850746268656716 2:0.014925373134328358 
1.0 1:0.057692307692307696 
1.0 1:0.11538461538461539 
1.0 1:0.0967741935483871 2:0.03225806451612903 
1.0 1:0.07317073170731707 2:0.04878048780487805 
1.0 1:0.08 2:0.04 
1.0 1:0.04 2:0.02 3:1.0 4:1.0 
1.0 1:0.05555555555555555 2:0.08333333333333333 3:1.0 4:1.0 
1.0 1:0.07317073170731707 2:0.06097560975609756 
1.0 1:0.1 2:0.08 
1.0 1:0.015625 2:0.03125 
1.0 1:0.1935483870967742 2:0.16129032258064516 
1.0 1:0.06818181818181818 2:0.03409090909090909 
1.0 1:0.0625 2:0.0625 
1.0 1:0.06451612903225806 
1.0 1:0.07142857142857142 
1.0 1:0.14754098360655737 2:0.09836065573770492 
1.0 1:0.061946902654867256 2:0.04424778761061947 
1.0 1:0.0273224043715847 2:0.01092896174863388 3:1.0 4:1.0 
1.0 1:0.043795620437956206 2:0.021897810218978103 3:1.0 4:1.0 
1.0 1:0.0392156862745098 2:0.00980392156862745 3:1.0 4:1.0 
1.0 1:0.046511627906976744 2:0.046511627906976744 
1.0 1:0.06060606060606061 
1.0 1:0.07575757575757576 
1.0 1:0.09090909090909091 
1.0 1:0.09523809523809523 
1.0 1:0.08108108108108109 
1.0 1:0.07692307692307693 2:0.02564102564102564 
1.0 1:0.11428571428571428 
1.0 1:0.07792207792207792 2:0.006493506493506494 
1.0 1:0.07142857142857142 2:0.05194805194805195 
1.0 1:0.1 2:0.03333333333333333 
1.0 1:0.07954545454545454 2:0.011363636363636364 3:1.0 4:1.0 
1.0 1:0.056818181818181816 3:1.0 
1.0 1:0.05555555555555555 3:1.0 
1.0 1:0.19047619047619047 2:0.16666666666666666 
1.0 1:0.09090909090909091 2:0.06493506493506493 
1.0 1:0.04395604395604396 2:0.01098901098901099 3:1.0 4:1.0 
1.0 1:0.13846153846153847 2:0.1076923076923077 
1.0 1:0.09523809523809523 2:0.07142857142857142 
1.0 1:0.08196721311475409 2:0.01639344262295082 3:1.0 4:1.0 
1.0 1:0.1111111111111111 2:0.05555555555555555 
1.0 1:0.022727272727272728 2:0.022727272727272728 
1.0 1:0.14285714285714285 2:0.12244897959183673 
1.0 1:0.15217391304347827 2:0.08695652173913043 
1.0 1:0.05555555555555555 2:0.05555555555555555 3:1.0 4:1.0 
1.0 1:0.027777777777777776 2:0.027777777777777776 3:1.0 4:1.0 
1.0 1:0.022727272727272728 2:0.011363636363636364 
1.0 1:0.008130081300813009 
1.0 1:0.17857142857142858 2:0.17857142857142858 
1.0 1:0.04878048780487805 2:0.024390243902439025 
1.0 1:0.06172839506172839 2:0.037037037037037035 
1.0 1:0.045454545454545456 2:0.045454545454545456 3:1.0 4:1.0 
1.0 1:0.08641975308641975 2:0.024691358024691357 
1.0 1:0.09375 2:0.0625 
1.0 1:0.07142857142857142 2:0.04285714285714286 
1.0 1:0.045454545454545456 
1.0 1:0.08641975308641975 2:0.024691358024691357 
1.0 1:0.04477611940298507 2:0.014925373134328358 
1.0 1:0.028985507246376812 2:0.014492753623188406 3:1.0 4:1.0 
1.0 1:0.018518518518518517 2:0.018518518518518517 3:1.0 4:1.0 
1.0 1:0.043478260869565216 2:0.014492753623188406 3:1.0 4:1.0 
1.0 1:0.043478260869565216 2:0.014492753623188406 3:1.0 4:1.0 
1.0 1:0.03333333333333333 2:0.016666666666666666 3:1.0 4:1.0 
1.0 1:0.08235294117647059 2:0.023529411764705882 
1.0 1:0.060240963855421686 2:0.024096385542168676 
1.0 1:0.07936507936507936 2:0.06349206349206349 
1.0 1:0.10569105691056911 2:0.08943089430894309 
1.0 1:0.11764705882352941 2:0.0392156862745098 
1.0 1:0.14516129032258066 2:0.12903225806451613 
1.0 1:0.09615384615384616 2:0.09615384615384616 
1.0 1:0.06976744186046512 
1.0 1:0.13636363636363635 
1.0 1:0.0425531914893617 
1.0 1:0.07692307692307693 2:0.057692307692307696 
1.0 1:0.11538461538461539 2:0.038461538461538464 
1.0 1:0.20512820512820512 2:0.1794871794871795 
1.0 1:0.06382978723404255 
1.0 1:0.06896551724137931 2:0.06896551724137931 
1.0 1:0.06382978723404255 2:0.0425531914893617 
1.0 1:0.0958904109589041 2:0.0273972602739726 
1.0 1:0.1282051282051282 2:0.02564102564102564 
1.0 1:0.14545454545454545 2:0.09090909090909091 
1.0 1:0.07692307692307693 2:0.01098901098901099 
1.0 1:0.09876543209876543 2:0.024691358024691357 
1.0 1:0.0625 2:0.008928571428571428 
1.0 1:0.05405405405405406 2:0.04504504504504504 
1.0 1:0.08771929824561403 2:0.017543859649122806 
1.0 1:0.0684931506849315 2:0.0547945205479452 
1.0 1:0.0759493670886076 2:0.02531645569620253 
0.257209993269053 1:0.1111111111111111 2:0.037037037037037035 3:1.0 4:1.0 
1.0 1:0.04918032786885246 2:0.01639344262295082 3:1.0 4:1.0 
1.0 1:0.1232876712328767 2:0.1095890410958904 
1.0 1:0.07692307692307693 2:0.046153846153846156 
1.0 1:0.1951219512195122 2:0.10975609756097561 
1.0 1:0.18181818181818182 2:0.045454545454545456 
1.0 1:0.16129032258064516 2:0.06451612903225806 
1.0 1:0.10975609756097561 
1.0 1:0.21428571428571427 2:0.17857142857142858 
1.0 1:0.18181818181818182 2:0.12121212121212122 
1.0 1:0.09090909090909091 2:0.03636363636363636 
1.0 1:0.06451612903225806 
1.0 1:0.030303030303030304 2:0.015151515151515152 
1.0 1:0.09090909090909091 2:0.045454545454545456 
1.0 1:0.10112359550561797 2:0.033707865168539325 
1.0 1:0.02702702702702703 2:0.036036036036036036 
1.0 1:0.04032258064516129 2:0.04032258064516129 
1.0 1:0.12903225806451613 2:0.008064516129032258 
1.0 1:0.14285714285714285 2:0.023809523809523808 
1.0 1:0.1794871794871795 2:0.15384615384615385 
1.0 1:0.09859154929577464 2:0.04225352112676056 
1.0 1:0.0625 2:0.03125 
1.0 1:0.10256410256410256 2:0.02564102564102564 
1.0 1:0.09090909090909091 2:0.045454545454545456 
1.0 1:0.09375 2:0.0625 
1.0 1:0.030303030303030304 2:0.06060606060606061 3:1.0 4:1.0 
1.0 1:0.05714285714285714 2:0.04285714285714286 
1.0 1:0.02459016393442623 2:0.02459016393442623 
1.0 1:0.11764705882352941 2:0.058823529411764705 
1.0 1:0.13636363636363635 
1.0 1:0.09090909090909091 2:0.05454545454545454 
1.0 1:0.03669724770642202 2:0.009174311926605505 3:1.0 4:1.0 
1.0 1:0.12727272727272726 2:0.12727272727272726 
1.0 1:0.07894736842105263 2:0.07894736842105263 
1.0 1:0.03361344537815126 2:0.008403361344537815 3:1.0 4:1.0 
1.0 1:0.12121212121212122 2:0.1111111111111111 
1.0 1:0.14705882352941177 2:0.1323529411764706 
1.0 1:0.10526315789473684 2:0.07894736842105263 
1.0 1:0.08045977011494253 2:0.034482758620689655 
1.0 1:0.09210526315789473 2:0.05263157894736842 4:1.0 
1.0 1:0.07228915662650602 2:0.024096385542168676 
1.0 1:0.036585365853658534 2:0.012195121951219513 3:1.0 4:1.0 
1.0 1:0.05454545454545454 2:0.01818181818181818 3:1.0 4:1.0 
1.0 1:0.06557377049180328 2:0.03278688524590164 3:1.0 4:1.0 
1.0 1:0.09433962264150944 2:0.018867924528301886 
1.0 1:0.12871287128712872 2:0.07920792079207921 
1.0 1:0.07462686567164178 2:0.04477611940298507 
1.0 1:0.125 
1.0 1:0.05660377358490566 2:0.018867924528301886 
1.0 1:0.20833333333333334 2:0.16666666666666666 
1.0 1:0.1 2:0.08 
1.0 1:0.034482758620689655 2:0.034482758620689655 3:1.0 4:1.0 
1.0 1:0.012048192771084338 2:0.012048192771084338 3:1.0 4:1.0 
1.0 1:0.0963855421686747 2:0.08433734939759036 
1.0 1:0.22 2:0.14 
1.0 1:0.15 2:0.15 
1.0 1:0.02830188679245283 2:0.03773584905660377 
1.0 1:0.07017543859649122 2:0.03508771929824561 
1.0 1:0.04225352112676056 2:0.014084507042253521 3:1.0 4:1.0 
1.0 1:0.02857142857142857 2:0.009523809523809525 3:1.0 4:1.0 
1.0 1:0.06666666666666667 
1.0 1:0.06896551724137931 
1.0 2:0.034482758620689655 3:1.0 4:1.0 
1.0 1:0.11320754716981132 2:0.05660377358490566 
1.0 1:0.06172839506172839 2:0.037037037037037035 
1.0 2:0.045454545454545456 3:1.0 4:1.0 
1.0 1:0.14814814814814814 2:0.14814814814814814 
1.0 1:0.04878048780487805 2:0.07317073170731707 
1.0 1:0.06741573033707865 2:0.011235955056179775 3:1.0 4:1.0 
1.0 1:0.015789473684210527 2:0.005263157894736842 3:1.0 4:1.0 
1.0 1:0.06741573033707865 
1.0 1:0.043478260869565216 
1.0 1:0.021739130434782608 2:0.004347826086956522 3:1.0 4:1.0 
1.0 2:0.047619047619047616 3:1.0 4:1.0 
1.0 1:0.05970149253731343 2:0.05970149253731343 
1.0 1:0.05333333333333334 2:0.04 
1.0 1:0.02666666666666667 2:0.013333333333333334 3:1.0 4:1.0 
1.0 1:0.06666666666666667 2:0.02666666666666667 
1.0 1:0.05102040816326531 
1.0 1:0.012658227848101266 2:0.012658227848101266 3:1.0 4:1.0 
1.0 1:0.08 2:0.04 3:1.0 4:1.0 
1.0 1:0.17647058823529413 2:0.08823529411764706 
1.0 1:0.20833333333333334 2:0.125 
1.0 1:0.10869565217391304 2:0.043478260869565216 
1.0 1:0.04 2:0.04 
1.0 1:0.06666666666666667 2:0.03333333333333333 
1.0 1:0.06666666666666667 2:0.03333333333333333 3:1.0 4:1.0 
1.0 1:0.02857142857142857 2:0.02857142857142857 3:1.0 4:1.0 
1.0 1:0.08888888888888889 
1.0 1:0.05660377358490566 
1.0 1:0.08571428571428572 
1.0 1:0.14285714285714285 2:0.023809523809523808 
1.0 1:0.1875 
1.0 1:0.07547169811320754 2:0.07547169811320754 
1.0 1:0.11428571428571428 2:0.11428571428571428 
1.0 1:0.03205128205128205 2:0.019230769230769232 
1.0 1:0.09090909090909091 2:0.06818181818181818 
1.0 1:0.02564102564102564 2:0.019230769230769232 
1.0 1:0.03488372093023256 2:0.023255813953488372 
1.0 1:0.010752688172043012 2:0.010752688172043012 3:1.0 4:1.0 
1.0 1:0.015625 
1.0 1:0.09433962264150944 2:0.05660377358490566 
1.0 1:0.038461538461538464 2:0.019230769230769232 
1.0 1:0.09615384615384616 2:0.019230769230769232 3:1.0 4:1.0 
1.0 1:0.047619047619047616 2:0.047619047619047616 3:1.0 4:1.0 
1.0 1:0.10588235294117647 2:0.08235294117647059 
1.0 1:0.038461538461538464 2:0.038461538461538464 
1.0 2:0.03571428571428571 3:1.0 4:1.0 
1.0 1:0.05405405405405406 
1.0 1:0.07317073170731707 
1.0 1:0.06521739130434782 
1.0 1:0.04040404040404041 2:0.020202020202020204 3:1.0 4:1.0 
1.0 1:0.010869565217391304 
1.0 1:0.02962962962962963 2:0.02962962962962963 
1.0 1:0.13043478260869565 2:0.11956521739130435 
1.0 1:0.14893617021276595 2:0.1276595744680851 
1.0 1:0.21875 2:0.03125 
1.0 1:0.06666666666666667 
1.0 1:0.13821138211382114 2:0.13008130081300814 
1.0 1:0.11904761904761904 2:0.07142857142857142 
1.0 1:0.0851063829787234 2:0.0425531914893617 3:1.0 4:1.0 
1.0 1:0.09090909090909091 2:0.045454545454545456 4:1.0 
1.0 1:0.06 2:0.02 3:1.0 4:1.0 
1.0 1:0.016260162601626018 2:0.008130081300813009 3:1.0 4:1.0 
1.0 1:0.03409090909090909 2:0.03409090909090909 
1.0 1:0.09090909090909091 2:0.06818181818181818 
1.0 1:0.05128205128205128 2:0.02564102564102564 
1.0 1:0.0379746835443038 2:0.0379746835443038 
1.0 1:0.10204081632653061 2:0.08163265306122448 
1.0 1:0.1111111111111111 
1.0 1:0.06329113924050633 2:0.02531645569620253 
1.0 1:0.06818181818181818 2:0.022727272727272728 
1.0 1:0.10144927536231885 2:0.014492753623188406 
1.0 1:0.06060606060606061 2:0.030303030303030304 3:1.0 4:1.0 
1.0 1:0.09090909090909091 2:0.09090909090909091 
1.0 1:0.16 2:0.16 
1.0 1:0.1 2:0.05 
1.0 1:0.1875 2:0.0625 
1.0 1:0.07407407407407407 
1.0 1:0.08163265306122448 2:0.061224489795918366 
1.0 1:0.0547945205479452 2:0.0547945205479452 
1.0 1:0.1346153846153846 2:0.17307692307692307 
1.0 1:0.0273972602739726 2:0.0136986301369863 
1.0 1:0.15555555555555556 2:0.15555555555555556 
1.0 1:0.0784313725490196 2:0.058823529411764705 
1.0 1:0.18518518518518517 
1.0 1:0.0625 2:0.03125 3:1.0 4:1.0 
1.0 1:0.0967741935483871 
1.0 1:0.014285714285714285 
1.0 1:0.047619047619047616 
1.0 1:0.046511627906976744 2:0.046511627906976744 3:1.0 4:1.0 
1.0 1:0.023809523809523808 
1.0 1:0.04 2:0.06 3:1.0 4:1.0 
1.0 1:0.06976744186046512 
1.0 1:0.09523809523809523 
1.0 1:0.05319148936170213 2:0.0425531914893617 
1.0 1:0.06382978723404255 2:0.010638297872340425 3:1.0 4:1.0 
1.0 1:0.0425531914893617 
1.0 1:0.027777777777777776 
1.0 1:0.16666666666666666 2:0.16666666666666666 
1.0 1:0.10526315789473684 2:0.05263157894736842 
1.0 1:0.03225806451612903 
1.0 1:0.14285714285714285 2:0.07142857142857142 
1.0 1:0.0851063829787234 2:0.0851063829787234 
1.0 1:0.05660377358490566 2:0.05660377358490566 
1.0 1:0.1875 2:0.125 
1.0 1:0.1 2:0.025 
1.0 1:0.0967741935483871 2:0.03225806451612903 
1.0 1:0.06451612903225806 2:0.03225806451612903 3:1.0 4:1.0 
1.0 1:0.05 2:0.05 3:1.0 4:1.0 
1.0 1:0.047619047619047616 
1.0 1:0.06896551724137931 2:0.034482758620689655 3:1.0 4:1.0 
1.0 2:0.05 3:1.0 4:1.0 
1.0 1:0.09090909090909091 2:0.045454545454545456 3:1.0 4:1.0 
1.0 1:0.015151515151515152 2:0.015151515151515152 3:1.0 4:1.0 
1.0 1:0.075 2:0.025 
1.0 1:0.046511627906976744 2:0.023255813953488372 
1.0 1:0.07874015748031496 2:0.015748031496062992 3:1.0 4:1.0 
1.0 1:0.078125 2:0.020833333333333332 3:1.0 4:1.0 
1.0 1:0.07079646017699115 2:0.04424778761061947 3:1.0 4:1.0 
1.0 1:0.036458333333333336 
1.0 1:0.02654867256637168 
1.0 1:0.03125 2:0.005208333333333333 3:1.0 4:1.0 
1.0 1:0.040983606557377046 2:0.00819672131147541 3:1.0 4:1.0 
1.0 1:0.04938271604938271 2:0.024691358024691357 3:1.0 4:1.0 
1.0 1:0.009523809523809525 2:0.01904761904761905 3:1.0 4:1.0 
1.0 1:0.02857142857142857 
1.0 1:0.02608695652173913 
1.0 1:0.04938271604938271 2:0.012345679012345678 3:1.0 4:1.0 
1.0 1:0.015037593984962405 2:0.007518796992481203 3:1.0 4:1.0 
1.0 1:0.07142857142857142 2:0.07142857142857142 3:1.0 4:1.0 
1.0 1:0.14285714285714285 
1.0 1:0.10810810810810811 
1.0 1:0.09259259259259259 
1.0 1:0.03508771929824561 
1.0 2:0.02631578947368421 3:1.0 4:1.0 
1.0 1:0.0410958904109589 2:0.0273972602739726 3:1.0 4:1.0 
1.0 1:0.010526315789473684 2:0.021052631578947368 
1.0 1:0.027777777777777776 2:0.018518518518518517 3:1.0 4:1.0 
1.0 1:0.07894736842105263 
1.0 1:0.07462686567164178 2:0.014925373134328358 
1.0 1:0.07058823529411765 2:0.011764705882352941 
1.0 1:0.058823529411764705 2:0.0196078431372549 
1.0 1:0.06521739130434782 2:0.06521739130434782 
1.0 1:0.047619047619047616 2:0.03571428571428571 
1.0 1:0.11764705882352941 2:0.058823529411764705 
1.0 1:0.05 2:0.025 
1.0 1:0.11538461538461539 2:0.019230769230769232 3:1.0 4:1.0 
1.0 1:0.09230769230769231 2:0.046153846153846156 4:1.0 
1.0 1:0.06578947368421052 2:0.013157894736842105 
1.0 1:0.1568627450980392 2:0.0392156862745098 
1.0 1:0.09210526315789473 2:0.06578947368421052 3:1.0 4:1.0 
1.0 1:0.07894736842105263 2:0.06578947368421052 3:1.0 4:1.0 
1.0 1:0.08 2:0.06666666666666667 
1.0 1:0.08333333333333333 2:0.041666666666666664 3:1.0 4:1.0 
1.0 1:0.02459016393442623 2:0.00819672131147541 
1.0 1:0.03225806451612903 2:0.06451612903225806 3:1.0 4:1.0 
1.0 1:0.07692307692307693 
1.0 1:0.03508771929824561 2:0.017543859649122806 3:1.0 4:1.0 
1.0 1:0.08888888888888889 2:0.08888888888888889 
1.0 1:0.03636363636363636 2:0.05454545454545454 
1.0 1:0.057692307692307696 2:0.019230769230769232 
1.0 1:0.03896103896103896 2:0.012987012987012988 
1.0 1:0.13846153846153847 2:0.09230769230769231 
1.0 1:0.14285714285714285 2:0.02857142857142857 
1.0 1:0.075 2:0.025 
1.0 1:0.08860759493670886 2:0.0379746835443038 
1.0 1:0.11320754716981132 2:0.11320754716981132 
1.0 1:0.16666666666666666 2:0.027777777777777776 
1.0 1:0.08974358974358974 
1.0 1:0.05714285714285714 
1.0 1:0.07462686567164178 2:0.07462686567164178 
1.0 1:0.06976744186046512 2:0.06976744186046512 
1.0 1:0.14285714285714285 2:0.12857142857142856 
1.0 1:0.1346153846153846 2:0.09615384615384616 
1.0 1:0.028985507246376812 2:0.028985507246376812 
1.0 1:0.05454545454545454 2:0.01818181818181818 
1.0 1:0.04430379746835443 2:0.012658227848101266 3:1.0 4:1.0 
1.0 1:0.1015625 2:0.1015625 
1.0 1:0.05504587155963303 2:0.04892966360856269 
1.0 1:0.04395604395604396 2:0.01098901098901099 
1.0 1:0.10526315789473684 2:0.013157894736842105 
1.0 1:0.07692307692307693 
1.0 1:0.05405405405405406 2:0.02702702702702703 
1.0 1:0.1111111111111111 2:0.08888888888888889 
1.0 1:0.06153846153846154 2:0.015384615384615385 
1.0 1:0.16923076923076924 2:0.16923076923076924 
1.0 1:0.17777777777777778 2:0.06666666666666667 
1.0 1:0.21153846153846154 
1.0 1:0.13333333333333333 2:0.022222222222222223 
1.0 1:0.06578947368421052 2:0.02631578947368421 3:1.0 4:1.0 
1.0 1:0.15555555555555556 
1.0 1:0.05 2:0.016666666666666666 3:1.0 4:1.0 
1.0 1:0.04597701149425287 2:0.034482758620689655 3:1.0 4:1.0 
1.0 1:0.041666666666666664 2:0.020833333333333332 3:1.0 4:1.0 
1.0 1:0.02197802197802198 2:0.01098901098901099 3:1.0 4:1.0 
1.0 1:0.08333333333333333 
1.0 1:0.06976744186046512 
1.0 1:0.06153846153846154 2:0.015384615384615385 3:1.0 4:1.0 
1.0 1:0.046875 2:0.015625 3:1.0 4:1.0 
1.0 1:0.11666666666666667 
1.0 1:0.09230769230769231 
1.0 1:0.05128205128205128 2:0.02564102564102564 3:1.0 4:1.0 
1.0 1:0.05454545454545454 2:0.01818181818181818 3:1.0 4:1.0 
1.0 1:0.16 2:0.12 
1.0 1:0.09876543209876543 2:0.09876543209876543 
1.0 1:0.09876543209876543 2:0.04938271604938271 4:1.0 
1.0 1:0.13333333333333333 2:0.05 
1.0 1:0.04 2:0.04 
1.0 1:0.09302325581395349 2:0.023255813953488372 3:1.0 4:1.0 
1.0 1:0.058823529411764705 2:0.058823529411764705 3:1.0 4:1.0 
1.0 1:0.08695652173913043 2:0.13043478260869565 
1.0 1:0.061224489795918366 2:0.04081632653061224 
1.0 1:0.13793103448275862 2:0.08620689655172414 
1.0 1:0.078125 2:0.046875 
1.0 1:0.125 2:0.03125 
1.0 1:0.0851063829787234 2:0.06382978723404255 4:1.0 
1.0 1:0.08928571428571429 2:0.07142857142857142 3:1.0 4:1.0 
1.0 1:0.08860759493670886 2:0.02531645569620253 4:1.0 
1.0 1:0.0625 2:0.020833333333333332 3:1.0 4:1.0 
1.0 1:0.13636363636363635 2:0.06818181818181818 
1.0 1:0.13333333333333333 2:0.1111111111111111 
1.0 1:0.15151515151515152 2:0.030303030303030304 
1.0 1:0.11627906976744186 2:0.06976744186046512 
1.0 1:0.06451612903225806 2:0.03225806451612903 
1.0 1:0.043478260869565216 2:0.043478260869565216 
1.0 1:0.08196721311475409 2:0.03278688524590164 
1.0 1:0.047619047619047616 2:0.015873015873015872 
1.0 1:0.06896551724137931 2:0.06896551724137931 
1.0 1:0.06349206349206349 2:0.015873015873015872 
1.0 1:0.06097560975609756 2:0.04878048780487805 
1.0 1:0.11627906976744186 2:0.023255813953488372 
1.0 1:0.05194805194805195 2:0.012987012987012988 
1.0 1:0.10714285714285714 
1.0 1:0.05194805194805195 2:0.03896103896103896 
1.0 1:0.0847457627118644 2:0.05084745762711865 
1.0 1:0.2 2:0.2 
1.0 1:0.14285714285714285 
1.0 1:0.14285714285714285 2:0.14285714285714285 
1.0 1:0.10714285714285714 
1.0 1:0.05660377358490566 2:0.018867924528301886 
1.0 1:0.2 2:0.2 
1.0 1:0.10204081632653061 2:0.08163265306122448 
1.0 1:0.05714285714285714 2:0.04285714285714286 
1.0 1:0.08695652173913043 2:0.08695652173913043 
1.0 1:0.12 2:0.10666666666666667 
1.0 1:0.06976744186046512 
1.0 1:0.15555555555555556 2:0.13333333333333333 
1.0 1:0.0641025641025641 2:0.05128205128205128 
1.0 1:0.11578947368421053 2:0.07368421052631578 
1.0 2:0.018867924528301886 3:1.0 4:1.0 
1.0 1:0.07692307692307693 2:0.038461538461538464 
1.0 1:0.07368421052631578 2:0.031578947368421054 
1.0 1:0.10256410256410256 2:0.02564102564102564 
1.0 1:0.12903225806451613 2:0.0967741935483871 
1.0 1:0.10526315789473684 2:0.15789473684210525 
1.0 1:0.1111111111111111 2:0.1111111111111111 
1.0 1:0.14285714285714285 2:0.14285714285714285 
1.0 1:0.030303030303030304 2:0.030303030303030304 3:1.0 4:1.0 
1.0 1:0.056074766355140186 2:0.009345794392523364 3:1.0 4:1.0 
1.0 1:0.06451612903225806 
1.0 1:0.04 2:0.04 3:1.0 4:1.0 
1.0 1:0.045454545454545456 2:0.022727272727272728 
1.0 1:0.043010752688172046 2:0.03225806451612903 
1.0 1:0.046511627906976744 2:0.023255813953488372 3:1.0 4:1.0 
1.0 1:0.058823529411764705 2:0.03529411764705882 
1.0 1:0.033707865168539325 2:0.02247191011235955 
1.0 1:0.1276595744680851 2:0.06382978723404255 
1.0 1:0.15 2:0.125 
1.0 1:0.0641025641025641 
1.0 1:0.08974358974358974 2:0.0641025641025641 
1.0 1:0.125 2:0.1 
1.0 1:0.07142857142857142 2:0.011904761904761904 
1.0 1:0.07142857142857142 2:0.07142857142857142 4:1.0 
1.0 1:0.045454545454545456 2:0.022727272727272728 
1.0 1:0.043478260869565216 2:0.028985507246376812 3:1.0 4:1.0 
1.0 1:0.04 2:0.016 4:1.0 
1.0 1:0.039473684210526314 2:0.013157894736842105 3:1.0 4:1.0 
1.0 1:0.07462686567164178 2:0.014925373134328358 3:1.0 4:1.0 
1.0 1:0.047619047619047616 2:0.023809523809523808 
1.0 1:0.07547169811320754 2:0.07547169811320754 
1.0 1:0.02702702702702703 2:0.02702702702702703 3:1.0 4:1.0 
1.0 1:0.05357142857142857 2:0.017857142857142856 3:1.0 4:1.0 
1.0 1:0.1891891891891892 2:0.02702702702702703 
1.0 1:0.08695652173913043 2:0.07246376811594203 
1.0 1:0.048484848484848485 2:0.006060606060606061 
1.0 1:0.058823529411764705 2:0.0196078431372549 
1.0 1:0.1 2:0.014285714285714285 3:1.0 4:1.0 
1.0 1:0.11904761904761904 
1.0 1:0.03636363636363636 2:0.006060606060606061 3:1.0 4:1.0 
1.0 1:0.012658227848101266 2:0.012658227848101266 3:1.0 4:1.0 
1.0 1:0.08974358974358974 2:0.01282051282051282 3:1.0 4:1.0 
1.0 1:0.1702127659574468 2:0.1702127659574468 
1.0 1:0.14583333333333334 2:0.125 
1.0 1:0.0759493670886076 2:0.012658227848101266 
1.0 1:0.025974025974025976 2:0.05194805194805195 
1.0 1:0.02564102564102564 2:0.0641025641025641 
1.0 1:0.0784313725490196 
1.0 1:0.058823529411764705 
1.0 1:0.03389830508474576 
1.0 1:0.08849557522123894 
1.0 1:0.11504424778761062 2:0.008849557522123894 
1.0 1:0.06666666666666667 
1.0 1:0.03488372093023256 2:0.011627906976744186 3:1.0 4:1.0 
1.0 1:0.0380952380952381 
1.0 1:0.037037037037037035 2:0.012345679012345678 3:1.0 4:1.0 
1.0 1:0.02834008097165992 2:0.016194331983805668 
1.0 1:0.043478260869565216 2:0.021739130434782608 
1.0 1:0.05045871559633028 2:0.0045871559633027525 
1.0 1:0.037037037037037035 2:0.037037037037037035 
1.0 1:0.05128205128205128 2:0.038461538461538464 
1.0 1:0.05128205128205128 2:0.038461538461538464 4:1.0 
1.0 1:0.08235294117647059 2:0.011764705882352941 
1.0 1:0.06593406593406594 2:0.04395604395604396 
1.0 1:0.10204081632653061 2:0.02040816326530612 
1.0 1:0.20967741935483872 2:0.1774193548387097 
1.0 1:0.16216216216216217 2:0.05405405405405406 
1.0 1:0.05454545454545454 2:0.03636363636363636 
1.0 1:0.08108108108108109 2:0.05405405405405406 
1.0 1:0.15254237288135594 2:0.11864406779661017 
1.0 1:0.058823529411764705 2:0.029411764705882353 
1.0 1:0.0273972602739726 2:0.0136986301369863 
1.0 2:0.02631578947368421 3:1.0 4:1.0 
1.0 1:0.022727272727272728 
1.0 1:0.0684931506849315 2:0.0410958904109589 
1.0 1:0.10909090909090909 2:0.03636363636363636 
1.0 1:0.0759493670886076 2:0.012658227848101266 3:1.0 4:1.0 
1.0 1:0.0410958904109589 2:0.0273972602739726 
1.0 1:0.0641025641025641 2:0.05128205128205128 
1.0 1:0.08571428571428572 2:0.014285714285714285 3:1.0 4:1.0 
1.0 1:0.06451612903225806 2:0.043010752688172046 
1.0 1:0.0684931506849315 2:0.0136986301369863 
1.0 1:0.07964601769911504 2:0.017699115044247787 
1.0 1:0.06976744186046512 2:0.06976744186046512 
1.0 1:0.08333333333333333 2:0.125 
1.0 1:0.037037037037037035 2:0.037037037037037035 
1.0 1:0.05925925925925926 2:0.044444444444444446 
1.0 1:0.06382978723404255 2:0.031914893617021274 
1.0 1:0.04 
1.0 1:0.06349206349206349 2:0.047619047619047616 
1.0 1:0.09333333333333334 2:0.09333333333333334 
1.0 1:0.06349206349206349 2:0.06349206349206349 
1.0 1:0.125 
1.0 1:0.05172413793103448 2:0.05172413793103448 
1.0 1:0.07142857142857142 2:0.05714285714285714 3:1.0 4:1.0 
1.0 1:0.07272727272727272 2:0.05454545454545454 3:1.0 4:1.0 
1.0 1:0.038461538461538464 2:0.07692307692307693 3:1.0 4:1.0 
1.0 1:0.045454545454545456 2:0.01818181818181818 
1.0 1:0.020833333333333332 
1.0 1:0.0684931506849315 2:0.0273972602739726 
1.0 1:0.09375 2:0.03125 
1.0 1:0.05555555555555555 2:0.013888888888888888 3:1.0 4:1.0 
1.0 1:0.045454545454545456 2:0.045454545454545456 3:1.0 4:1.0 
1.0 1:0.042105263157894736 2:0.021052631578947368 3:1.0 4:1.0 
1.0 1:0.05555555555555555 2:0.018518518518518517 3:1.0 4:1.0 
1.0 1:0.0449438202247191 2:0.011235955056179775 3:1.0 4:1.0 
1.0 1:0.046153846153846156 2:0.015384615384615385 3:1.0 4:1.0 
1.0 2:0.04 3:1.0 4:1.0 
1.0 1:0.1 2:0.05 3:1.0 4:1.0 
1.0 1:0.07317073170731707 2:0.024390243902439025 3:1.0 4:1.0 
1.0 1:0.02702702702702703 2:0.02702702702702703 3:1.0 4:1.0 
1.0 1:0.06896551724137931 2:0.034482758620689655 3:1.0 4:1.0 
1.0 1:0.03333333333333333 2:0.03333333333333333 3:1.0 4:1.0 
1.0 1:0.05405405405405406 
1.0 1:0.0625 2:0.0625 3:1.0 4:1.0 
1.0 1:0.032467532467532464 2:0.032467532467532464 
1.0 1:0.0625 2:0.0625 
1.0 1:0.045454545454545456 2:0.01948051948051948 
1.0 1:0.07865168539325842 2:0.033707865168539325 
1.0 1:0.018867924528301886 2:0.03773584905660377 3:1.0 4:1.0 
1.0 1:0.08955223880597014 2:0.08955223880597014 
1.0 1:0.047619047619047616 2:0.047619047619047616 3:1.0 4:1.0 
1.0 1:0.07042253521126761 2:0.056338028169014086 
1.0 1:0.06060606060606061 2:0.045454545454545456 
1.0 1:0.04 
1.0 1:0.015151515151515152 
1.0 1:0.06 2:0.02 3:1.0 4:1.0 
1.0 1:0.05263157894736842 2:0.02631578947368421 3:1.0 4:1.0 
1.0 1:0.05 2:0.016666666666666666 
1.0 1:0.13793103448275862 2:0.034482758620689655 
1.0 1:0.03571428571428571 2:0.03571428571428571 4:1.0 
1.0 1:0.038461538461538464 2:0.019230769230769232 3:1.0 4:1.0 
1.0 1:0.023255813953488372 2:0.011627906976744186 3:1.0 4:1.0 
1.0 1:0.15789473684210525 
1.0 1:0.11428571428571428 
1.0 1:0.05 
1.0 2:0.1 3:1.0 4:1.0 
1.0 1:0.18181818181818182 
1.0 1:0.07692307692307693 2:0.038461538461538464 3:1.0 4:1.0 
1.0 1:0.02857142857142857 2:0.05714285714285714 4:1.0 
1.0 1:0.09166666666666666 2:0.09166666666666666 
1.0 1:0.1276595744680851 2:0.1276595744680851 
1.0 1:0.06666666666666667 2:0.058333333333333334 3:1.0 4:1.0 
1.0 1:0.14166666666666666 2:0.041666666666666664 
1.0 1:0.10638297872340426 2:0.0425531914893617 
1.0 1:0.19444444444444445 2:0.05555555555555555 
1.0 1:0.045454545454545456 2:0.022727272727272728 3:1.0 4:1.0 
1.0 1:0.16666666666666666 2:0.1111111111111111 
1.0 1:0.20689655172413793 2:0.1724137931034483 
1.0 1:0.06976744186046512 2:0.046511627906976744 
1.0 1:0.09230769230769231 2:0.015384615384615385 
1.0 1:0.09836065573770492 2:0.01639344262295082 3:1.0 4:1.0 
1.0 1:0.06557377049180328 2:0.01639344262295082 3:1.0 4:1.0 
1.0 1:0.0625 2:0.020833333333333332 
1.0 1:0.06451612903225806 2:0.03225806451612903 3:1.0 4:1.0 
1.0 1:0.2054794520547945 2:0.1232876712328767 
1.0 1:0.05660377358490566 2:0.018867924528301886 
1.0 1:0.15384615384615385 2:0.07692307692307693 
1.0 1:0.0847457627118644 2:0.05084745762711865 
1.0 1:0.13846153846153847 2:0.13846153846153847 
1.0 1:0.13559322033898305 2:0.11864406779661017 
1.0 1:0.019230769230769232 2:0.038461538461538464 3:1.0 4:1.0 
1.0 1:0.037037037037037035 2:0.07407407407407407 3:1.0 4:1.0 
1.0 1:0.0660377358490566 2:0.04716981132075472 
1.0 1:0.037383177570093455 2:0.028037383177570093 
1.0 1:0.03773584905660377 2:0.02830188679245283 4:1.0 
1.0 1:0.009950248756218905 2:0.009950248756218905 
1.0 1:0.047619047619047616 2:0.023809523809523808 3:1.0 4:1.0 
1.0 1:0.07692307692307693 2:0.019230769230769232 3:1.0 4:1.0 
1.0 1:0.06756756756756757 2:0.013513513513513514 3:1.0 4:1.0 
1.0 1:0.08823529411764706 2:0.029411764705882353 3:1.0 4:1.0 
1.0 2:0.05263157894736842 3:1.0 4:1.0 
1.0 1:0.07407407407407407 2:0.037037037037037035 3:1.0 4:1.0 
1.0 1:0.04424778761061947 2:0.017699115044247787 3:1.0 4:1.0 
1.0 1:0.035398230088495575 2:0.017699115044247787 3:1.0 4:1.0 
1.0 1:0.041666666666666664 2:0.03333333333333333 
1.0 1:0.061946902654867256 2:0.061946902654867256 
1.0 1:0.018518518518518517 2:0.018518518518518517 3:1.0 4:1.0 
1.0 1:0.0684931506849315 2:0.0410958904109589 3:1.0 4:1.0 
1.0 1:0.04597701149425287 2:0.011494252873563218 3:1.0 4:1.0 
1.0 1:0.0979020979020979 2:0.04195804195804196 3:1.0 4:1.0 
1.0 1:0.040229885057471264 2:0.017241379310344827 
1.0 1:0.1038961038961039 
1.0 1:0.027972027972027972 2:0.04195804195804196 
1.0 1:0.03571428571428571 2:0.011904761904761904 3:1.0 4:1.0 
1.0 2:0.1 3:1.0 4:1.0 
1.0 1:0.07142857142857142 2:0.023809523809523808 
1.0 1:0.08695652173913043 2:0.021739130434782608 
1.0 1:0.1724137931034483 2:0.1724137931034483 
1.0 1:0.10344827586206896 2:0.034482758620689655 3:1.0 4:1.0 
1.0 1:0.08 2:0.02 3:1.0 4:1.0 
1.0 1:0.09375 2:0.015625 3:1.0 4:1.0 
1.0 1:0.03278688524590164 2:0.00819672131147541 3:1.0 4:1.0 
1.0 1:0.06741573033707865 2:0.011235955056179775 
1.0 1:0.0851063829787234 2:0.02127659574468085 
1.0 1:0.07547169811320754 
1.0 1:0.08333333333333333 
1.0 1:0.13157894736842105 2:0.02631578947368421 
1.0 1:0.08888888888888889 
1.0 1:0.08333333333333333 
1.0 1:0.022222222222222223 2:0.022222222222222223 
1.0 1:0.05263157894736842 2:0.07894736842105263 
1.0 1:0.14634146341463414 2:0.07317073170731707 
1.0 1:0.024390243902439025 2:0.024390243902439025 3:1.0 4:1.0 
1.0 1:0.18181818181818182 2:0.045454545454545456 
1.0 1:0.14634146341463414 2:0.14634146341463414 
1.0 1:0.06976744186046512 2:0.046511627906976744 
1.0 1:0.12162162162162163 2:0.12162162162162163 
1.0 1:0.025806451612903226 2:0.012903225806451613 
1.0 1:0.02666666666666667 2:0.013333333333333334 
1.0 2:0.0136986301369863 3:1.0 4:1.0 
1.0 1:0.010526315789473684 2:0.010526315789473684 
1.0 1:0.1 2:0.03333333333333333 3:1.0 4:1.0 
1.0 1:0.04477611940298507 
1.0 1:0.17647058823529413 2:0.11764705882352941 
1.0 1:0.1643835616438356 2:0.136986301369863 
1.0 1:0.07246376811594203 2:0.028985507246376812 
1.0 1:0.1509433962264151 2:0.07547169811320754 
1.0 1:0.11267605633802817 2:0.08450704225352113 
1.0 1:0.10144927536231885 2:0.07246376811594203 
1.0 1:0.0625 2:0.03125 3:1.0 4:1.0 
1.0 1:0.1 2:0.05 3:1.0 4:1.0 
1.0 1:0.09375 2:0.0625 
1.0 1:0.06976744186046512 2:0.046511627906976744 
1.0 1:0.07142857142857142 2:0.05357142857142857 3:1.0 4:1.0 
1.0 1:0.04395604395604396 2:0.02197802197802198 3:1.0 4:1.0 
1.0 2:0.01098901098901099 3:1.0 4:1.0 
1.0 1:0.007407407407407408 
1.0 1:0.014814814814814815 2:0.007407407407407408 3:1.0 4:1.0 
1.0 1:0.02857142857142857 2:0.014285714285714285 3:1.0 4:1.0 
1.0 2:0.01098901098901099 3:1.0 4:1.0 
1.0 1:0.02962962962962963 
1.0 1:0.15384615384615385 2:0.07692307692307693 
1.0 1:0.03333333333333333 2:0.03333333333333333 
1.0 1:0.07272727272727272 2:0.05454545454545454 
1.0 1:0.024096385542168676 2:0.012048192771084338 3:1.0 4:1.0 
1.0 1:0.034782608695652174 
1.0 1:0.02608695652173913 2:0.008695652173913044 3:1.0 4:1.0 
1.0 1:0.045454545454545456 
1.0 1:0.041666666666666664 
1.0 1:0.08333333333333333 2:0.041666666666666664 3:1.0 4:1.0 
1.0 1:0.07462686567164178 2:0.05970149253731343 
1.0 1:0.044444444444444446 2:0.03333333333333333 
1.0 1:0.05172413793103448 2:0.034482758620689655 
1.0 1:0.06060606060606061 2:0.020202020202020204 
1.0 1:0.05333333333333334 2:0.013333333333333334 3:1.0 4:1.0 
1.0 1:0.050505050505050504 
1.0 1:0.11450381679389313 2:0.007633587786259542 
1.0 1:0.09782608695652174 
1.0 1:0.10666666666666667 
1.0 2:0.022727272727272728 3:1.0 4:1.0 
1.0 1:0.045454545454545456 2:0.022727272727272728 3:1.0 4:1.0 
1.0 1:0.05405405405405406 
1.0 1:0.07142857142857142 2:0.023809523809523808 3:1.0 4:1.0 
1.0 1:0.11666666666666667 2:0.016666666666666666 
1.0 1:0.11363636363636363 2:0.022727272727272728 
1.0 1:0.0594059405940594 2:0.04950495049504951 3:1.0 4:1.0 
1.0 1:0.0684931506849315 2:0.0136986301369863 
1.0 1:0.11578947368421053 
1.0 1:0.0594059405940594 2:0.009900990099009901 
1.0 1:0.07692307692307693 2:0.0641025641025641 3:1.0 4:1.0 
1.0 1:0.019801980198019802 2:0.019801980198019802 
1.0 1:0.08695652173913043 2:0.043478260869565216 
1.0 1:0.08045977011494253 2:0.022988505747126436 
1.0 1:0.07 2:0.02 3:1.0 4:1.0 
1.0 1:0.019417475728155338 2:0.019417475728155338 3:1.0 4:1.0 
1.0 1:0.09278350515463918 2:0.020618556701030927 
1.0 1:0.07766990291262135 
1.0 1:0.125 2:0.041666666666666664 
1.0 1:0.1111111111111111 2:0.06944444444444445 
1.0 1:0.09090909090909091 2:0.01818181818181818 3:1.0 4:1.0 
1.0 1:0.038461538461538464 2:0.02564102564102564 
1.0 1:0.033707865168539325 2:0.011235955056179775 
1.0 1:0.0641025641025641 
1.0 1:0.12195121951219512 2:0.10975609756097561 
1.0 1:0.0851063829787234 2:0.05319148936170213 
1.0 1:0.07894736842105263 2:0.039473684210526314 
1.0 1:0.06382978723404255 2:0.031914893617021274 
1.0 1:0.09210526315789473 2:0.039473684210526314 
1.0 1:0.016666666666666666 
1.0 1:0.0625 2:0.025 
1.0 1:0.0684931506849315 
1.0 1:0.11290322580645161 2:0.03225806451612903 
1.0 1:0.05 2:0.025 
1.0 1:0.0625 
1.0 1:0.0425531914893617 
1.0 1:0.06451612903225806 2:0.016129032258064516 
1.0 1:0.05555555555555555 2:0.05555555555555555 3:1.0 4:1.0 
1.0 1:0.05 
1.0 1:0.034482758620689655 2:0.034482758620689655 3:1.0 4:1.0 
1.0 1:0.13793103448275862 2:0.13793103448275862 
1.0 1:0.14285714285714285 2:0.14285714285714285 
1.0 1:0.020202020202020204 2:0.010101010101010102 3:1.0 4:1.0 
1.0 1:0.08163265306122448 
1.0 1:0.012987012987012988 
1.0 1:0.12307692307692308 2:0.03076923076923077 
1.0 1:0.11688311688311688 
1.0 1:0.016666666666666666 2:0.016666666666666666 3:1.0 4:1.0 
1.0 1:0.04 2:0.04 3:1.0 4:1.0 
1.0 1:0.20588235294117646 2:0.08823529411764706 
1.0 1:0.125 2:0.05 
1.0 1:0.05 2:0.025 3:1.0 4:1.0 
1.0 1:0.07777777777777778 2:0.044444444444444446 3:1.0 4:1.0 
1.0 1:0.1 
1.0 1:0.07865168539325842 2:0.02247191011235955 
1.0 1:0.11764705882352941 
1.0 2:0.047619047619047616 3:1.0 4:1.0 
1.0 1:0.05504587155963303 2:0.009174311926605505 3:1.0 4:1.0 
1.0 1:0.07865168539325842 2:0.011235955056179775 
1.0 1:0.08108108108108109 2:0.04054054054054054 
1.0 1:0.08333333333333333 2:0.041666666666666664 
1.0 1:0.12307692307692308 2:0.046153846153846156 
1.0 1:0.03125 
1.0 1:0.13095238095238096 2:0.15476190476190477 
1.0 1:0.05952380952380952 2:0.05952380952380952 
1.0 1:0.11320754716981132 
1.0 1:0.09523809523809523 2:0.08333333333333333 
1.0 1:0.10344827586206896 2:0.06896551724137931 
1.0 1:0.011904761904761904 2:0.011904761904761904 3:1.0 4:1.0 
1.0 1:0.0975609756097561 2:0.024390243902439025 3:1.0 4:1.0 
1.0 1:0.1 2:0.025 3:1.0 4:1.0 
1.0 1:0.175 
1.0 1:0.0975609756097561 
1.0 1:0.09302325581395349 2:0.023255813953488372 3:1.0 4:1.0 
1.0 1:0.07692307692307693 2:0.02564102564102564 3:1.0 4:1.0 
1.0 1:0.16666666666666666 
1.0 1:0.046875 2:0.0234375 
1.0 1:0.12244897959183673 2:0.02040816326530612 
1.0 1:0.0625 2:0.020833333333333332 3:1.0 4:1.0 
1.0 1:0.09375 2:0.0234375 
1.0 1:0.08333333333333333 
1.0 1:0.08888888888888889 2:0.044444444444444446 3:1.0 4:1.0 
1.0 1:0.12 2:0.12 
1.0 1:0.05 2:0.05 
1.0 1:0.11475409836065574 2:0.06557377049180328 
1.0 1:0.07936507936507936 2:0.047619047619047616 
1.0 1:0.08 2:0.03 
1.0 1:0.08333333333333333 2:0.08333333333333333 
1.0 1:0.05 2:0.0625 
1.0 1:0.10810810810810811 2:0.02702702702702703 
1.0 1:0.030303030303030304 2:0.030303030303030304 
1.0 1:0.034482758620689655 2:0.06896551724137931 4:1.0 
1.0 1:0.07575757575757576 2:0.015151515151515152 3:1.0 4:1.0 
1.0 1:0.08620689655172414 2:0.034482758620689655 3:1.0 4:1.0 
1.0 1:0.05172413793103448 
1.0 1:0.16363636363636364 2:0.12727272727272726 
1.0 1:0.15151515151515152 2:0.09090909090909091 
1.0 2:0.058823529411764705 3:1.0 4:1.0 
1.0 1:0.02040816326530612 
1.0 1:0.13043478260869565 2:0.043478260869565216 
1.0 1:0.1875 
1.0 1:0.08771929824561403 
1.0 1:0.04838709677419355 2:0.03225806451612903 
1.0 1:0.1111111111111111 2:0.09259259259259259 
1.0 1:0.1388888888888889 2:0.05555555555555555 
1.0 1:0.15384615384615385 2:0.07692307692307693 
1.0 1:0.07936507936507936 2:0.06349206349206349 
1.0 1:0.14285714285714285 2:0.14285714285714285 
1.0 1:0.09523809523809523 2:0.06349206349206349 
1.0 1:0.11363636363636363 2:0.06818181818181818 
1.0 1:0.15555555555555556 2:0.08888888888888889 
1.0 1:0.12037037037037036 2:0.046296296296296294 
1.0 1:0.013333333333333334 2:0.013333333333333334 3:1.0 4:1.0 
1.0 1:0.07407407407407407 2:0.046296296296296294 3:1.0 4:1.0 
1.0 1:0.12 2:0.02 
1.0 1:0.02666666666666667 2:0.04 3:1.0 4:1.0 
1.0 1:0.07317073170731707 2:0.07317073170731707 
1.0 1:0.15476190476190477 2:0.13095238095238096 
1.0 1:0.11538461538461539 
1.0 1:0.05555555555555555 
1.0 1:0.1388888888888889 2:0.1388888888888889 
1.0 1:0.12871287128712872 2:0.1188118811881188 
1.0 1:0.06818181818181818 2:0.06060606060606061 
1.0 1:0.06930693069306931 2:0.06930693069306931 3:1.0 4:1.0 
1.0 1:0.10416666666666667 2:0.03125 
1.0 1:0.12777777777777777 2:0.07777777777777778 
1.0 1:0.10416666666666667 2:0.09375 
1.0 1:0.046153846153846156 2:0.03076923076923077 3:1.0 4:1.0 
1.0 1:0.07692307692307693 2:0.03076923076923077 3:1.0 4:1.0 
1.0 1:0.047058823529411764 2:0.011764705882352941 
1.0 2:0.16666666666666666 3:1.0 4:1.0 
1.0 1:0.08823529411764706 2:0.029411764705882353 3:1.0 4:1.0 
1.0 1:0.046153846153846156 2:0.03076923076923077 3:1.0 4:1.0 
1.0 1:0.06666666666666667 
1.0 1:0.05 2:0.0125 
1.0 1:0.11764705882352941 
1.0 1:0.1 
1.0 1:0.08333333333333333 
1.0 1:0.06666666666666667 
1.0 1:0.09375 
1.0 1:0.06060606060606061 2:0.030303030303030304 
1.0 1:0.03418803418803419 2:0.03418803418803419 
1.0 1:0.03636363636363636 2:0.03636363636363636 
1.0 1:0.043478260869565216 2:0.043478260869565216 
1.0 1:0.06060606060606061 2:0.030303030303030304 
1.0 1:0.16216216216216217 2:0.09009009009009009 
1.0 1:0.13513513513513514 2:0.0945945945945946 
1.0 1:0.21875 2:0.09375 
1.0 1:0.1111111111111111 2:0.047619047619047616 
1.0 1:0.16666666666666666 2:0.03333333333333333 
1.0 1:0.11392405063291139 2:0.0379746835443038 
1.0 1:0.2 2:0.03333333333333333 
1.0 1:0.11764705882352941 2:0.029411764705882353 
1.0 1:0.20754716981132076 2:0.18867924528301888 
1.0 1:0.13432835820895522 2:0.11940298507462686 
1.0 1:0.1891891891891892 2:0.16216216216216217 
1.0 1:0.2 2:0.16363636363636364 
1.0 1:0.2222222222222222 2:0.16666666666666666 
1.0 1:0.12727272727272726 2:0.09090909090909091 
1.0 1:0.1 2:0.02 
1.0 1:0.06451612903225806 2:0.024193548387096774 
1.0 1:0.1038961038961039 2:0.06493506493506493 
1.0 1:0.06349206349206349 2:0.06349206349206349 
1.0 1:0.12698412698412698 2:0.015873015873015872 
1.0 1:0.16666666666666666 2:0.16666666666666666 
1.0 1:0.06557377049180328 2:0.01639344262295082 
1.0 1:0.078125 
1.0 1:0.09375 2:0.015625 
1.0 1:0.08064516129032258 2:0.06451612903225806 
1.0 1:0.16216216216216217 2:0.10810810810810811 
1.0 1:0.10526315789473684 2:0.013157894736842105 
1.0 1:0.10869565217391304 
1.0 1:0.06470588235294118 2:0.023529411764705882 
1.0 1:0.1125 2:0.075 
1.0 1:0.10588235294117647 2:0.052941176470588235 
1.0 1:0.16363636363636364 2:0.05454545454545454 
1.0 1:0.08823529411764706 2:0.023529411764705882 
-1.0 1:0.02040816326530612 2:0.02040816326530612 3:1.0 4:1.0 
-1.0 1:0.05263157894736842 
-1.0 2:0.058823529411764705 3:1.0 4:1.0 
-1.0 1:0.05263157894736842 
-1.0 1:0.1111111111111111 2:0.05555555555555555 
-1.0 1:0.14814814814814814 2:0.1111111111111111 
-1.0 1:0.10416666666666667 2:0.10416666666666667 
-1.0 1:0.07547169811320754 2:0.03773584905660377 
-1.0 1:0.07142857142857142 2:0.02857142857142857 
-1.0 1:0.08695652173913043 2:0.043478260869565216 
-1.0 1:0.07272727272727272 2:0.05454545454545454 4:1.0 
-1.0 1:0.07142857142857142 2:0.02857142857142857 
-1.0 1:0.047619047619047616 
-1.0 1:0.047619047619047616 
-1.0 1:0.01818181818181818 2:0.01818181818181818 3:1.0 4:1.0 
-1.0 1:0.022727272727272728 2:0.022727272727272728 3:1.0 4:1.0 
-1.0 1:0.07142857142857142 2:0.07142857142857142 
-1.0 1:0.03636363636363636 2:0.05454545454545454 
-1.0 1:0.0410958904109589 
-1.0 1:0.0410958904109589 
-1.0 1:0.028037383177570093 2:0.028037383177570093 4:1.0 
-1.0 1:0.03488372093023256 2:0.011627906976744186 3:1.0 4:1.0 
-1.0 1:0.06666666666666667 2:0.016666666666666666 3:1.0 4:1.0 
-1.0 1:0.03488372093023256 2:0.011627906976744186 3:1.0 4:1.0 
-1.0 1:0.05 
-1.0 1:0.03333333333333333 2:0.016666666666666666 3:1.0 4:1.0 
-1.0 1:0.05 
-1.0 1:0.06521739130434782 2:0.06521739130434782 
-1.0 1:0.07142857142857142 2:0.07142857142857142 3:1.0 4:1.0 
-1.0 1:0.06557377049180328 2:0.01639344262295082 
-1.0 1:0.061224489795918366 2:0.07142857142857142 4:1.0 
-1.0 1:0.08695652173913043 2:0.043478260869565216 3:1.0 4:1.0 
-1.0 1:0.05102040816326531 2:0.02040816326530612 
-1.0 1:0.08 2:0.02 
-1.0 1:0.04081632653061224 2:0.04081632653061224 
-1.0 1:0.041666666666666664 2:0.041666666666666664 
-1.0 1:0.05555555555555555 2:0.05555555555555555 
-1.0 1:0.10256410256410256 2:0.10256410256410256 3:1.0 4:1.0 
-1.0 1:0.075 2:0.0125 
-1.0 1:0.1 2:0.1 3:1.0 4:1.0 
-1.0 1:0.043478260869565216 2:0.043478260869565216 3:1.0 4:1.0 
-1.0 1:0.15789473684210525 2:0.21052631578947367 3:1.0 4:1.0 
-1.0 1:0.09090909090909091 2:0.09090909090909091 3:1.0 4:1.0 
-1.0 1:0.1 2:0.02 
-1.0 1:0.0967741935483871 2:0.06451612903225806 
-1.0 1:0.07692307692307693 2:0.007692307692307693 
-1.0 1:0.039473684210526314 2:0.05263157894736842 
-1.0 1:0.04477611940298507 2:0.022388059701492536 
-1.0 1:0.039473684210526314 2:0.02631578947368421 
-1.0 1:0.125 2:0.08333333333333333 3:1.0 4:1.0 
-1.0 1:0.10344827586206896 
-1.0 1:0.1111111111111111 2:0.07407407407407407 3:1.0 4:1.0 
-1.0 1:0.09523809523809523 2:0.047619047619047616 3:1.0 4:1.0 
-1.0 1:0.10344827586206896 
-1.0 1:0.1 2:0.06666666666666667 3:1.0 4:1.0 
-1.0 1:0.0967741935483871 2:0.06451612903225806 3:1.0 4:1.0 
-1.0 1:0.08196721311475409 2:0.08196721311475409 
-1.0 1:0.12 2:0.08 3:1.0 4:1.0 
-1.0 1:0.0625 2:0.026785714285714284 
-1.0 1:0.07462686567164178 2:0.014925373134328358 
-1.0 2:0.011363636363636364 3:1.0 4:1.0 
-1.0 1:0.02912621359223301 2:0.02912621359223301 
-1.0 1:0.058823529411764705 2:0.029411764705882353 
-1.0 1:0.09375 2:0.03125 
-1.0 1:0.09375 2:0.03125 
-1.0 1:0.125 2:0.0625 
-1.0 1:0.09375 2:0.03125 
-1.0 1:0.078125 2:0.03125 3:1.0 4:1.0 
-1.0 1:0.09433962264150944 2:0.05660377358490566 4:1.0 
-1.0 1:0.08333333333333333 2:0.016666666666666666 
-1.0 1:0.04918032786885246 
-1.0 1:0.09302325581395349 
-1.0 1:0.09302325581395349 2:0.046511627906976744 
-1.0 1:0.015151515151515152 2:0.015151515151515152 3:1.0 4:1.0 
-1.0 1:0.125 
-1.0 1:0.14285714285714285 2:0.2857142857142857 3:1.0 4:1.0 
-1.0 1:0.047619047619047616 2:0.047619047619047616 3:1.0 4:1.0 
-1.0 1:0.057692307692307696 2:0.019230769230769232 3:1.0 4:1.0 
-1.0 1:0.03636363636363636 2:0.01818181818181818 3:1.0 4:1.0 
-1.0 2:0.038461538461538464 3:1.0 4:1.0 
-1.0 1:0.1111111111111111 
-1.0 1:0.04 2:0.04 3:1.0 4:1.0 
-1.0 1:0.02857142857142857 2:0.02857142857142857 3:1.0 4:1.0 
-1.0 2:0.09090909090909091 3:1.0 4:1.0 
-1.0 1:0.05128205128205128 
-1.0 1:0.11666666666666667 2:0.08333333333333333 
-1.0 1:0.08108108108108109 2:0.05405405405405406 
-1.0 1:0.1111111111111111 2:0.16666666666666666 
-1.0 1:0.04395604395604396 2:0.01098901098901099 
-1.0 1:0.12121212121212122 2:0.12121212121212122 
-1.0 2:0.05263157894736842 3:1.0 4:1.0 
-1.0 2:0.05263157894736842 3:1.0 4:1.0 
-1.0 2:0.14285714285714285 3:1.0 4:1.0 
-1.0 1:0.015384615384615385 2:0.015384615384615385 3:1.0 4:1.0 
-1.0 1:0.07142857142857142 2:0.023809523809523808 3:1.0 4:1.0 
-1.0 2:0.16666666666666666 3:1.0 4:1.0 
-1.0 1:0.04597701149425287 2:0.011494252873563218 
-1.0 1:0.10204081632653061 2:0.04081632653061224 
-1.0 1:0.10204081632653061 
-1.0 1:0.023255813953488372 2:0.046511627906976744 
-1.0 1:0.08108108108108109 2:0.08108108108108109 
-1.0 1:0.05555555555555555 2:0.041666666666666664 
-1.0 1:0.13157894736842105 2:0.05263157894736842 
-1.0 1:0.1 2:0.1 
-1.0 1:0.04918032786885246 2:0.04918032786885246 
-1.0 1:0.1 2:0.1 
-1.0 1:0.037037037037037035 2:0.037037037037037035 3:1.0 4:1.0 
-1.0 1:0.06818181818181818 
-1.0 1:0.0379746835443038 2:0.012658227848101266 
-1.0 1:0.039473684210526314 2:0.013157894736842105 
-1.0 1:0.09090909090909091 2:0.05454545454545454 
-1.0 1:0.13636363636363635 2:0.09090909090909091 
-1.0 1:0.09090909090909091 
-1.0 1:0.05405405405405406 
-1.0 1:0.10526315789473684 2:0.02631578947368421 
-1.0 1:0.13953488372093023 2:0.046511627906976744 
-1.0 1:0.15789473684210525 2:0.07894736842105263 
-1.0 2:0.16666666666666666 3:1.0 4:1.0 
-1.0 1:0.1346153846153846 2:0.1346153846153846 
-1.0 1:0.1271186440677966 2:0.11864406779661017 
-1.0 1:0.12903225806451613 2:0.12903225806451613 
-1.0 1:0.1125 2:0.075 
-1.0 1:0.125 2:0.075 
-1.0 1:0.1111111111111111 
-1.0 1:0.1111111111111111 2:0.037037037037037035 
-1.0 2:0.125 3:1.0 4:1.0 
-1.0 1:0.07407407407407407 
-1.0 1:0.1111111111111111 2:0.2222222222222222 3:1.0 4:1.0 
-1.0 1:0.03389830508474576 2:0.05084745762711865 
-1.0 1:0.07142857142857142 2:0.10714285714285714 
-1.0 1:0.07407407407407407 
-1.0 1:0.08333333333333333 2:0.0625 
-1.0 1:0.1016949152542373 2:0.0847457627118644 
-1.0 1:0.20588235294117646 2:0.11764705882352941 
-1.0 1:0.15 2:0.06666666666666667 
-1.0 1:0.175 2:0.175 
-1.0 1:0.16 2:0.12 
-1.0 1:0.075 2:0.0375 
-1.0 1:0.12 2:0.12 
-1.0 1:0.058823529411764705 2:0.011764705882352941 
-1.0 1:0.07894736842105263 
-1.0 1:0.025 2:0.0125 3:1.0 4:1.0 
-1.0 1:0.04 2:0.02 3:1.0 4:1.0 
-1.0 1:0.07017543859649122 2:0.03508771929824561 
-1.0 1:0.04504504504504504 2:0.018018018018018018 
-1.0 1:0.0625 2:0.0375 
-1.0 1:0.03389830508474576 2:0.03389830508474576 3:1.0 4:1.0 
-1.0 1:0.027777777777777776 2:0.05555555555555555 3:1.0 4:1.0 
-1.0 1:0.07692307692307693 2:0.07692307692307693 
-1.0 1:0.07272727272727272 2:0.05454545454545454 
-1.0 1:0.07317073170731707 2:0.024390243902439025 
-1.0 1:0.07272727272727272 2:0.03636363636363636 
-1.0 1:0.05263157894736842 
-1.0 1:0.08695652173913043 2:0.13043478260869565 
-1.0 1:0.06 2:0.02 
-1.0 1:0.04081632653061224 
-1.0 2:0.034482758620689655 3:1.0 4:1.0 
-1.0 1:0.0784313725490196 2:0.058823529411764705 
-1.0 2:0.2 3:1.0 4:1.0 
-1.0 2:0.1 3:1.0 4:1.0 
-1.0 2:0.2 3:1.0 4:1.0 
-1.0 1:0.05063291139240506 2:0.02531645569620253 
-1.0 2:0.2 3:1.0 4:1.0 
-1.0 1:0.05263157894736842 2:0.02631578947368421 
-1.0 1:0.07894736842105263 2:0.02631578947368421 
-1.0 1:0.08333333333333333 2:0.16666666666666666 3:1.0 4:1.0 
-1.0 1:0.07042253521126761 2:0.028169014084507043 3:1.0 4:1.0 
-1.0 1:0.038461538461538464 2:0.019230769230769232 
-1.0 1:0.057692307692307696 
-1.0 1:0.0684931506849315 2:0.0273972602739726 
-1.0 1:0.09302325581395349 2:0.046511627906976744 
-1.0 1:0.06976744186046512 2:0.046511627906976744 
-1.0 1:0.07407407407407407 2:0.037037037037037035 
-1.0 1:0.16666666666666666 2:0.041666666666666664 
-1.0 1:0.13043478260869565 2:0.043478260869565216 
-1.0 1:0.061224489795918366 2:0.05102040816326531 
-1.0 1:0.061224489795918366 2:0.05102040816326531 
-1.0 1:0.05154639175257732 2:0.05154639175257732 
-1.0 1:0.061855670103092786 2:0.061855670103092786 
-1.0 1:0.08163265306122448 2:0.061224489795918366 
-1.0 1:0.09183673469387756 2:0.030612244897959183 
-1.0 1:0.08 2:0.04 
-1.0 1:0.04895104895104895 2:0.03496503496503497 
-1.0 1:0.0547945205479452 2:0.0547945205479452 
-1.0 1:0.14285714285714285 2:0.21428571428571427 3:1.0 4:1.0 
-1.0 1:0.038461538461538464 2:0.038461538461538464 3:1.0 4:1.0 
-1.0 1:0.1111111111111111 2:0.1111111111111111 
-1.0 1:0.06060606060606061 2:0.050505050505050504 
-1.0 1:0.06756756756756757 2:0.05405405405405406 
-1.0 2:0.011764705882352941 3:1.0 4:1.0 
-1.0 2:0.010309278350515464 3:1.0 4:1.0 
-1.0 1:0.02564102564102564 2:0.02564102564102564 
-1.0 1:0.021739130434782608 2:0.043478260869565216 
-1.0 1:0.0851063829787234 2:0.010638297872340425 3:1.0 4:1.0 
-1.0 1:0.075 2:0.025 
-1.0 1:0.10256410256410256 2:0.07692307692307693 
-1.0 1:0.04597701149425287 2:0.022988505747126436 
-1.0 1:0.061224489795918366 
-1.0 1:0.0390625 2:0.015625 
-1.0 1:0.0380952380952381 2:0.009523809523809525 
-1.0 1:0.08196721311475409 
-1.0 1:0.08196721311475409 
-1.0 1:0.06666666666666667 2:0.02857142857142857 
-1.0 1:0.08928571428571429 2:0.08928571428571429 
-1.0 1:0.13793103448275862 2:0.10344827586206896 
-1.0 1:0.053763440860215055 2:0.03225806451612903 
-1.0 1:0.18518518518518517 2:0.14814814814814814 
-1.0 1:0.1111111111111111 2:0.1111111111111111 
-1.0 1:0.125 2:0.05 
-1.0 1:0.09302325581395349 2:0.046511627906976744 
-1.0 1:0.11627906976744186 2:0.046511627906976744 
-1.0 1:0.17391304347826086 2:0.17391304347826086 
-1.0 1:0.11764705882352941 2:0.023529411764705882 
-1.0 1:0.09917355371900827 2:0.04132231404958678 
-1.0 1:0.058823529411764705 2:0.0196078431372549 
-1.0 1:0.11320754716981132 2:0.03773584905660377 
-1.0 1:0.11320754716981132 2:0.03773584905660377 
-1.0 1:0.1935483870967742 2:0.0967741935483871 
-1.0 1:0.04964539007092199 
-1.0 1:0.07547169811320754 
-1.0 2:0.02 3:1.0 4:1.0 
-1.0 1:0.010416666666666666 2:0.010416666666666666 3:1.0 4:1.0 
-1.0 1:0.0641025641025641 2:0.01282051282051282 3:1.0 4:1.0 
-1.0 1:0.02912621359223301 2:0.019417475728155338 3:1.0 4:1.0 
-1.0 1:0.02 2:0.02 3:1.0 4:1.0 
-1.0 1:0.052083333333333336 
-1.0 1:0.3333333333333333 
-1.0 1:0.07142857142857142 2:0.023809523809523808 
-1.0 2:0.2 3:1.0 4:1.0 
-1.0 1:0.08333333333333333 2:0.041666666666666664 
-1.0 1:0.03225806451612903 2:0.016129032258064516 
-1.0 1:0.11428571428571428 
-1.0 1:0.11428571428571428 
-1.0 1:0.03225806451612903 2:0.016129032258064516 
-1.0 1:0.13333333333333333 2:0.1 
-1.0 1:0.2 
-1.0 1:0.2 
-1.0 1:0.05555555555555555 2:0.041666666666666664 
-1.0 1:0.05454545454545454 2:0.03636363636363636 3:1.0 4:1.0 
-1.0 1:0.08433734939759036 2:0.08433734939759036 3:1.0 4:1.0 
-1.0 1:0.13333333333333333 
-1.0 1:0.04411764705882353 2:0.014705882352941176 3:1.0 4:1.0 
-1.0 1:0.07042253521126761 2:0.028169014084507043 
-1.0 1:0.05405405405405406 2:0.02702702702702703 
-1.0 1:0.05405405405405406 2:0.02702702702702703 
-1.0 1:0.1111111111111111 2:0.07407407407407407 
-1.0 1:0.04411764705882353 
-1.0 1:0.09375 2:0.03125 
-1.0 1:0.09375 2:0.015625 
-1.0 1:0.09090909090909091 2:0.015151515151515152 
-1.0 1:0.09375 2:0.015625 
-1.0 1:0.09090909090909091 2:0.015151515151515152 
-1.0 1:0.05 2:0.05 3:1.0 4:1.0 
-1.0 1:0.19047619047619047 
-1.0 1:0.0851063829787234 
-1.0 1:0.08196721311475409 
-1.0 1:0.01282051282051282 2:0.01282051282051282 3:1.0 4:1.0 
-1.0 1:0.06976744186046512 
-1.0 1:0.2 2:0.1 
-1.0 1:0.1 
-1.0 1:0.128 2:0.008 
-1.0 1:0.128 2:0.008 
-1.0 1:0.06422018348623854 
-1.0 1:0.06422018348623854 
-1.0 1:0.1323529411764706 
-1.0 1:0.1323529411764706 2:0.014705882352941176 
-1.0 1:0.08433734939759036 2:0.08433734939759036 
-1.0 1:0.15 2:0.05 
-1.0 1:0.15 2:0.1 
-1.0 1:0.038461538461538464 2:0.057692307692307696 3:1.0 4:1.0 
-1.0 1:0.028169014084507043 2:0.028169014084507043 3:1.0 4:1.0 
-1.0 1:0.2 2:0.2 
-1.0 1:0.08620689655172414 2:0.08620689655172414 
-1.0 1:0.038461538461538464 2:0.057692307692307696 3:1.0 4:1.0 
-1.0 1:0.028169014084507043 2:0.028169014084507043 4:1.0 
-1.0 1:0.08823529411764706 2:0.08823529411764706 3:1.0 4:1.0 
-1.0 1:0.07692307692307693 2:0.09615384615384616 3:1.0 4:1.0 
-1.0 2:0.045454545454545456 3:1.0 4:1.0 
-1.0 1:0.08333333333333333 2:0.013888888888888888 
-1.0 1:0.08695652173913043 
-1.0 1:0.11764705882352941 
-1.0 2:0.03225806451612903 3:1.0 4:1.0 
-1.0 1:0.11764705882352941 2:0.058823529411764705 
-1.0 1:0.140625 2:0.09375 
-1.0 1:0.10344827586206896 
-1.0 2:0.25 3:1.0 4:1.0 
-1.0 1:0.109375 
-1.0 1:0.109375 
-1.0 1:0.1206896551724138 
-1.0 1:0.0625 
-1.0 1:0.11428571428571428 2:0.02857142857142857 
-1.0 1:0.11428571428571428 
-1.0 1:0.04838709677419355 
-1.0 1:0.04854368932038835 2:0.009708737864077669 
-1.0 1:0.07608695652173914 2:0.03260869565217391 
-1.0 1:0.0847457627118644 2:0.05084745762711865 
-1.0 1:0.023809523809523808 2:0.023809523809523808 3:1.0 4:1.0 
-1.0 2:0.023809523809523808 3:1.0 4:1.0 
-1.0 1:0.037037037037037035 2:0.07407407407407407 
-1.0 1:0.061224489795918366 3:1.0 
-1.0 1:0.0425531914893617 
-1.0 1:0.029850746268656716 2:0.029850746268656716 3:1.0 4:1.0 
-1.0 1:0.029850746268656716 2:0.029850746268656716 3:1.0 4:1.0 
-1.0 1:0.0425531914893617 2:0.0425531914893617 3:1.0 4:1.0 
-1.0 1:0.03333333333333333 2:0.016666666666666666 3:1.0 4:1.0 
-1.0 1:0.05194805194805195 2:0.025974025974025976 3:1.0 4:1.0 
-1.0 1:0.1111111111111111 
-1.0 1:0.0625 
-1.0 1:0.037037037037037035 2:0.018518518518518517 3:1.0 4:1.0 
-1.0 2:0.029411764705882353 3:1.0 4:1.0 
-1.0 1:0.05194805194805195 2:0.012987012987012988 3:1.0 4:1.0 
-1.0 1:0.023809523809523808 2:0.023809523809523808 3:1.0 4:1.0 
-1.0 1:0.03333333333333333 2:0.03333333333333333 3:1.0 4:1.0 
-1.0 1:0.02631578947368421 2:0.013157894736842105 3:1.0 4:1.0 
-1.0 1:0.08163265306122448 
-1.0 1:0.08163265306122448 2:0.01020408163265306 3:1.0 4:1.0 
-1.0 1:0.030612244897959183 2:0.01020408163265306 3:1.0 4:1.0 
-1.0 1:0.030612244897959183 2:0.02040816326530612 3:1.0 4:1.0 
-1.0 1:0.045454545454545456 2:0.022727272727272728 3:1.0 4:1.0 
-1.0 1:0.07246376811594203 2:0.043478260869565216 3:1.0 4:1.0 
-1.0 1:0.05357142857142857 2:0.017857142857142856 
-1.0 1:0.1111111111111111 2:0.037037037037037035 
-1.0 1:0.08333333333333333 2:0.125 3:1.0 4:1.0 
-1.0 1:0.12 2:0.04 3:1.0 4:1.0 
-1.0 1:0.10204081632653061 2:0.04081632653061224 
-1.0 1:0.043478260869565216 2:0.06521739130434782 3:1.0 4:1.0 
-1.0 1:0.015873015873015872 2:0.047619047619047616 3:1.0 4:1.0 
-1.0 1:0.07692307692307693 2:0.15384615384615385 3:1.0 4:1.0 
-1.0 1:0.109375 2:0.046875 
-1.0 1:0.171875 2:0.0625 
-1.0 1:0.07462686567164178 
-1.0 1:0.07692307692307693 2:0.05128205128205128 3:1.0 4:1.0 
-1.0 1:0.13157894736842105 2:0.02631578947368421 
-1.0 1:0.037037037037037035 2:0.018518518518518517 
-1.0 1:0.10588235294117647 2:0.023529411764705882 
-1.0 1:0.075 
-1.0 1:0.046875 2:0.0625 4:1.0 
-1.0 1:0.17142857142857143 
-1.0 1:0.17142857142857143 
-1.0 1:0.038461538461538464 2:0.019230769230769232 3:1.0 4:1.0 
-1.0 1:0.024390243902439025 2:0.024390243902439025 3:1.0 4:1.0 
-1.0 1:0.05263157894736842 2:0.05263157894736842 3:1.0 4:1.0 
-1.0 1:0.08695652173913043 2:0.043478260869565216 
-1.0 1:0.09523809523809523 2:0.023809523809523808 
-1.0 1:0.08955223880597014 2:0.04477611940298507 
-1.0 1:0.09090909090909091 2:0.045454545454545456 
-1.0 1:0.07291666666666667 2:0.052083333333333336 
-1.0 1:0.09090909090909091 2:0.03636363636363636 
-1.0 1:0.09090909090909091 2:0.03636363636363636 
-1.0 1:0.1 2:0.06 
-1.0 1:0.15151515151515152 2:0.015151515151515152 
-1.0 1:0.15217391304347827 2:0.043478260869565216 
-1.0 1:0.13636363636363635 2:0.030303030303030304 
-1.0 1:0.0784313725490196 2:0.0392156862745098 3:1.0 4:1.0 
-1.0 2:0.02127659574468085 3:1.0 4:1.0 
-1.0 1:0.09803921568627451 2:0.0392156862745098 
-1.0 1:0.0784313725490196 
-1.0 2:0.16666666666666666 3:1.0 4:1.0 
-1.0 2:0.1 3:1.0 4:1.0 
-1.0 1:0.05357142857142857 
-1.0 2:0.07692307692307693 3:1.0 4:1.0 
-1.0 1:0.05357142857142857 
-1.0 1:0.018867924528301886 2:0.018867924528301886 3:1.0 4:1.0 
-1.0 1:0.057971014492753624 
-1.0 1:0.09090909090909091 
-1.0 1:0.0759493670886076 2:0.012658227848101266 
-1.0 1:0.08333333333333333 
-1.0 1:0.05405405405405406 
-1.0 1:0.014492753623188406 2:0.014492753623188406 3:1.0 4:1.0 
-1.0 1:0.05405405405405406 
-1.0 1:0.05405405405405406 
-1.0 1:0.07894736842105263 
-1.0 1:0.13636363636363635 
-1.0 1:0.07894736842105263 
-1.0 1:0.13636363636363635 
-1.0 2:0.01694915254237288 3:1.0 4:1.0 
-1.0 2:0.09090909090909091 3:1.0 4:1.0 
-1.0 1:0.10256410256410256 
-1.0 1:0.08333333333333333 
-1.0 1:0.09722222222222222 2:0.08333333333333333 
-1.0 1:0.1388888888888889 2:0.1111111111111111 
-1.0 1:0.061224489795918366 
-1.0 1:0.0425531914893617 2:0.02127659574468085 3:1.0 4:1.0 
-1.0 1:0.10256410256410256 2:0.02564102564102564 
-1.0 1:0.12280701754385964 2:0.07017543859649122 
-1.0 1:0.15384615384615385 2:0.038461538461538464 
-1.0 1:0.058823529411764705 2:0.0196078431372549 
-1.0 1:0.06779661016949153 2:0.01694915254237288 
-1.0 1:0.022222222222222223 2:0.044444444444444446 3:1.0 4:1.0 
-1.0 1:0.025 2:0.05 3:1.0 4:1.0 
-1.0 1:0.10714285714285714 2:0.10714285714285714 3:1.0 4:1.0 
-1.0 1:0.09090909090909091 2:0.18181818181818182 3:1.0 4:1.0 
-1.0 1:0.03389830508474576 2:0.03389830508474576 4:1.0 
-1.0 1:0.043859649122807015 2:0.017543859649122806 
-1.0 1:0.06060606060606061 
-1.0 1:0.07692307692307693 2:0.11538461538461539 3:1.0 4:1.0 
-1.0 1:0.08823529411764706 
-1.0 1:0.04477611940298507 2:0.014925373134328358 
-1.0 1:0.08955223880597014 2:0.05970149253731343 
-1.0 1:0.08163265306122448 2:0.04081632653061224 
-1.0 1:0.061224489795918366 2:0.04081632653061224 
-1.0 1:0.039473684210526314 2:0.02631578947368421 
-1.0 1:0.05084745762711865 2:0.03389830508474576 
-1.0 2:0.015384615384615385 3:1.0 4:1.0 
-1.0 1:0.041666666666666664 2:0.008333333333333333 
-1.0 1:0.18518518518518517 
-1.0 1:0.13157894736842105 
-1.0 1:0.021739130434782608 2:0.021739130434782608 3:1.0 4:1.0 
-1.0 1:0.03636363636363636 2:0.01818181818181818 3:1.0 4:1.0 
-1.0 1:0.09090909090909091 2:0.01818181818181818 3:1.0 4:1.0 
-1.0 1:0.024390243902439025 2:0.012195121951219513 3:1.0 4:1.0 
-1.0 1:0.046153846153846156 2:0.03076923076923077 
-1.0 1:0.09195402298850575 2:0.08045977011494253 
-1.0 1:0.07216494845360824 2:0.05154639175257732 
-1.0 1:0.0875 
-1.0 1:0.07692307692307693 
-1.0 1:0.044444444444444446 2:0.044444444444444446 3:1.0 4:1.0 
-1.0 1:0.08888888888888889 
-1.0 1:0.05 2:0.05 3:1.0 4:1.0 
-1.0 1:0.075 2:0.025 3:1.0 4:1.0 
-1.0 1:0.14285714285714285 
-1.0 1:0.018292682926829267 2:0.018292682926829267 3:1.0 4:1.0 
-1.0 1:0.07317073170731707 2:0.024390243902439025 
-1.0 1:0.06666666666666667 2:0.03333333333333333 
-1.0 1:0.0975609756097561 
-1.0 1:0.0975609756097561 
-1.0 1:0.018292682926829267 2:0.012195121951219513 3:1.0 4:1.0 
-1.0 1:0.11627906976744186 2:0.046511627906976744 3:1.0 4:1.0 
-1.0 1:0.042328042328042326 2:0.015873015873015872 
-1.0 1:0.054878048780487805 2:0.04878048780487805 
-1.0 1:0.042328042328042326 2:0.015873015873015872 
-1.0 1:0.042328042328042326 2:0.015873015873015872 
-1.0 1:0.06349206349206349 2:0.031746031746031744 
-1.0 1:0.08536585365853659 2:0.04878048780487805 
-1.0 1:0.07407407407407407 2:0.037037037037037035 
-1.0 1:0.0948905109489051 2:0.0072992700729927005 
-1.0 1:0.0948905109489051 
-1.0 1:0.0948905109489051 2:0.021897810218978103 
-1.0 1:0.038461538461538464 2:0.038461538461538464 
-1.0 1:0.13793103448275862 2:0.13793103448275862 
-1.0 1:0.07407407407407407 2:0.018518518518518517 
-1.0 1:0.07407407407407407 2:0.018518518518518517 
-1.0 1:0.06779661016949153 
-1.0 1:0.06593406593406594 
-1.0 1:0.06779661016949153 
-1.0 1:0.06593406593406594 
-1.0 1:0.07246376811594203 2:0.028985507246376812 
-1.0 1:0.12727272727272726 2:0.07272727272727272 
-1.0 1:0.07317073170731707 
-1.0 1:0.08888888888888889 
-1.0 1:0.10869565217391304 2:0.06521739130434782 
-1.0 1:0.13157894736842105 2:0.13157894736842105 
-1.0 1:0.06818181818181818 2:0.06818181818181818 
-1.0 1:0.13157894736842105 2:0.13157894736842105 
-1.0 1:0.06666666666666667 3:1.0 
-1.0 1:0.07692307692307693 2:0.02564102564102564 
-1.0 1:0.14705882352941177 
-1.0 1:0.17647058823529413 
-1.0 1:0.05319148936170213 2:0.010638297872340425 
-1.0 1:0.05319148936170213 2:0.02127659574468085 
-1.0 1:0.05405405405405406 2:0.02702702702702703 
-1.0 1:0.06060606060606061 2:0.030303030303030304 
-1.0 1:0.038461538461538464 2:0.038461538461538464 3:1.0 4:1.0 
-1.0 1:0.038461538461538464 2:0.038461538461538464 3:1.0 4:1.0 
-1.0 1:0.08139534883720931 
-1.0 1:0.1 
-1.0 1:0.08139534883720931 
-1.0 1:0.25 2:0.25 
-1.0 1:0.05263157894736842 2:0.010526315789473684 3:1.0 4:1.0 
-1.0 1:0.045454545454545456 
-1.0 1:0.023529411764705882 2:0.011764705882352941 3:1.0 4:1.0 
-1.0 1:0.047619047619047616 2:0.011904761904761904 3:1.0 4:1.0 
-1.0 1:0.12727272727272726 2:0.01818181818181818 
-1.0 1:0.12727272727272726 
-1.0 1:0.04878048780487805 2:0.024390243902439025 3:1.0 4:1.0 
-1.0 1:0.04878048780487805 2:0.024390243902439025 3:1.0 4:1.0 
-1.0 1:0.08571428571428572 2:0.02857142857142857 3:1.0 4:1.0 
-1.0 1:0.05128205128205128 
-1.0 1:0.11818181818181818 2:0.02727272727272727 
-1.0 1:0.0967741935483871 2:0.024193548387096774 
-1.0 1:0.0967741935483871 2:0.024193548387096774 
-1.0 1:0.09523809523809523 
-1.0 1:0.09523809523809523 
-1.0 1:0.02 2:0.02 3:1.0 4:1.0 
-1.0 2:0.058823529411764705 3:1.0 4:1.0 
-1.0 1:0.02247191011235955 2:0.011235955056179775 3:1.0 4:1.0 
-1.0 1:0.058823529411764705 2:0.058823529411764705 3:1.0 4:1.0 
-1.0 1:0.08108108108108109 
-1.0 1:0.04 2:0.02 3:1.0 4:1.0 
-1.0 1:0.08108108108108109 
-1.0 1:0.043478260869565216 2:0.028985507246376812 3:1.0 4:1.0 
-1.0 1:0.09900990099009901 2:0.019801980198019802 
-1.0 1:0.10891089108910891 2:0.0297029702970297 
-1.0 1:0.08695652173913043 2:0.043478260869565216 
-1.0 1:0.0684931506849315 2:0.0136986301369863 
-1.0 1:0.0547945205479452 2:0.0136986301369863 
-1.0 1:0.05 2:0.025 
-1.0 1:0.10344827586206896 
