svm_type c_svc
kernel_type linear
nr_class 2
total_sv 3446
rho 1.2657687576795102
label 1 0
probA -0.4330478124194287
probB -0.08412474294921474
nr_sv 1723 1723
SV
1.0 1:0.043478260869565216 2:0.0037807183364839316 3:0.043478260869565216 4:1.0 5:1.0 
1.0 1:0.029850746268656716 
1.0 1:0.07317073170731707 
1.0 1:0.025 2:0.0012500000000000002 3:0.025 4:1.0 5:1.0 
1.0 1:0.05263157894736842 
1.0 1:0.12962962962962962 2:0.006172839506172839 3:0.1111111111111111 
1.0 1:0.09230769230769231 2:0.0037869822485207105 3:0.06153846153846154 
1.0 1:0.07142857142857142 
1.0 1:0.125 2:0.004340277777777778 3:0.10416666666666667 
1.0 1:0.1 3:0.1 
1.0 1:0.07142857142857142 2:0.001020408163265306 3:0.014285714285714285 
1.0 1:0.08695652173913043 
1.0 1:0.01818181818181818 2:3.305785123966942E-4 3:0.01818181818181818 4:1.0 5:1.0 
1.0 1:0.022727272727272728 2:5.165289256198347E-4 3:0.022727272727272728 4:1.0 5:1.0 
1.0 1:0.06666666666666667 2:0.0022222222222222222 3:0.06666666666666667 
1.0 1:0.03636363636363636 2:6.611570247933884E-4 3:0.03636363636363636 
1.0 1:0.0547945205479452 2:0.0015012197410395945 3:0.0273972602739726 4:1.0 5:1.0 
1.0 3:0.058823529411764705 4:1.0 5:1.0 
1.0 1:0.07692307692307693 2:9.861932938856016E-4 3:0.01282051282051282 4:1.0 5:1.0 
1.0 1:0.06666666666666667 
1.0 1:0.031914893617021274 
1.0 1:0.046511627906976744 2:6.760411032990806E-4 3:0.011627906976744186 4:1.0 5:1.0 
1.0 1:0.02040816326530612 2:4.1649312786339016E-4 3:0.02040816326530612 4:1.0 5:1.0 
1.0 1:0.046511627906976744 2:0.0016224986479177934 3:0.023255813953488372 4:1.0 5:1.0 
1.0 1:0.06557377049180328 2:0.0010749798441279227 3:0.01639344262295082 
1.0 1:0.06153846153846154 2:9.467455621301776E-4 3:0.03076923076923077 
1.0 1:0.08108108108108109 2:0.0018261504747991238 3:0.02702702702702703 4:1.0 5:1.0 
1.0 1:0.0392156862745098 2:7.689350249903883E-4 3:0.0392156862745098 4:1.0 5:1.0 
1.0 1:0.14814814814814814 2:0.006858710562414265 3:0.07407407407407407 
1.0 1:0.08 2:0.002 3:0.02 
1.0 1:0.07228915662650602 3:0.07228915662650602 
1.0 1:0.04 2:4.0E-4 3:0.02 
1.0 1:0.09523809523809523 2:0.004535147392290249 3:0.047619047619047616 4:1.0 5:1.0 
1.0 1:0.061224489795918366 
1.0 1:0.061224489795918366 2:0.0012494793835901706 3:0.02040816326530612 
1.0 1:0.09859154929577464 2:0.0023804800634794686 3:0.028169014084507043 
1.0 1:0.041666666666666664 2:8.680555555555555E-4 3:0.020833333333333332 
1.0 1:0.06896551724137931 2:0.0023781212841854932 3:0.034482758620689655 4:1.0 5:1.0 
1.0 1:0.1388888888888889 2:0.006172839506172839 3:0.05555555555555555 
1.0 1:0.03076923076923077 2:1.775147928994083E-4 3:0.007692307692307693 
1.0 1:0.06153846153846154 2:0.0015976331360946748 3:0.023076923076923078 
1.0 1:0.0967741935483871 2:0.004162330905306971 3:0.06451612903225806 
1.0 1:0.18181818181818182 2:0.007575757575757576 3:0.16666666666666666 
1.0 1:0.05223880597014925 2:6.683002895967921E-4 3:0.029850746268656716 
1.0 1:0.06578947368421052 2:6.925207756232686E-4 3:0.05263157894736842 
1.0 1:0.03278688524590164 2:8.062348830959419E-4 3:0.01639344262295082 
1.0 1:0.16 2:0.0144 3:0.12 
1.0 1:0.1282051282051282 2:0.0039447731755424065 3:0.07692307692307693 
1.0 1:0.11940298507462686 2:0.004455335263978614 3:0.05970149253731343 
1.0 1:0.08035714285714286 2:0.0019132653061224487 3:0.026785714285714284 
1.0 1:0.043478260869565216 2:0.0014177693761814744 3:0.021739130434782608 4:1.0 5:1.0 
1.0 1:0.03571428571428571 2:3.985969387755102E-4 3:0.008928571428571428 4:1.0 5:1.0 
1.0 1:0.06796116504854369 2:9.425959091337542E-4 3:0.04854368932038835 
1.0 1:0.109375 2:0.003662109375 3:0.046875 
1.0 1:0.15625 2:0.0087890625 3:0.09375 
1.0 1:0.078125 2:0.001953125 3:0.03125 
1.0 1:0.1 2:0.0027777777777777775 3:0.03333333333333333 
1.0 1:0.08333333333333333 2:0.0027777777777777775 3:0.03333333333333333 
1.0 1:0.07894736842105263 2:6.925207756232686E-4 3:0.008771929824561403 
1.0 1:0.07547169811320754 2:0.002135991456034176 3:0.05660377358490566 
1.0 1:0.1891891891891892 2:0.017531044558071588 3:0.16216216216216217 
1.0 1:0.11578947368421053 2:0.004432132963988919 3:0.08421052631578947 
1.0 1:0.125 
1.0 1:0.08771929824561403 2:0.0013850415512465372 3:0.017543859649122806 4:1.0 5:1.0 
1.0 1:0.07246376811594203 2:0.001260239445494644 3:0.014492753623188406 4:1.0 5:1.0 
1.0 1:0.02586206896551724 2:2.9726516052318666E-4 3:0.008620689655172414 4:1.0 5:1.0 
1.0 1:0.05 2:0.0025000000000000005 3:0.05 4:1.0 5:1.0 
1.0 1:0.06557377049180328 
1.0 1:0.06349206349206349 2:0.0012597631645250692 3:0.015873015873015872 4:1.0 5:1.0 
1.0 1:0.03636363636363636 2:9.917355371900824E-4 3:0.01818181818181818 4:1.0 5:1.0 
1.0 1:0.0625 2:0.001953125 3:0.0625 4:1.0 5:1.0 
1.0 1:0.07407407407407407 2:0.0027434842249657062 3:0.07407407407407407 4:1.0 5:1.0 
1.0 1:0.02857142857142857 2:8.163265306122448E-4 3:0.02857142857142857 4:1.0 5:1.0 
1.0 1:0.14 2:0.0048 3:0.04 
1.0 1:0.1 
1.0 1:0.05128205128205128 
1.0 1:0.06666666666666667 2:0.0016666666666666668 3:0.03333333333333333 
1.0 1:0.10810810810810811 2:0.004382761139517897 3:0.08108108108108109 
1.0 1:0.054945054945054944 2:0.0010868252626494385 3:0.03296703296703297 
1.0 1:0.06060606060606061 
1.0 1:0.08823529411764706 2:0.0012975778546712804 3:0.014705882352941176 4:1.0 5:1.0 
1.0 1:0.037037037037037035 2:0.0013717421124828531 3:0.037037037037037035 
1.0 1:0.05063291139240506 2:0.002403460983816696 3:0.0379746835443038 
1.0 1:0.07142857142857142 
1.0 1:0.0967741935483871 2:0.004162330905306971 3:0.03225806451612903 4:1.0 5:1.0 
1.0 1:0.046875 2:0.001220703125 3:0.015625 4:1.0 5:1.0 
1.0 1:0.04081632653061224 2:0.0016659725114535606 3:0.04081632653061224 4:1.0 5:1.0 
1.0 1:0.034482758620689655 
1.0 1:0.14285714285714285 2:0.014993752603082049 3:0.12244897959183673 
1.0 1:0.08 2:0.0032 3:0.08 
1.0 1:0.07692307692307693 2:0.0019723865877712033 3:0.07692307692307693 5:1.0 
1.0 1:0.041666666666666664 2:0.0011574074074074073 3:0.027777777777777776 
1.0 1:0.10810810810810811 2:0.004382761139517897 3:0.05405405405405406 
1.0 1:0.15 3:0.15 
1.0 1:0.045454545454545456 2:0.0010330578512396695 3:0.022727272727272728 
1.0 1:0.02631578947368421 2:3.462603878116343E-4 3:0.02631578947368421 5:1.0 
1.0 1:0.02531645569620253 2:3.204614645088928E-4 3:0.012658227848101266 4:1.0 5:1.0 
1.0 1:0.12 2:0.0048 3:0.12 
1.0 1:0.039473684210526314 2:5.193905817174514E-4 3:0.013157894736842105 
1.0 1:0.11363636363636363 2:0.002066115702479339 3:0.022727272727272728 
1.0 1:0.13333333333333333 2:0.0044444444444444444 3:0.06666666666666667 
1.0 1:0.10526315789473684 2:0.0041551246537396115 3:0.07894736842105263 
1.0 1:0.13953488372093023 2:0.006489994591671174 3:0.046511627906976744 
1.0 1:0.10526315789473684 2:0.0027700831024930744 3:0.02631578947368421 
1.0 1:0.08695652173913043 
1.0 1:0.09375 2:0.0029296875 3:0.03125 4:1.0 5:1.0 
1.0 1:0.11864406779661017 2:0.007756391841424879 3:0.1016949152542373 
1.0 1:0.1125 2:0.008749999999999999 3:0.1 
1.0 1:0.1 2:0.0021874999999999998 3:0.025 
1.0 1:0.0847457627118644 2:0.002010916403332376 3:0.03389830508474576 
1.0 1:0.10204081632653061 2:0.0024989587671803413 3:0.061224489795918366 
1.0 1:0.13559322033898305 2:0.007756391841424879 3:0.15254237288135594 
1.0 1:0.10416666666666667 2:0.002170138888888889 3:0.10416666666666667 
1.0 1:0.07142857142857142 2:0.002551020408163265 3:0.07142857142857142 4:1.0 5:1.0 
1.0 1:0.07407407407407407 
1.0 1:0.07407407407407407 
1.0 1:0.04411764705882353 
1.0 1:0.10294117647058823 2:0.003027681660899654 3:0.029411764705882353 
1.0 1:0.0847457627118644 2:0.0017236426314277509 3:0.01694915254237288 
1.0 1:0.16666666666666666 2:0.015555555555555555 3:0.13333333333333333 
1.0 1:0.11842105263157894 2:0.006925207756232686 3:0.06578947368421052 
1.0 1:0.2 2:0.016326530612244896 3:0.14285714285714285 
1.0 1:0.08860759493670886 2:0.0038455375741067136 3:0.0379746835443038 
1.0 1:0.075 2:0.0028125 3:0.0375 
1.0 1:0.16 2:0.0096 3:0.12 
1.0 1:0.058823529411764705 2:6.920415224913495E-4 3:0.011764705882352941 
1.0 1:0.07894736842105263 
1.0 1:0.05263157894736842 2:0.0012311480455524776 3:0.017543859649122806 4:1.0 5:1.0 
1.0 1:0.05263157894736842 2:6.155740227762388E-4 3:0.017543859649122806 
1.0 1:0.05405405405405406 2:7.304601899196495E-4 3:0.02702702702702703 
1.0 1:0.08163265306122448 2:0.0016659725114535606 3:0.04081632653061224 
1.0 1:0.13157894736842105 
1.0 1:0.08333333333333333 2:0.006172839506172839 3:0.1111111111111111 
1.0 1:0.10256410256410256 2:0.0052596975673898745 3:0.10256410256410256 
1.0 1:0.0975609756097561 2:0.007138607971445568 3:0.07317073170731707 
1.0 1:0.109375 2:0.00732421875 3:0.09375 
1.0 1:0.06 
1.0 1:0.10344827586206896 2:0.0023781212841854932 3:0.06896551724137931 
1.0 1:0.009009009009009009 2:3.2464897329762194E-4 3:0.018018018018018018 4:1.0 5:1.0 
1.0 1:0.02127659574468085 2:0.0018107741059302852 3:0.0425531914893617 4:1.0 5:1.0 
1.0 1:0.08108108108108109 2:0.004382761139517897 3:0.08108108108108109 4:1.0 5:1.0 
1.0 1:0.05405405405405406 2:9.739469198928659E-4 3:0.02702702702702703 
1.0 1:0.006329113924050633 2:4.00576830636116E-5 3:0.006329113924050633 4:1.0 5:1.0 
1.0 1:0.05263157894736842 2:0.0018467220683287162 3:0.03508771929824561 4:1.0 5:1.0 
1.0 1:0.05263157894736842 2:0.0013850415512465372 3:0.02631578947368421 4:1.0 5:1.0 
1.0 1:0.10526315789473684 
1.0 1:0.07894736842105263 2:0.0027700831024930744 3:0.05263157894736842 
1.0 1:0.05714285714285714 2:0.0016326530612244896 3:0.02857142857142857 4:1.0 5:1.0 
1.0 1:0.07936507936507936 2:0.001511715797430083 3:0.047619047619047616 
1.0 1:0.04411764705882353 
1.0 1:0.0967741935483871 2:0.0020811654526534857 3:0.03225806451612903 
1.0 1:0.11538461538461539 2:0.004437869822485207 3:0.11538461538461539 
1.0 1:0.06349206349206349 2:7.558578987150415E-4 3:0.015873015873015872 
1.0 1:0.18518518518518517 2:0.008230452674897118 3:0.07407407407407407 
1.0 1:0.23076923076923078 2:0.013313609467455623 3:0.11538461538461539 
1.0 1:0.0625 2:0.00390625 3:0.0625 
1.0 1:0.09302325581395349 2:0.004326663061114115 3:0.046511627906976744 5:1.0 
1.0 1:0.16666666666666666 2:0.013888888888888888 3:0.08333333333333333 
1.0 1:0.1388888888888889 2:0.004629629629629629 3:0.08333333333333333 
1.0 1:0.061224489795918366 2:0.003123698458975427 3:0.05102040816326531 
1.0 1:0.12 2:0.0132 3:0.12 
1.0 1:0.05714285714285714 2:0.002142857142857143 3:0.05 
1.0 1:0.07692307692307693 2:0.0013203579637146073 3:0.06293706293706294 
1.0 1:0.06 2:0.001 3:0.02 
1.0 1:0.10204081632653061 2:0.002811328613077884 3:0.09183673469387756 
1.0 1:0.05154639175257732 2:0.001275374641300882 3:0.041237113402061855 
1.0 1:0.038461538461538464 
1.0 1:0.14634146341463414 2:0.007138607971445568 3:0.0975609756097561 
1.0 1:0.075 2:0.00375 3:0.075 
1.0 1:0.10101010101010101 2:0.008264462809917356 3:0.09090909090909091 
1.0 1:0.06756756756756757 2:0.0036523009495982475 3:0.05405405405405406 
1.0 1:0.022556390977443608 2:3.391938492848663E-4 3:0.015037593984962405 4:1.0 5:1.0 
1.0 1:0.03508771929824561 2:3.077870113881194E-4 3:0.008771929824561403 4:1.0 5:1.0 
1.0 1:0.03759398496240601 2:3.9572615749901063E-4 3:0.007518796992481203 4:1.0 5:1.0 
1.0 1:0.023809523809523808 
1.0 1:0.05154639175257732 2:5.314061005420342E-4 3:0.010309278350515464 4:1.0 5:1.0 
1.0 1:0.050505050505050504 2:5.101520253035404E-4 3:0.010101010101010102 4:1.0 5:1.0 
1.0 1:0.02564102564102564 
1.0 1:0.011494252873563218 
1.0 1:0.0851063829787234 
1.0 1:0.061224489795918366 
1.0 1:0.075 2:0.00375 3:0.05 
1.0 1:0.061224489795918366 2:8.329862557267803E-4 3:0.04081632653061224 
1.0 1:0.09375 
1.0 1:0.10344827586206896 2:0.0047562425683709865 3:0.034482758620689655 
1.0 1:0.0546875 2:0.001220703125 3:0.03125 4:1.0 5:1.0 
1.0 1:0.047619047619047616 2:7.2562358276644E-4 3:0.01904761904761905 4:1.0 5:1.0 
1.0 1:0.0546875 2:0.001220703125 3:0.03125 4:1.0 5:1.0 
1.0 1:0.047619047619047616 2:7.2562358276644E-4 3:0.01904761904761905 4:1.0 5:1.0 
1.0 1:0.057971014492753624 2:8.401596303297627E-4 3:0.028985507246376812 
1.0 1:0.047619047619047616 2:0.0013605442176870747 3:0.02857142857142857 4:1.0 5:1.0 
1.0 1:0.1388888888888889 2:0.0030864197530864196 3:0.1111111111111111 
1.0 1:0.13793103448275862 2:0.0035671819262782403 3:0.034482758620689655 
1.0 1:0.043010752688172046 2:0.001387443635102324 3:0.043010752688172046 
1.0 1:0.1 2:0.006666666666666667 3:0.06666666666666667 
1.0 1:0.06557377049180328 2:0.0024187046492878256 3:0.04918032786885246 
1.0 1:0.15 2:0.009375 3:0.075 
1.0 1:0.07058823529411765 2:0.0016608996539792388 3:0.03529411764705882 
1.0 1:0.12658227848101267 2:0.005127383432142285 3:0.10126582278481013 
1.0 1:0.1346153846153846 2:0.007396449704142012 3:0.09615384615384616 
1.0 1:0.10588235294117647 
1.0 1:0.0743801652892562 
1.0 1:0.10810810810810811 2:0.0032870708546384225 3:0.04054054054054054 
1.0 1:0.11320754716981132 2:0.004983980064079743 3:0.03773584905660377 
1.0 1:0.19047619047619047 2:0.03401360544217687 3:0.14285714285714285 
1.0 1:0.12 2:0.0096 3:0.12 
1.0 1:0.08571428571428572 2:0.004897959183673469 3:0.08571428571428572 
1.0 1:0.07547169811320754 
1.0 1:0.010752688172043012 2:2.3124060585038737E-4 3:0.010752688172043012 4:1.0 5:1.0 
1.0 1:0.04 
1.0 1:0.07894736842105263 2:0.0012119113573407201 3:0.013157894736842105 4:1.0 5:1.0 
1.0 1:0.05128205128205128 2:6.574621959237343E-4 3:0.01282051282051282 4:1.0 5:1.0 
1.0 1:0.052083333333333336 2:6.510416666666666E-4 3:0.010416666666666666 4:1.0 5:1.0 
1.0 1:0.038461538461538464 
1.0 1:0.03571428571428571 2:0.0012755102040816326 3:0.03571428571428571 4:1.0 5:1.0 
1.0 1:0.08333333333333333 2:0.0015432098765432098 3:0.05555555555555555 
1.0 1:0.041666666666666664 2:0.001736111111111111 3:0.041666666666666664 4:1.0 5:1.0 
1.0 1:0.10526315789473684 2:0.005540166204986149 3:0.10526315789473684 
1.0 1:0.07692307692307693 2:0.0011094674556213018 3:0.019230769230769232 
1.0 1:0.06451612903225806 2:0.0015608740894901144 3:0.03225806451612903 
1.0 1:0.05128205128205128 2:6.574621959237343E-4 3:0.02564102564102564 
1.0 1:0.02564102564102564 2:6.574621959237343E-4 3:0.02564102564102564 
1.0 1:0.023809523809523808 2:2.8344671201814054E-4 3:0.011904761904761904 
1.0 1:0.2 2:0.005714285714285714 3:0.02857142857142857 
1.0 1:0.11764705882352941 2:0.005190311418685122 3:0.08823529411764706 
1.0 1:0.029411764705882353 2:4.3252595155709344E-4 3:0.014705882352941176 4:1.0 5:1.0 
1.0 1:0.08433734939759036 
1.0 1:0.08823529411764706 2:0.0019463667820069207 3:0.04411764705882353 
1.0 1:0.04411764705882353 
1.0 1:0.2 2:0.008888888888888889 3:0.06666666666666667 
1.0 1:0.0963855421686747 2:0.00130643054144288 3:0.012048192771084338 4:1.0 5:1.0 
1.0 1:0.08571428571428572 2:0.0036734693877551023 3:0.04285714285714286 
1.0 1:0.13793103448275862 2:0.007134363852556481 3:0.06896551724137931 
1.0 1:0.04285714285714286 2:8.163265306122448E-4 3:0.014285714285714285 
1.0 1:0.07042253521126761 2:9.918666931164452E-4 3:0.014084507042253521 
1.0 1:0.02857142857142857 2:0.0012244897959183673 3:0.02857142857142857 
1.0 1:0.017857142857142856 2:6.377551020408163E-4 3:0.03571428571428571 
1.0 1:0.16176470588235295 2:0.007785467128027681 3:0.1323529411764706 
1.0 1:0.08163265306122448 2:0.0016659725114535606 3:0.04081632653061224 
1.0 1:0.046511627906976744 2:0.0021633315305570576 3:0.046511627906976744 
1.0 1:0.04411764705882353 
1.0 1:0.09375 2:0.00146484375 3:0.015625 
1.0 1:0.09090909090909091 2:0.001147842056932966 3:0.015151515151515152 
1.0 1:0.08333333333333333 
1.0 3:0.2 4:1.0 5:1.0 
1.0 3:0.2 4:1.0 5:1.0 
1.0 1:0.0851063829787234 
1.0 1:0.08620689655172414 2:0.0017835909631391202 3:0.017241379310344827 4:1.0 5:1.0 
1.0 1:0.05555555555555555 2:0.0010288065843621398 3:0.018518518518518517 4:1.0 5:1.0 
1.0 1:0.06349206349206349 2:7.558578987150415E-4 3:0.047619047619047616 
1.0 1:0.07547169811320754 2:0.0014239943040227838 3:0.018867924528301886 4:1.0 5:1.0 
1.0 1:0.1 
1.0 1:0.08737864077669903 2:0.0022622301819210104 3:0.05825242718446602 4:1.0 5:1.0 
1.0 1:0.128 2:9.6E-4 3:0.008 
1.0 1:0.17721518987341772 2:0.014580996635154622 3:0.08860759493670886 
1.0 1:0.058823529411764705 2:8.650519031141869E-4 3:0.014705882352941176 4:1.0 5:1.0 
1.0 1:0.009174311926605505 2:8.416799932665601E-5 3:0.009174311926605505 4:1.0 5:1.0 
1.0 1:0.1323529411764706 2:0.0019463667820069203 3:0.014705882352941176 
1.0 1:0.14285714285714285 2:0.009183673469387754 3:0.12857142857142856 
1.0 1:0.13131313131313133 2:0.006121824303642486 3:0.050505050505050504 
1.0 1:0.07692307692307693 2:0.001849112426035503 3:0.09615384615384616 4:1.0 5:1.0 
1.0 1:0.09090909090909091 2:0.0024487297214569946 3:0.04040404040404041 
1.0 1:0.057692307692307696 3:0.057692307692307696 
1.0 1:0.06666666666666667 
1.0 1:0.024096385542168676 
1.0 1:0.03333333333333333 2:5.555555555555556E-4 3:0.016666666666666666 4:1.0 5:1.0 
1.0 1:0.041666666666666664 
1.0 1:0.06944444444444445 2:4.8225308641975306E-4 3:0.006944444444444444 4:1.0 5:1.0 
1.0 1:0.043478260869565216 
1.0 1:0.09722222222222222 2:0.004050925925925926 3:0.041666666666666664 
1.0 1:0.08695652173913043 2:0.0023629489603024575 3:0.021739130434782608 4:1.0 5:1.0 
1.0 1:0.06666666666666667 2:0.0033333333333333335 3:0.03333333333333333 4:1.0 5:1.0 
1.0 1:0.058823529411764705 2:0.0034602076124567475 3:0.058823529411764705 4:1.0 5:1.0 
1.0 1:0.20588235294117646 2:0.012975778546712804 3:0.08823529411764706 
1.0 1:0.11475409836065574 2:0.004837409298575651 3:0.04918032786885246 
1.0 1:0.05 2:0.0012500000000000002 3:0.05 4:1.0 5:1.0 
1.0 1:0.13793103448275862 2:0.0047562425683709865 3:0.034482758620689655 
1.0 1:0.14285714285714285 2:0.006802721088435373 3:0.047619047619047616 
1.0 1:0.0891089108910891 2:0.003136947358102147 3:0.07920792079207921 
1.0 1:0.1206896551724138 2:0.002080856123662307 3:0.017241379310344827 
1.0 1:0.11428571428571428 
1.0 1:0.06930693069306931 2:5.881776296441525E-4 3:0.009900990099009901 
1.0 1:0.04838709677419355 
1.0 1:0.11267605633802817 2:0.003967466772465781 3:0.056338028169014086 
1.0 1:0.038834951456310676 2:4.712979545668771E-4 3:0.009708737864077669 
1.0 1:0.08450704225352113 2:0.0019837333862328904 3:0.028169014084507043 
1.0 1:0.05434782608695652 
1.0 1:0.05434782608695652 2:0.0011814744801512287 3:0.021739130434782608 4:1.0 5:1.0 
1.0 1:0.05434782608695652 2:0.0014177693761814744 3:0.021739130434782608 
1.0 1:0.011904761904761904 2:1.4172335600907027E-4 3:0.011904761904761904 4:1.0 5:1.0 
1.0 1:0.13043478260869565 
1.0 1:0.05128205128205128 2:0.0013149243918474686 3:0.02564102564102564 4:1.0 5:1.0 
1.0 1:0.058823529411764705 2:7.689350249903883E-4 3:0.0196078431372549 
1.0 1:0.039473684210526314 2:6.925207756232686E-4 3:0.013157894736842105 
1.0 1:0.07407407407407407 2:0.004115226337448559 3:0.1111111111111111 
1.0 
1.0 
1.0 1:0.061224489795918366 
1.0 1:0.0425531914893617 
1.0 1:0.04878048780487805 2:0.001189767995240928 3:0.024390243902439025 
1.0 1:0.0784313725490196 2:0.0019223375624759706 3:0.0196078431372549 4:1.0 5:1.0 
1.0 1:0.10714285714285714 
1.0 1:0.045454545454545456 
1.0 1:0.06896551724137931 2:0.0023781212841854932 3:0.034482758620689655 4:1.0 5:1.0 
1.0 1:0.1111111111111111 
1.0 1:0.07792207792207792 2:0.001011975037949064 3:0.012987012987012988 4:1.0 5:1.0 
1.0 1:0.10227272727272728 2:0.0012913223140495868 3:0.011363636363636364 4:1.0 5:1.0 
1.0 1:0.05194805194805195 2:8.433125316242199E-4 3:0.012987012987012988 4:1.0 5:1.0 
1.0 1:0.02127659574468085 
1.0 1:0.09090909090909091 2:0.001349300050598752 3:0.012987012987012988 4:1.0 5:1.0 
1.0 1:0.05660377358490566 
1.0 1:0.11688311688311688 2:0.004047900151796256 3:0.03896103896103896 
1.0 3:0.08333333333333333 4:1.0 5:1.0 
1.0 1:0.05357142857142857 2:9.566326530612244E-4 3:0.017857142857142856 4:1.0 5:1.0 
1.0 1:0.043478260869565216 
1.0 1:0.045454545454545456 
1.0 1:0.03333333333333333 
1.0 1:0.08163265306122448 2:0.0024989587671803413 3:0.04081632653061224 4:1.0 5:1.0 
1.0 1:0.08571428571428572 
1.0 1:0.029411764705882353 2:8.650519031141869E-4 3:0.029411764705882353 4:1.0 5:1.0 
1.0 1:0.05357142857142857 2:0.002551020408163265 3:0.07142857142857142 
1.0 1:0.09090909090909091 2:0.0026446280991735535 3:0.07272727272727272 
1.0 1:0.08333333333333333 2:0.006944444444444444 3:0.08333333333333333 4:1.0 5:1.0 
1.0 1:0.08823529411764706 2:0.002595155709342561 3:0.029411764705882353 
1.0 1:0.17307692307692307 2:0.01183431952662722 3:0.07692307692307693 
1.0 1:0.14705882352941177 2:0.00865051903114187 3:0.11764705882352941 
1.0 1:0.16981132075471697 2:0.009967960128159486 3:0.07547169811320754 
1.0 1:0.1076923076923077 2:0.0042603550295857995 3:0.03076923076923077 
1.0 1:0.05405405405405406 2:0.0021913805697589485 3:0.02702702702702703 4:1.0 5:1.0 
1.0 1:0.13157894736842105 2:0.0027700831024930744 3:0.02631578947368421 
1.0 1:0.037037037037037035 2:6.858710562414266E-4 3:0.018518518518518517 
1.0 1:0.075 
1.0 1:0.07936507936507936 2:0.0022675736961451243 3:0.047619047619047616 4:1.0 5:1.0 
1.0 1:0.1125 2:0.0028125000000000003 3:0.025 
1.0 1:0.03773584905660377 
1.0 1:0.027777777777777776 2:7.716049382716049E-4 3:0.027777777777777776 
1.0 1:0.11363636363636363 2:0.0025826446280991736 3:0.022727272727272728 
1.0 1:0.08163265306122448 2:0.0033319450229071213 3:0.04081632653061224 
1.0 1:0.12307692307692308 2:0.0037869822485207105 3:0.06153846153846154 
1.0 1:0.20689655172413793 
1.0 1:0.07575757575757576 2:0.002066115702479339 3:0.045454545454545456 4:1.0 5:1.0 
1.0 1:0.20689655172413793 2:0.011890606420927468 3:0.1724137931034483 
1.0 1:0.10714285714285714 2:0.0038265306122448974 3:0.03571428571428571 
1.0 1:0.07291666666666667 2:0.005425347222222223 3:0.052083333333333336 
1.0 1:0.06521739130434782 2:0.0016540642722117202 3:0.021739130434782608 
1.0 1:0.10869565217391304 2:0.005671077504725897 3:0.08695652173913043 
1.0 1:0.2 2:0.0192 3:0.16 
1.0 1:0.17391304347826086 2:0.0037807183364839316 3:0.021739130434782608 
1.0 1:0.06557377049180328 2:0.0026874496103198066 3:0.03278688524590164 
1.0 1:0.022727272727272728 2:5.165289256198347E-4 3:0.022727272727272728 4:1.0 5:1.0 
1.0 1:0.06504065040650407 2:0.00198294665873488 3:0.04878048780487805 
1.0 1:0.0784313725490196 2:0.0015378700499807767 3:0.0196078431372549 
1.0 1:0.08235294117647059 2:0.002768166089965398 3:0.047058823529411764 
1.0 1:0.0784313725490196 
1.0 1:0.032520325203252036 
1.0 1:0.058823529411764705 2:0.006920415224913495 3:0.058823529411764705 4:1.0 5:1.0 
1.0 1:0.05357142857142857 2:0.0015943877551020409 3:0.017857142857142856 4:1.0 5:1.0 
1.0 1:0.0967741935483871 
1.0 1:0.10810810810810811 2:0.0036523009495982475 3:0.02702702702702703 4:1.0 5:1.0 
1.0 1:0.018867924528301886 2:7.119971520113919E-4 3:0.018867924528301886 4:1.0 5:1.0 
1.0 1:0.03571428571428571 2:4.591836734693878E-4 3:0.02142857142857143 
1.0 1:0.07246376811594203 2:8.401596303297627E-4 3:0.014492753623188406 
1.0 1:0.09701492537313433 2:0.0025061260859879702 3:0.03731343283582089 4:1.0 5:1.0 
1.0 1:0.0759493670886076 
1.0 3:0.047619047619047616 4:1.0 5:1.0 
1.0 1:0.05405405405405406 
1.0 1:0.09523809523809523 2:0.001511715797430083 3:0.015873015873015872 4:1.0 5:1.0 
1.0 1:0.07894736842105263 
1.0 1:0.13636363636363635 
1.0 1:0.009174311926605505 2:3.3667199730662403E-4 3:0.009174311926605505 4:1.0 5:1.0 
1.0 3:0.1111111111111111 4:1.0 5:1.0 
1.0 1:0.045454545454545456 2:0.0010330578512396695 3:0.022727272727272728 4:1.0 5:1.0 
1.0 1:0.18181818181818182 2:0.012396694214876032 3:0.13636363636363635 
1.0 1:0.12244897959183673 2:0.004997917534360683 3:0.12244897959183673 
1.0 1:0.1111111111111111 2:0.004050925925925926 3:0.09722222222222222 
1.0 1:0.02564102564102564 2:6.574621959237343E-4 3:0.02564102564102564 
1.0 1:0.11428571428571428 2:0.0021768707482993197 3:0.01904761904761905 
1.0 1:0.14285714285714285 3:0.14285714285714285 
1.0 1:0.061224489795918366 2:0.0016659725114535606 3:0.02040816326530612 4:1.0 5:1.0 
1.0 1:0.16129032258064516 2:0.006243496357960458 3:0.06451612903225806 
1.0 1:0.1794871794871795 2:0.009861932938856016 3:0.1282051282051282 
1.0 1:0.2 2:0.0128 3:0.16 
1.0 1:0.15384615384615385 2:0.007396449704142012 3:0.038461538461538464 
1.0 1:0.10638297872340426 2:0.0027161611588954276 3:0.0425531914893617 
1.0 1:0.08108108108108109 
1.0 1:0.06382978723404255 2:0.0018107741059302852 3:0.0425531914893617 
1.0 1:0.08108108108108109 
1.0 1:0.017543859649122806 2:1.538935056940597E-4 3:0.017543859649122806 4:1.0 5:1.0 
1.0 1:0.01694915254237288 2:2.872737719046251E-4 3:0.01694915254237288 
1.0 1:0.10526315789473684 2:0.0027700831024930744 3:0.07894736842105263 
1.0 1:0.061855670103092786 2:9.565309809756616E-4 3:0.030927835051546393 
1.0 1:0.07575757575757576 2:0.002295684113865932 3:0.030303030303030304 4:1.0 5:1.0 
1.0 1:0.030927835051546393 2:9.565309809756616E-4 3:0.030927835051546393 4:1.0 5:1.0 
1.0 1:0.04201680672268908 2:1.76541204717181E-4 3:0.004201680672268907 
1.0 1:0.056962025316455694 2:6.409229290177856E-4 3:0.012658227848101266 
1.0 1:0.05825242718446602 2:0.0014138938637006315 3:0.02912621359223301 4:1.0 5:1.0 
1.0 1:0.08823529411764706 
1.0 1:0.039473684210526314 2:0.0015581717451523544 3:0.039473684210526314 
1.0 1:0.0673076923076923 2:0.001849112426035503 3:0.04807692307692308 
1.0 1:0.05263157894736842 2:0.0010387811634349029 3:0.039473684210526314 
1.0 1:0.06578947368421052 2:8.656509695290857E-4 3:0.06578947368421052 
1.0 1:0.061224489795918366 2:0.0016659725114535606 3:0.04081632653061224 
1.0 1:0.11475409836065574 2:0.006718624025799516 3:0.08196721311475409 
1.0 2:4.7258979206049145E-4 3:0.021739130434782608 4:1.0 5:1.0 
1.0 1:0.109375 2:0.00244140625 3:0.03125 
1.0 1:0.06666666666666667 2:0.0013888888888888887 3:0.041666666666666664 
1.0 1:0.20512820512820512 2:0.01972386587771203 3:0.1282051282051282 
1.0 1:0.15789473684210525 2:0.006925207756232686 3:0.05263157894736842 
1.0 1:0.1111111111111111 2:0.0054869684499314125 3:0.07407407407407407 
1.0 1:0.046511627906976744 2:0.0021633315305570576 3:0.046511627906976744 4:1.0 5:1.0 
1.0 1:0.03636363636363636 2:6.611570247933884E-4 3:0.01818181818181818 4:1.0 5:1.0 
1.0 1:0.07272727272727272 
1.0 1:0.043478260869565216 2:9.451795841209829E-4 3:0.021739130434782608 4:1.0 5:1.0 
1.0 1:0.06896551724137931 2:0.0023781212841854932 3:0.034482758620689655 4:1.0 5:1.0 
1.0 1:0.037037037037037035 2:0.0010288065843621398 3:0.018518518518518517 4:1.0 5:1.0 
1.0 1:0.017241379310344827 2:2.9726516052318666E-4 3:0.017241379310344827 4:1.0 5:1.0 
1.0 1:0.06896551724137931 
1.0 1:0.08620689655172414 2:0.0014863258026159335 3:0.017241379310344827 
1.0 1:0.014925373134328358 2:2.227667631989307E-4 3:0.014925373134328358 4:1.0 5:1.0 
1.0 1:0.06756756756756757 2:0.002921840759678598 3:0.05405405405405406 
1.0 1:0.038461538461538464 2:9.861932938856016E-4 3:0.038461538461538464 
1.0 1:0.09859154929577464 2:0.0023804800634794686 3:0.04225352112676056 
1.0 1:0.13333333333333333 2:0.003950617283950617 3:0.044444444444444446 
1.0 1:0.05357142857142857 2:0.002551020408163265 3:0.03571428571428571 4:1.0 5:1.0 
1.0 1:0.07042253521126761 2:0.0011902400317397343 3:0.014084507042253521 4:1.0 5:1.0 
1.0 1:0.08888888888888889 2:0.0024691358024691358 3:0.022222222222222223 4:1.0 5:1.0 
1.0 1:0.016666666666666666 2:0.0011111111111111111 3:0.03333333333333333 4:1.0 5:1.0 
1.0 1:0.04878048780487805 2:0.001189767995240928 3:0.024390243902439025 4:1.0 5:1.0 
1.0 1:0.05 2:8.333333333333334E-4 3:0.016666666666666666 
1.0 1:0.06097560975609756 2:9.295062462819749E-4 3:0.03048780487804878 
1.0 1:0.11538461538461539 2:0.002958579881656805 3:0.07692307692307693 
1.0 1:0.12195121951219512 2:0.0029744199881023203 3:0.024390243902439025 
1.0 1:0.021164021164021163 2:0.0010078105316200553 3:0.031746031746031744 4:1.0 5:1.0 
1.0 1:0.026455026455026454 
1.0 1:0.054878048780487805 2:0.0029744199881023203 3:0.04878048780487805 
1.0 1:0.042328042328042326 2:6.718736877467036E-4 3:0.015873015873015872 
1.0 1:0.12371134020618557 2:0.005101498565203528 3:0.12371134020618557 
1.0 1:0.1111111111111111 2:0.004115226337448559 3:0.1111111111111111 
1.0 1:0.10218978102189781 2:7.459108103788162E-4 3:0.0072992700729927005 
1.0 1:0.043478260869565216 2:0.0037807183364839316 3:0.043478260869565216 4:1.0 5:1.0 
1.0 1:0.04807692307692308 2:7.396449704142013E-4 3:0.019230769230769232 
1.0 1:0.06569343065693431 2:0.0012787042463636847 3:0.021897810218978103 
1.0 1:0.10218978102189781 2:0.003196760615909212 3:0.029197080291970802 
1.0 1:0.12195121951219512 2:0.005948839976204641 3:0.04878048780487805 
1.0 1:0.07407407407407407 2:0.0020576131687242796 3:0.037037037037037035 
1.0 1:0.1 2:0.0025000000000000005 3:0.05 
1.0 1:0.06779661016949153 2:0.0014363688595231256 3:0.01694915254237288 
1.0 1:0.06593406593406594 
1.0 1:0.12727272727272726 2:0.00793388429752066 3:0.07272727272727272 
1.0 1:0.03571428571428571 2:0.0012755102040816326 3:0.03571428571428571 
1.0 1:0.0975609756097561 2:0.002379535990481856 3:0.024390243902439025 
1.0 1:0.15625 2:0.0078125 3:0.125 
1.0 1:0.16666666666666666 2:0.003968253968253968 3:0.16666666666666666 
1.0 1:0.0967741935483871 2:0.003121748178980229 3:0.03225806451612903 
1.0 1:0.11764705882352941 2:0.01384083044982699 3:0.11764705882352941 
1.0 1:0.08823529411764706 2:0.002595155709342561 3:0.029411764705882353 4:1.0 5:1.0 
1.0 1:0.06666666666666667 4:1.0 
1.0 1:0.07692307692307693 
1.0 1:0.05263157894736842 3:0.10526315789473684 4:1.0 5:1.0 
1.0 1:0.17647058823529413 
1.0 1:0.02127659574468085 2:3.3952014486192844E-4 3:0.010638297872340425 4:1.0 5:1.0 
1.0 1:0.07853403141361257 2:0.0015350456401962665 3:0.07329842931937172 
1.0 1:0.06172839506172839 2:0.0013717421124828531 3:0.037037037037037035 
1.0 1:0.05405405405405406 2:7.304601899196495E-4 3:0.013513513513513514 
1.0 1:0.05405405405405406 2:5.478451424397371E-4 3:0.013513513513513514 
1.0 1:0.18604651162790697 2:0.0037858301784748517 3:0.16279069767441862 
1.0 1:0.075 2:0.0025000000000000005 3:0.1 4:1.0 5:1.0 
1.0 1:0.08547008547008547 2:0.0020454379428738404 3:0.05982905982905983 4:1.0 5:1.0 
1.0 1:0.08139534883720931 
1.0 1:0.08823529411764706 2:0.0010813148788927337 3:0.07352941176470588 
1.0 1:0.15384615384615385 
1.0 1:0.014705882352941176 2:2.1626297577854672E-4 3:0.014705882352941176 4:1.0 5:1.0 
1.0 1:0.02564102564102564 3:0.05128205128205128 4:1.0 5:1.0 
1.0 1:0.06060606060606061 2:9.182736455463729E-4 3:0.015151515151515152 4:1.0 5:1.0 
1.0 1:0.045454545454545456 
1.0 1:0.022727272727272728 2:5.165289256198347E-4 3:0.022727272727272728 4:1.0 5:1.0 
1.0 1:0.015151515151515152 
1.0 1:0.12727272727272726 2:0.006198347107438016 3:0.045454545454545456 
1.0 1:0.10483870967741936 2:0.0033818938605619147 3:0.03225806451612903 
1.0 1:0.1 2:0.002 3:0.02 4:1.0 5:1.0 
1.0 1:0.09090909090909091 
1.0 1:0.07317073170731707 
1.0 1:0.05128205128205128 
1.0 1:0.12345679012345678 2:0.006858710562414265 3:0.1111111111111111 
1.0 1:0.0967741935483871 2:0.0023413111342351716 3:0.024193548387096774 
1.0 1:0.09523809523809523 
1.0 1:0.03571428571428571 
1.0 1:0.047619047619047616 2:7.558578987150415E-4 3:0.015873015873015872 4:1.0 5:1.0 
1.0 1:0.043478260869565216 2:0.0037807183364839316 3:0.043478260869565216 4:1.0 5:1.0 
1.0 1:0.01818181818181818 2:3.305785123966942E-4 3:0.01818181818181818 4:1.0 5:1.0 
1.0 1:0.02666666666666667 2:3.555555555555556E-4 3:0.013333333333333334 4:1.0 5:1.0 
1.0 1:0.03636363636363636 
1.0 1:0.14705882352941177 2:0.0021626297577854673 3:0.014705882352941176 
1.0 1:0.13513513513513514 2:0.007304601899196495 3:0.13513513513513514 
1.0 1:0.10891089108910891 2:0.003529065777864915 3:0.039603960396039604 
1.0 1:0.08641975308641975 2:0.003048315805517451 3:0.06172839506172839 
1.0 1:0.08695652173913043 2:0.002100399075824407 3:0.028985507246376812 
1.0 1:0.04950495049504951 2:3.921184197627684E-4 3:0.009900990099009901 
1.0 1:0.0945945945945946 2:0.002921840759678598 3:0.05405405405405406 
1.0 1:0.13793103448275862 2:0.004161712247324614 3:0.034482758620689655 
1.0 1:0.06796116504854369 
1.0 1:0.0970873786407767 2:0.0030163069092280135 3:0.038834951456310676 
1.0 1:0.02702702702702703 
1.0 1:0.12195121951219512 
1.0 1:0.06779661016949153 
1.0 1:0.05333333333333334 2:0.0017777777777777779 3:0.02666666666666667 4:1.0 5:1.0 
1.0 1:0.08823529411764706 2:0.003243944636678201 3:0.04411764705882353 4:1.0 5:1.0 
1.0 3:0.1111111111111111 4:1.0 5:1.0 
1.0 1:0.022222222222222223 
1.0 1:0.037037037037037035 2:6.858710562414266E-4 3:0.018518518518518517 4:1.0 5:1.0 
1.0 1:0.05263157894736842 2:0.0013850415512465372 3:0.02631578947368421 4:1.0 5:1.0 
1.0 1:0.13725490196078433 2:0.008073817762399078 3:0.058823529411764705 
1.0 1:0.07407407407407407 2:0.0027434842249657062 3:0.07407407407407407 
1.0 1:0.05263157894736842 2:0.0041551246537396115 3:0.05263157894736842 
1.0 1:0.06896551724137931 2:0.007134363852556481 3:0.06896551724137931 
1.0 1:0.09230769230769231 2:0.0014201183431952664 3:0.09230769230769231 
1.0 1:0.09523809523809523 2:0.0012597631645250692 3:0.07936507936507936 
1.0 1:0.05555555555555555 2:0.0029629629629629632 3:0.03333333333333333 4:1.0 5:1.0 
1.0 1:0.029850746268656716 2:6.683002895967921E-4 3:0.014925373134328358 4:1.0 5:1.0 
1.0 3:0.05263157894736842 4:1.0 5:1.0 
1.0 1:0.04672897196261682 2:0.001048126473927854 3:0.037383177570093455 4:1.0 5:1.0 
1.0 1:0.15384615384615385 2:0.00591715976331361 3:0.038461538461538464 
1.0 1:0.07777777777777778 2:0.0017283950617283952 3:0.022222222222222223 
1.0 1:0.13333333333333333 2:0.007901234567901235 3:0.08888888888888889 
1.0 1:0.08695652173913043 2:0.002520478890989288 3:0.043478260869565216 
1.0 1:0.058823529411764705 2:0.0012975778546712804 3:0.029411764705882353 4:1.0 5:1.0 
1.0 1:0.10909090909090909 2:0.004049586776859503 3:0.06363636363636363 
1.0 1:0.07954545454545454 
1.0 1:0.14150943396226415 2:0.003203987184051264 3:0.11320754716981132 
1.0 1:0.15625 2:0.0078125 3:0.125 
1.0 1:0.07894736842105263 3:0.07894736842105263 
1.0 1:0.0975609756097561 3:0.0975609756097561 
1.0 1:0.1568627450980392 2:0.0076893502499038825 3:0.09803921568627451 
1.0 1:0.07352941176470588 2:0.002595155709342561 3:0.058823529411764705 
1.0 1:0.0625 2:0.001875 3:0.0375 
1.0 1:0.21052631578947367 2:0.004847645429362881 3:0.18421052631578946 
1.0 1:0.16260162601626016 2:0.00793178663493952 3:0.04878048780487805 
1.0 1:0.088 2:0.00192 3:0.024 
1.0 1:0.08571428571428572 2:0.0024489795918367346 3:0.04285714285714286 
1.0 1:0.12745098039215685 2:0.0034602076124567475 3:0.08823529411764706 
1.0 1:0.07142857142857142 2:0.0012755102040816326 3:0.03571428571428571 
1.0 1:0.0975609756097561 2:0.003569303985722784 3:0.04878048780487805 
1.0 1:0.06779661016949153 2:0.0011490950876185005 3:0.01694915254237288 
1.0 1:0.0975609756097561 2:0.003569303985722784 3:0.04878048780487805 
1.0 1:0.06779661016949153 2:0.0011490950876185005 3:0.01694915254237288 
0.044881867034693004 1:0.1111111111111111 2:0.004115226337448559 3:0.037037037037037035 4:1.0 5:1.0 
1.0 1:0.1016949152542373 2:0.0043091065785693765 3:0.05084745762711865 5:1.0 
1.0 1:0.047619047619047616 2:0.0017006802721088433 3:0.023809523809523808 4:1.0 5:1.0 
1.0 1:0.0425531914893617 2:9.053870529651426E-4 3:0.02127659574468085 4:1.0 5:1.0 
1.0 1:0.057692307692307696 
1.0 3:0.14285714285714285 4:1.0 5:1.0 
1.0 1:0.10714285714285714 2:0.002869897959183673 3:0.05357142857142857 
1.0 1:0.0625 2:9.765625E-4 3:0.0625 
1.0 1:0.0392156862745098 2:7.689350249903883E-4 3:0.0196078431372549 4:1.0 5:1.0 
1.0 1:0.025 2:6.250000000000001E-4 3:0.025 4:1.0 5:1.0 
1.0 1:0.058823529411764705 2:0.002595155709342561 3:0.029411764705882353 4:1.0 5:1.0 
1.0 3:0.09090909090909091 4:1.0 5:1.0 
1.0 1:0.022727272727272728 
0.24810817237773586 1:0.1111111111111111 2:0.004115226337448559 3:0.037037037037037035 4:1.0 5:1.0 
1.0 1:0.043478260869565216 2:6.30119722747322E-4 3:0.014492753623188406 4:1.0 5:1.0 
1.0 1:0.023809523809523808 2:0.0011337868480725622 3:0.023809523809523808 4:1.0 5:1.0 
1.0 1:0.11320754716981132 
1.0 1:0.03773584905660377 
1.0 1:0.023809523809523808 
1.0 1:0.06666666666666667 2:0.0033333333333333335 3:0.03333333333333333 4:1.0 5:1.0 
1.0 1:0.05970149253731343 2:0.0011138338159946534 3:0.014925373134328358 4:1.0 5:1.0 
1.0 1:0.08108108108108109 
1.0 1:0.05714285714285714 
1.0 1:0.17142857142857143 2:0.011428571428571429 3:0.05714285714285714 
1.0 1:0.07142857142857142 2:0.0028344671201814054 3:0.023809523809523808 4:1.0 5:1.0 
1.0 1:0.1111111111111111 2:0.002400548696844993 3:0.018518518518518517 4:1.0 5:1.0 
1.0 1:0.12222222222222222 2:0.0037037037037037034 3:0.06666666666666667 
1.0 1:0.0782608695652174 2:6.049149338374292E-4 3:0.008695652173913044 
1.0 1:0.03333333333333333 2:5.555555555555556E-4 3:0.016666666666666666 4:1.0 5:1.0 
1.0 1:0.050505050505050504 2:8.162432404856648E-4 3:0.04040404040404041 
1.0 1:0.08620689655172414 2:0.0014863258026159335 3:0.08620689655172414 5:1.0 
1.0 1:0.06666666666666667 2:0.0011111111111111111 3:0.016666666666666666 4:1.0 5:1.0 
1.0 1:0.07547169811320754 
1.0 1:0.06349206349206349 2:7.558578987150415E-4 3:0.015873015873015872 
1.0 1:0.09523809523809523 2:0.003023431594860166 3:0.031746031746031744 4:1.0 5:1.0 
1.0 1:0.057692307692307696 2:0.0011094674556213018 3:0.019230769230769232 4:1.0 5:1.0 
1.0 1:0.12195121951219512 
1.0 1:0.0967741935483871 2:0.003902185223725286 3:0.04838709677419355 
1.0 1:0.0641025641025641 2:9.861932938856016E-4 3:0.01282051282051282 4:1.0 5:1.0 
1.0 1:0.0891089108910891 2:7.842368395255368E-4 3:0.009900990099009901 
1.0 1:0.12195121951219512 
1.0 1:0.0625 2:0.0026041666666666665 3:0.0625 4:1.0 5:1.0 
1.0 1:0.0728476821192053 2:0.0024121749046094472 3:0.0728476821192053 
1.0 1:0.12582781456953643 2:0.002236744002456033 3:0.11258278145695365 
1.0 1:0.11510791366906475 2:0.0021738005279229853 3:0.10071942446043165 
1.0 1:0.12582781456953643 2:0.004999780711372309 3:0.12582781456953643 
1.0 1:0.15425531914893617 2:0.003536668175645088 3:0.13297872340425532 
1.0 1:0.06756756756756757 2:9.130752373995619E-4 3:0.06756756756756757 
1.0 1:0.02247191011235955 2:2.524933720489837E-4 3:0.02247191011235955 
1.0 1:0.18604651162790697 2:0.006489994591671174 3:0.13953488372093023 
1.0 1:0.07894736842105263 2:0.0020775623268698058 3:0.02631578947368421 
1.0 1:0.09375 2:0.0029296875 3:0.03125 4:1.0 5:1.0 
1.0 1:0.16279069767441862 2:0.0037858301784748517 3:0.023255813953488372 
1.0 1:0.07228915662650602 2:7.257947452460444E-4 3:0.012048192771084338 
1.0 1:0.078125 2:0.00439453125 3:0.09375 4:1.0 5:1.0 
1.0 1:0.04938271604938271 2:9.144947416552353E-4 3:0.024691358024691357 
1.0 1:0.043010752688172046 2:0.0011562030292519368 3:0.053763440860215055 
1.0 1:0.17647058823529413 2:0.012975778546712804 3:0.14705882352941177 
1.0 1:0.10638297872340426 
1.0 1:0.07575757575757576 
1.0 1:0.13333333333333333 2:0.0059259259259259265 3:0.08888888888888889 
1.0 1:0.09615384615384616 2:0.003698224852071006 3:0.038461538461538464 
1.0 1:0.0784313725490196 3:0.0784313725490196 
1.0 1:0.13636363636363635 2:0.004132231404958678 3:0.09090909090909091 
1.0 1:0.030303030303030304 2:9.182736455463729E-4 3:0.030303030303030304 4:1.0 5:1.0 
1.0 1:0.10810810810810811 2:0.002921840759678598 3:0.02702702702702703 
1.0 1:0.12686567164179105 2:0.00623746936957006 3:0.05970149253731343 
1.0 1:0.14102564102564102 2:0.008875739644970414 3:0.07692307692307693 
1.0 1:0.09701492537313433 2:0.0038984183559812873 3:0.05223880597014925 
1.0 1:0.0898876404494382 2:0.0037874005807347557 3:0.06741573033707865 
1.0 1:0.047619047619047616 2:9.070294784580499E-4 3:0.01904761904761905 
1.0 1:0.09090909090909091 2:0.0025826446280991736 3:0.022727272727272728 4:1.0 5:1.0 
1.0 1:0.05 2:0.0012500000000000002 3:0.025 4:1.0 5:1.0 
1.0 1:0.045454545454545456 2:0.0010330578512396695 3:0.022727272727272728 4:1.0 5:1.0 
1.0 1:0.15151515151515152 2:0.004591368227731864 3:0.030303030303030304 
1.0 1:0.1 2:0.0027777777777777775 3:0.03333333333333333 4:1.0 5:1.0 
1.0 1:0.08 
1.0 1:0.07246376811594203 2:8.401596303297627E-4 3:0.057971014492753624 
1.0 1:0.1388888888888889 2:0.004629629629629629 3:0.05555555555555555 
1.0 1:0.1076923076923077 2:0.0047337278106508885 3:0.07692307692307693 
1.0 1:0.1388888888888889 2:0.0030864197530864196 3:0.1111111111111111 
1.0 1:0.058823529411764705 3:0.08823529411764706 4:1.0 5:1.0 
1.0 1:0.03508771929824561 2:0.0018467220683287162 3:0.05263157894736842 4:1.0 5:1.0 
1.0 1:0.01694915254237288 2:2.872737719046251E-4 3:0.01694915254237288 4:1.0 5:1.0 
1.0 1:0.05263157894736842 3:0.10526315789473684 4:1.0 5:1.0 
1.0 1:0.02531645569620253 
1.0 1:0.023255813953488372 
1.0 1:0.01694915254237288 
1.0 1:0.02531645569620253 2:3.204614645088928E-4 3:0.012658227848101266 4:1.0 5:1.0 
1.0 1:0.12987012987012986 2:0.010794400404790017 3:0.1038961038961039 
1.0 1:0.11267605633802817 2:0.008331680222178138 3:0.09859154929577464 
1.0 1:0.09322033898305085 2:0.0034472852628555017 3:0.05084745762711865 4:1.0 5:1.0 
1.0 1:0.09322033898305085 2:0.0032318299339270324 3:0.07627118644067797 
1.0 1:0.0875 2:0.00375 3:0.075 
1.0 1:0.06944444444444445 2:0.0011574074074074073 3:0.013888888888888888 
1.0 1:0.06521739130434782 2:0.0018903591682419658 3:0.021739130434782608 
1.0 1:0.034482758620689655 2:0.0011890606420927466 3:0.034482758620689655 4:1.0 5:1.0 
1.0 1:0.0847457627118644 2:0.002010916403332376 3:0.059322033898305086 
1.0 1:0.1 
1.0 1:0.0423728813559322 2:8.618213157138754E-4 3:0.03389830508474576 4:1.0 5:1.0 
1.0 1:0.0967741935483871 2:0.004162330905306971 3:0.03225806451612903 4:1.0 5:1.0 
1.0 1:0.02702702702702703 2:7.304601899196495E-4 3:0.02702702702702703 
1.0 1:0.021739130434782608 2:4.7258979206049145E-4 3:0.021739130434782608 
1.0 1:0.08333333333333333 2:0.003472222222222222 3:0.041666666666666664 4:1.0 5:1.0 
1.0 1:0.043478260869565216 
1.0 1:0.09090909090909091 
1.0 1:0.05357142857142857 2:9.566326530612244E-4 3:0.017857142857142856 4:1.0 5:1.0 
1.0 1:0.038461538461538464 
1.0 1:0.05844155844155844 
1.0 1:0.1 
1.0 1:0.07272727272727272 2:0.003305785123966942 3:0.09090909090909091 4:1.0 5:1.0 
1.0 1:0.12345679012345678 2:0.009602194787379972 3:0.1111111111111111 
1.0 1:0.08888888888888889 2:0.005185185185185185 3:0.07777777777777778 
1.0 1:0.12345679012345678 2:0.004572473708276177 3:0.06172839506172839 
1.0 1:0.06172839506172839 2:0.0015241579027587256 3:0.024691358024691357 4:1.0 5:1.0 
1.0 1:0.10204081632653061 2:0.005206164098292379 3:0.05102040816326531 
1.0 1:0.08888888888888889 2:0.0049382716049382715 3:0.05555555555555555 
1.0 1:0.0893854748603352 2:0.0018726007303142848 3:0.0223463687150838 
1.0 1:0.1276595744680851 2:0.009053870529651425 3:0.10638297872340426 
1.0 1:0.06097560975609756 2:0.0013384889946460438 3:0.036585365853658534 
1.0 1:0.030927835051546393 2:8.502497608672547E-4 3:0.020618556701030927 4:1.0 5:1.0 
1.0 3:0.16666666666666666 4:1.0 5:1.0 
1.0 1:0.1 
1.0 1:0.07272727272727272 2:0.001983471074380165 3:0.05454545454545454 4:1.0 5:1.0 
1.0 1:0.0821917808219178 2:0.0022518296115593916 3:0.0821917808219178 4:1.0 5:1.0 
1.0 1:0.17647058823529413 
1.0 1:0.02 3:0.06 4:1.0 5:1.0 
1.0 1:0.030303030303030304 3:0.06060606060606061 4:1.0 5:1.0 
1.0 1:0.0975609756097561 2:0.007138607971445568 3:0.0975609756097561 
1.0 1:0.029411764705882353 2:0.0017301038062283738 3:0.029411764705882353 
1.0 1:0.06382978723404255 
1.0 1:0.061224489795918366 
1.0 1:0.010638297872340425 
1.0 1:0.12 2:0.0064 3:0.04 
1.0 1:0.0425531914893617 2:0.0011317338162064282 3:0.02127659574468085 
1.0 1:0.16666666666666666 2:0.027777777777777776 3:0.16666666666666666 
1.0 1:0.12121212121212122 
1.0 1:0.022727272727272728 2:0.0010330578512396695 3:0.022727272727272728 4:1.0 5:1.0 
1.0 1:0.08888888888888889 
1.0 1:0.16666666666666666 
1.0 3:0.09090909090909091 4:1.0 5:1.0 
1.0 1:0.09090909090909091 2:0.0036157024793388426 3:0.05303030303030303 
1.0 1:0.0782608695652174 2:0.0026465028355387526 3:0.06086956521739131 
1.0 1:0.1259259259259259 2:0.0038408779149519887 3:0.1037037037037037 
1.0 1:0.07142857142857142 2:0.001763668430335097 3:0.031746031746031744 
1.0 1:0.09523809523809523 2:0.0034013605442176865 3:0.07142857142857142 
1.0 1:0.12903225806451613 
1.0 1:0.2 2:0.0077777777777777776 3:0.03333333333333333 
1.0 1:0.09523809523809523 2:0.004535147392290249 3:0.047619047619047616 
1.0 1:0.022727272727272728 2:0.0010330578512396695 3:0.022727272727272728 
1.0 1:0.15789473684210525 
1.0 1:0.1 
1.0 1:0.0449438202247191 2:7.574801161469512E-4 3:0.02247191011235955 4:1.0 5:1.0 
1.0 1:0.04838709677419355 2:0.0015608740894901144 3:0.04838709677419355 4:1.0 5:1.0 
1.0 1:0.022727272727272728 2:2.5826446280991736E-4 3:0.022727272727272728 5:1.0 
1.0 1:0.06349206349206349 2:0.001511715797430083 3:0.031746031746031744 4:1.0 5:1.0 
1.0 1:0.011363636363636364 2:2.5826446280991736E-4 3:0.011363636363636364 
1.0 1:0.07792207792207792 2:0.001180637544273908 3:0.012987012987012988 4:1.0 5:1.0 
1.0 1:0.01875 2:1.171875E-4 3:0.00625 4:1.0 5:1.0 
1.0 1:0.03896103896103896 2:5.05987518974532E-4 3:0.012987012987012988 
1.0 1:0.058823529411764705 
1.0 1:0.03896103896103896 
1.0 1:0.051470588235294115 2:4.3252595155709344E-4 3:0.007352941176470588 
1.0 1:0.04878048780487805 
1.0 1:0.0423728813559322 2:4.309106578569377E-4 3:0.025423728813559324 
1.0 1:0.125 2:0.003472222222222222 3:0.041666666666666664 
1.0 1:0.03389830508474576 2:4.309106578569377E-4 3:0.025423728813559324 
1.0 1:0.046875 2:7.32421875E-4 3:0.046875 
1.0 1:0.0975609756097561 
1.0 1:0.03225806451612903 
1.0 1:0.030303030303030304 
1.0 1:0.038461538461538464 
1.0 1:0.10638297872340426 
1.0 1:0.024390243902439025 3:0.04878048780487805 4:1.0 5:1.0 
1.0 1:0.019230769230769232 3:0.019230769230769232 
1.0 1:0.0684931506849315 2:0.001876524676299493 3:0.0273972602739726 4:1.0 5:1.0 
1.0 1:0.05128205128205128 2:0.0014792899408284025 3:0.038461538461538464 4:1.0 5:1.0 
1.0 1:0.1111111111111111 2:0.002438652644413961 3:0.024691358024691357 
1.0 1:0.06666666666666667 2:0.0013888888888888887 3:0.016666666666666666 4:1.0 5:1.0 
1.0 1:0.04285714285714286 
1.0 1:0.04285714285714286 2:8.163265306122448E-4 3:0.014285714285714285 4:1.0 5:1.0 
1.0 1:0.06976744186046512 2:0.003244997295835587 3:0.046511627906976744 
1.0 1:0.011235955056179775 2:2.524933720489837E-4 3:0.02247191011235955 4:1.0 5:1.0 
1.0 3:0.02631578947368421 4:1.0 5:1.0 
1.0 1:0.05 3:0.1 4:1.0 5:1.0 
1.0 1:0.043859649122807015 2:5.386272699292089E-4 3:0.008771929824561403 4:1.0 5:1.0 
1.0 1:0.047619047619047616 2:0.0011337868480725622 3:0.023809523809523808 4:1.0 5:1.0 
1.0 1:0.030303030303030304 2:9.182736455463729E-4 3:0.030303030303030304 4:1.0 5:1.0 
1.0 1:0.019230769230769232 
1.0 1:0.058823529411764705 2:0.0034602076124567475 3:0.058823529411764705 4:1.0 5:1.0 
1.0 1:0.16666666666666666 
1.0 1:0.1111111111111111 
1.0 1:0.04 2:0.0032 3:0.04 
1.0 1:0.08823529411764706 2:0.005190311418685122 3:0.058823529411764705 
1.0 1:0.05660377358490566 2:7.119971520113919E-4 3:0.018867924528301886 
1.0 1:0.07272727272727272 2:9.917355371900824E-4 3:0.05454545454545454 
1.0 1:0.1095890410958904 2:0.005629574028898479 3:0.0821917808219178 
1.0 1:0.17857142857142858 2:0.01913265306122449 3:0.17857142857142858 
1.0 1:0.06451612903225806 2:0.0020811654526534857 3:0.03225806451612903 4:1.0 5:1.0 
1.0 1:0.05555555555555555 2:0.0012193263222069805 3:0.024691358024691357 
1.0 1:0.04878048780487805 2:3.304911097891467E-4 3:0.008130081300813009 
1.0 1:0.1796875 2:0.00701904296875 3:0.1796875 
1.0 1:0.08152173913043478 2:0.0018903591682419658 3:0.021739130434782608 
1.0 1:0.05084745762711865 2:0.0011490950876185005 3:0.022598870056497175 4:1.0 5:1.0 
1.0 1:0.04487179487179487 2:0.0016436554898093358 3:0.03205128205128205 
1.0 1:0.05194805194805195 2:0.0021082813290605493 3:0.032467532467532464 
1.0 1:0.0847457627118644 2:0.0022343515592581956 3:0.05649717514124294 4:1.0 5:1.0 
1.0 1:0.08333333333333333 2:0.0020545693622616695 3:0.0641025641025641 4:1.0 5:1.0 
1.0 1:0.09090909090909091 
1.0 1:0.08333333333333333 2:0.003472222222222222 3:0.041666666666666664 
1.0 1:0.05714285714285714 2:0.0065306122448979586 3:0.05714285714285714 
1.0 1:0.1111111111111111 2:0.0023148148148148147 3:0.08333333333333333 
1.0 1:0.08823529411764706 2:0.0017301038062283738 3:0.029411764705882353 
1.0 1:0.11764705882352941 2:0.005190311418685122 3:0.04411764705882353 
1.0 1:0.1111111111111111 2:0.0020576131687242796 3:0.1111111111111111 
1.0 1:0.07142857142857142 2:0.001020408163265306 3:0.014285714285714285 
1.0 1:0.02962962962962963 2:3.292181069958848E-4 3:0.022222222222222223 
1.0 1:0.13636363636363635 2:0.006198347107438016 3:0.13636363636363635 
1.0 1:0.13157894736842105 2:0.011080332409972297 3:0.10526315789473684 
1.0 1:0.034482758620689655 2:5.945303210463733E-4 3:0.017241379310344827 4:1.0 5:1.0 
1.0 1:0.015625 2:4.8828125E-4 3:0.015625 4:1.0 5:1.0 
1.0 1:0.02127659574468085 2:2.2634676324128565E-4 3:0.010638297872340425 4:1.0 5:1.0 
1.0 1:0.07692307692307693 2:0.001849112426035503 3:0.019230769230769232 4:1.0 5:1.0 
1.0 1:0.031914893617021274 
1.0 3:0.0625 4:1.0 5:1.0 
1.0 3:0.01694915254237288 4:1.0 5:1.0 
1.0 3:0.02631578947368421 4:1.0 5:1.0 
1.0 1:0.043478260869565216 2:0.0018903591682419658 3:0.043478260869565216 4:1.0 5:1.0 
1.0 1:0.04225352112676056 2:7.934933544931561E-4 3:0.028169014084507043 4:1.0 5:1.0 
1.0 1:0.009009009009009009 
1.0 1:0.03355704697986577 2:2.702580964821404E-4 3:0.006711409395973154 4:1.0 5:1.0 
1.0 1:0.009009009009009009 2:8.116224332440549E-5 3:0.009009009009009009 4:1.0 5:1.0 
1.0 3:0.01639344262295082 4:1.0 5:1.0 
1.0 1:0.03355704697986577 2:2.702580964821404E-4 3:0.006711409395973154 4:1.0 5:1.0 
1.0 1:0.02617801047120419 2:1.6446917573531428E-4 3:0.005235602094240838 4:1.0 5:1.0 
1.0 1:0.07936507936507936 2:0.0010078105316200553 3:0.06349206349206349 
1.0 1:0.2727272727272727 
1.0 1:0.08270676691729323 2:0.0010175815478545988 3:0.015037593984962405 
1.0 1:0.11206896551724138 2:9.661117717003567E-4 3:0.008620689655172414 4:1.0 5:1.0 
1.0 1:0.10638297872340426 
1.0 1:0.04081632653061224 2:8.329862557267803E-4 3:0.02040816326530612 4:1.0 5:1.0 
1.0 1:0.07692307692307693 2:0.0019723865877712033 3:0.07692307692307693 4:1.0 5:1.0 
1.0 1:0.19230769230769232 2:0.007396449704142012 3:0.038461538461538464 
1.0 1:0.02531645569620253 2:3.204614645088928E-4 3:0.012658227848101266 4:1.0 5:1.0 
1.0 1:0.05128205128205128 2:0.0013149243918474686 3:0.02564102564102564 4:1.0 5:1.0 
1.0 1:0.09433962264150944 2:0.004983980064079743 3:0.03773584905660377 
1.0 1:0.07407407407407407 2:0.0054869684499314125 3:0.07407407407407407 
1.0 1:0.07317073170731707 2:0.005353955978584175 3:0.07317073170731707 
1.0 1:0.16981132075471697 2:0.0037973181440607573 3:0.1509433962264151 
1.0 1:0.13253012048192772 2:0.0018709375655231366 3:0.11646586345381527 
1.0 3:0.2 4:1.0 5:1.0 
1.0 1:0.08333333333333333 2:0.004629629629629629 3:0.05555555555555555 
1.0 1:0.057692307692307696 2:0.0022189349112426036 3:0.038461538461538464 
0.29408180079841617 1:0.22727272727272727 2:0.03305785123966942 3:0.18181818181818182 
1.0 1:0.09090909090909091 2:0.00387396694214876 3:0.056818181818181816 
1.0 1:0.11538461538461539 2:0.0055473372781065095 3:0.057692307692307696 
1.0 1:0.09090909090909091 2:0.0018078512396694215 3:0.022727272727272728 
1.0 1:0.0898876404494382 2:0.0020199469763918696 3:0.0449438202247191 
1.0 1:0.056179775280898875 2:7.574801161469512E-4 3:0.02247191011235955 
1.0 1:0.08695652173913043 2:0.0023629489603024575 3:0.021739130434782608 
1.0 1:0.03571428571428571 2:6.377551020408163E-4 3:0.03571428571428571 
1.0 1:0.0625 2:7.971938775510204E-4 3:0.044642857142857144 
1.0 1:0.04716981132075472 2:5.33997864008544E-4 3:0.02830188679245283 
1.0 1:0.08433734939759036 2:0.0010161126433444621 3:0.012048192771084338 4:1.0 5:1.0 
1.0 1:0.0851063829787234 2:0.002376641014033499 3:0.07446808510638298 
1.0 1:0.1111111111111111 2:0.004115226337448559 3:0.1111111111111111 
1.0 1:0.07142857142857142 2:0.0012755102040816326 3:0.03571428571428571 
1.0 1:0.0851063829787234 2:0.005432322317790855 3:0.06382978723404255 
1.0 1:0.08695652173913043 2:0.004253308128544423 3:0.06521739130434782 
1.0 1:0.0125 2:3.1250000000000006E-4 3:0.0125 
1.0 1:0.034482758620689655 
1.0 1:0.0759493670886076 2:0.0011216151257811247 3:0.012658227848101266 
1.0 1:0.05555555555555555 2:0.0014814814814814816 3:0.022222222222222223 
1.0 1:0.1388888888888889 2:0.006944444444444444 3:0.08333333333333333 
1.0 1:0.0759493670886076 2:0.002403460983816696 3:0.0379746835443038 
1.0 1:0.022222222222222223 2:7.407407407407408E-4 3:0.03333333333333333 
1.0 1:0.015625 2:4.8828125E-4 3:0.015625 4:1.0 5:1.0 
1.0 1:0.09375 2:0.006103515625 3:0.078125 
1.0 1:0.07692307692307693 2:0.004930966469428008 3:0.0641025641025641 
1.0 1:0.11538461538461539 2:0.004109138724523339 3:0.0641025641025641 
1.0 1:0.04878048780487805 2:0.001784651992861392 3:0.024390243902439025 
1.0 1:0.029411764705882353 
1.0 1:0.1 
1.0 1:0.029411764705882353 
1.0 1:0.02702702702702703 
1.0 1:0.2222222222222222 
1.0 1:0.03333333333333333 
1.0 1:0.05 2:0.0025000000000000005 3:0.05 
1.0 1:0.043478260869565216 2:0.0037807183364839316 3:0.043478260869565216 
1.0 1:0.05555555555555555 2:0.006172839506172839 3:0.05555555555555555 
1.0 1:0.025 
1.0 1:0.11764705882352941 2:0.004325259515570935 3:0.029411764705882353 
1.0 1:0.10526315789473684 
1.0 1:0.11764705882352941 2:0.004325259515570935 3:0.029411764705882353 
1.0 1:0.06451612903225806 2:0.0020811654526534857 3:0.06451612903225806 4:1.0 5:1.0 
1.0 1:0.02564102564102564 2:6.574621959237343E-4 3:0.02564102564102564 
1.0 1:0.018518518518518517 3:0.037037037037037035 4:1.0 5:1.0 
1.0 1:0.02564102564102564 
1.0 1:0.1 2:0.0033333333333333335 3:0.03333333333333333 
1.0 1:0.058823529411764705 
1.0 1:0.06666666666666667 
1.0 1:0.10344827586206896 2:0.0047562425683709865 3:0.034482758620689655 4:1.0 5:1.0 
1.0 1:0.08 2:0.0032 3:0.04 
1.0 1:0.06666666666666667 2:9.876543209876543E-4 3:0.022222222222222223 
1.0 1:0.058823529411764705 
1.0 1:0.15492957746478872 2:0.002182106724856179 3:0.15492957746478872 
1.0 1:0.08870967741935484 2:0.0036420395421436 3:0.06451612903225806 
1.0 1:0.1 2:0.0045 3:0.05 
1.0 1:0.09090909090909091 2:0.004047900151796256 3:0.05194805194805195 
1.0 1:0.06 2:0.0015 3:0.03 
1.0 1:0.11538461538461539 2:0.001849112426035503 3:0.019230769230769232 
1.0 1:0.057692307692307696 2:0.0014792899408284025 3:0.038461538461538464 
1.0 1:0.1076923076923077 
1.0 1:0.13846153846153847 2:0.012781065088757398 3:0.09230769230769231 
1.0 1:0.07462686567164178 2:0.0011138338159946534 3:0.014925373134328358 4:1.0 5:1.0 
1.0 3:0.045454545454545456 4:1.0 5:1.0 
1.0 1:0.0410958904109589 
1.0 1:0.034482758620689655 
1.0 1:0.07692307692307693 
1.0 1:0.030303030303030304 2:0.0018365472910927458 3:0.030303030303030304 4:1.0 5:1.0 
1.0 1:0.05063291139240506 2:0.0012818458580355712 3:0.02531645569620253 4:1.0 5:1.0 
1.0 2:8.650519031141869E-4 3:0.029411764705882353 4:1.0 5:1.0 
1.0 1:0.07865168539325842 2:0.0015149602322939023 3:0.033707865168539325 
1.0 1:0.18518518518518517 
1.0 1:0.045454545454545456 
1.0 1:0.04285714285714286 
1.0 1:0.07894736842105263 2:0.0027700831024930744 3:0.02631578947368421 4:1.0 5:1.0 
1.0 1:0.09375 2:0.00390625 3:0.0625 4:1.0 5:1.0 
1.0 1:0.05660377358490566 
1.0 1:0.05714285714285714 
1.0 1:0.05084745762711865 2:8.618213157138754E-4 3:0.01694915254237288 4:1.0 5:1.0 
1.0 1:0.1 
1.0 1:0.05194805194805195 2:8.433125316242199E-4 3:0.012987012987012988 4:1.0 5:1.0 
1.0 1:0.07692307692307693 2:0.004437869822485207 3:0.038461538461538464 4:1.0 5:1.0 
1.0 1:0.07142857142857142 2:0.0038265306122448974 3:0.03571428571428571 4:1.0 5:1.0 
1.0 1:0.02564102564102564 2:0.0013149243918474686 3:0.02564102564102564 4:1.0 5:1.0 
1.0 3:0.058823529411764705 4:1.0 5:1.0 
1.0 1:0.1836734693877551 2:0.008329862557267805 3:0.20408163265306123 
1.0 1:0.11290322580645161 2:0.0018210197710718 3:0.11290322580645161 
1.0 1:0.05263157894736842 
1.0 1:0.12244897959183673 2:0.004997917534360683 3:0.061224489795918366 
1.0 1:0.1694915254237288 2:0.005745475438092502 3:0.1694915254237288 
1.0 1:0.18421052631578946 2:0.005540166204986149 3:0.21052631578947367 
1.0 1:0.13793103448275862 2:0.0035671819262782403 3:0.10344827586206896 
1.0 1:0.13043478260869565 3:0.13043478260869565 
1.0 1:0.125 2:0.005208333333333333 3:0.125 
1.0 1:0.07142857142857142 2:0.0022675736961451243 3:0.023809523809523808 
1.0 1:0.07575757575757576 2:0.0018365472910927458 3:0.030303030303030304 
1.0 1:0.12 2:0.0064 3:0.04 
1.0 1:0.21052631578947367 
1.0 1:0.13333333333333333 
1.0 1:0.029850746268656716 2:4.455335263978614E-4 3:0.014925373134328358 
1.0 1:0.057692307692307696 
1.0 1:0.11538461538461539 
1.0 1:0.0967741935483871 2:0.003121748178980229 3:0.03225806451612903 
1.0 1:0.07317073170731707 2:0.001189767995240928 3:0.04878048780487805 
1.0 1:0.08 2:0.0016 3:0.04 
1.0 1:0.04 2:8.0E-4 3:0.02 4:1.0 5:1.0 
1.0 1:0.05555555555555555 2:0.0023148148148148147 3:0.08333333333333333 4:1.0 5:1.0 
1.0 1:0.07317073170731707 2:7.436049970255801E-4 3:0.06097560975609756 
1.0 1:0.1 2:0.0032 3:0.08 
1.0 1:0.015625 2:4.8828125E-4 3:0.03125 
1.0 1:0.1935483870967742 2:0.015608740894901144 3:0.16129032258064516 
1.0 1:0.06818181818181818 2:0.001549586776859504 3:0.03409090909090909 
1.0 1:0.0625 2:9.765625E-4 3:0.0625 
1.0 1:0.06451612903225806 
1.0 1:0.07142857142857142 
1.0 1:0.14754098360655737 2:0.009674818597151302 3:0.09836065573770492 
1.0 1:0.061946902654867256 2:0.0015662933667475918 3:0.04424778761061947 
1.0 1:0.0273224043715847 2:2.9860551225775625E-4 3:0.01092896174863388 4:1.0 5:1.0 
1.0 1:0.043795620437956206 2:9.590281847727637E-4 3:0.021897810218978103 4:1.0 5:1.0 
1.0 1:0.0392156862745098 2:3.8446751249519417E-4 3:0.00980392156862745 4:1.0 5:1.0 
1.0 1:0.046511627906976744 2:0.0010816657652785288 3:0.046511627906976744 
1.0 1:0.06060606060606061 
1.0 1:0.07575757575757576 
1.0 1:0.09090909090909091 
1.0 1:0.09523809523809523 
1.0 1:0.08108108108108109 
1.0 1:0.07692307692307693 2:0.0019723865877712033 3:0.02564102564102564 
1.0 1:0.11428571428571428 
1.0 1:0.07792207792207792 2:5.05987518974532E-4 3:0.006493506493506494 
1.0 1:0.07142857142857142 2:0.002023950075898128 3:0.05194805194805195 
1.0 1:0.1 2:0.0025925925925925925 3:0.03333333333333333 
1.0 1:0.07954545454545454 2:0.0010330578512396695 3:0.011363636363636364 4:1.0 5:1.0 
1.0 1:0.056818181818181816 4:1.0 
1.0 1:0.05555555555555555 4:1.0 
1.0 1:0.19047619047619047 2:0.003968253968253968 3:0.16666666666666666 
1.0 1:0.09090909090909091 2:0.0016866250632484399 3:0.06493506493506493 
1.0 1:0.04395604395604396 2:6.037918125830214E-4 3:0.01098901098901099 4:1.0 5:1.0 
1.0 1:0.13846153846153847 2:0.003313609467455622 3:0.1076923076923077 
1.0 1:0.09523809523809523 2:0.0034013605442176865 3:0.07142857142857142 
1.0 1:0.08196721311475409 2:0.0013437248051599033 3:0.01639344262295082 4:1.0 5:1.0 
1.0 1:0.1111111111111111 2:0.0030864197530864196 3:0.05555555555555555 
1.0 1:0.022727272727272728 2:5.165289256198347E-4 3:0.022727272727272728 
1.0 1:0.14285714285714285 2:0.009995835068721365 3:0.12244897959183673 
1.0 1:0.15217391304347827 2:0.00945179584120983 3:0.08695652173913043 
1.0 1:0.05555555555555555 2:0.0030864197530864196 3:0.05555555555555555 4:1.0 5:1.0 
1.0 1:0.027777777777777776 2:7.716049382716049E-4 3:0.027777777777777776 4:1.0 5:1.0 
1.0 1:0.022727272727272728 2:1.2913223140495868E-4 3:0.011363636363636364 
1.0 1:0.008130081300813009 
1.0 1:0.17857142857142858 2:0.012755102040816327 3:0.17857142857142858 
1.0 1:0.04878048780487805 2:5.94883997620464E-4 3:0.024390243902439025 
1.0 1:0.06172839506172839 2:0.0013717421124828531 3:0.037037037037037035 
1.0 1:0.045454545454545456 2:0.002066115702479339 3:0.045454545454545456 4:1.0 5:1.0 
1.0 1:0.08641975308641975 2:0.0018289894833104707 3:0.024691358024691357 
1.0 1:0.09375 2:0.005859375 3:0.0625 
1.0 1:0.07142857142857142 2:0.0012244897959183673 3:0.04285714285714286 
1.0 1:0.045454545454545456 
1.0 1:0.08641975308641975 2:0.0015241579027587256 3:0.024691358024691357 
1.0 1:0.04477611940298507 2:6.683002895967921E-4 3:0.014925373134328358 
1.0 1:0.028985507246376812 2:6.30119722747322E-4 3:0.014492753623188406 4:1.0 5:1.0 
1.0 1:0.018518518518518517 2:3.429355281207133E-4 3:0.018518518518518517 4:1.0 5:1.0 
1.0 1:0.043478260869565216 2:6.30119722747322E-4 3:0.014492753623188406 4:1.0 5:1.0 
1.0 1:0.043478260869565216 2:6.30119722747322E-4 3:0.014492753623188406 4:1.0 5:1.0 
1.0 1:0.03333333333333333 2:8.333333333333334E-4 3:0.016666666666666666 4:1.0 5:1.0 
1.0 1:0.08235294117647059 2:0.001384083044982699 3:0.023529411764705882 
1.0 1:0.060240963855421686 2:8.709536942952533E-4 3:0.024096385542168676 
1.0 1:0.07936507936507936 2:0.001511715797430083 3:0.06349206349206349 
1.0 1:0.10569105691056911 2:0.002908321766144491 3:0.08943089430894309 
1.0 1:0.11764705882352941 2:0.00461361014994233 3:0.0392156862745098 
1.0 1:0.14516129032258066 2:0.01040582726326743 3:0.12903225806451613 
1.0 1:0.09615384615384616 2:0.0055473372781065095 3:0.09615384615384616 
1.0 1:0.06976744186046512 
1.0 1:0.13636363636363635 
1.0 1:0.0425531914893617 
1.0 1:0.07692307692307693 2:0.0011094674556213018 3:0.057692307692307696 
1.0 1:0.11538461538461539 2:0.002958579881656805 3:0.038461538461538464 
1.0 1:0.20512820512820512 2:0.009204470742932281 3:0.1794871794871795 
1.0 1:0.06382978723404255 
1.0 1:0.06896551724137931 2:0.003963535473642489 3:0.06896551724137931 
1.0 1:0.06382978723404255 2:0.0036215482118605704 3:0.0425531914893617 
1.0 1:0.0958904109589041 2:0.0022518296115593916 3:0.0273972602739726 
1.0 1:0.1282051282051282 2:0.0032873109796186717 3:0.02564102564102564 
1.0 1:0.14545454545454545 2:0.0049586776859504135 3:0.09090909090909091 
1.0 1:0.07692307692307693 2:7.245501750996257E-4 3:0.01098901098901099 
1.0 1:0.09876543209876543 2:0.002133821063862216 3:0.024691358024691357 
1.0 1:0.0625 2:6.377551020408163E-4 3:0.008928571428571428 
1.0 1:0.05405405405405406 2:0.0012174336498660824 3:0.04504504504504504 
1.0 1:0.08771929824561403 2:0.001538935056940597 3:0.017543859649122806 
1.0 1:0.0684931506849315 2:0.0015012197410395945 3:0.0547945205479452 
1.0 1:0.0759493670886076 2:0.0019227687870533568 3:0.02531645569620253 
0.9933517945191395 1:0.1111111111111111 2:0.004115226337448559 3:0.037037037037037035 4:1.0 5:1.0 
1.0 1:0.04918032786885246 2:8.062348830959419E-4 3:0.01639344262295082 4:1.0 5:1.0 
1.0 1:0.1232876712328767 2:0.004503659223118783 3:0.1095890410958904 
1.0 1:0.07692307692307693 2:0.0021301775147928997 3:0.046153846153846156 
1.0 1:0.1951219512195122 2:0.02007733491969066 3:0.10975609756097561 
1.0 1:0.18181818181818182 2:0.008264462809917356 3:0.045454545454545456 
1.0 1:0.16129032258064516 2:0.008324661810613943 3:0.06451612903225806 
1.0 1:0.10975609756097561 
1.0 1:0.21428571428571427 2:0.01913265306122449 3:0.17857142857142858 
1.0 1:0.18181818181818182 2:0.014692378328741967 3:0.12121212121212122 
1.0 1:0.09090909090909091 2:0.00396694214876033 3:0.03636363636363636 
1.0 1:0.06451612903225806 
1.0 1:0.030303030303030304 2:4.5913682277318646E-4 3:0.015151515151515152 
1.0 1:0.09090909090909091 2:0.003443526170798898 3:0.045454545454545456 
1.0 1:0.10112359550561797 2:0.0026511804065143287 3:0.033707865168539325 
1.0 1:0.02702702702702703 2:0.0012985958931904878 3:0.036036036036036036 
1.0 1:0.04032258064516129 2:0.0013007284079084287 3:0.04032258064516129 
1.0 1:0.12903225806451613 2:0.0010405827263267429 3:0.008064516129032258 
1.0 1:0.14285714285714285 2:0.0031179138321995466 3:0.023809523809523808 
1.0 1:0.1794871794871795 2:0.01183431952662722 3:0.15384615384615385 
1.0 1:0.09859154929577464 2:0.003570720095219202 3:0.04225352112676056 
1.0 1:0.0625 2:0.0029296875 3:0.03125 
1.0 1:0.10256410256410256 2:0.0026298487836949372 3:0.02564102564102564 
1.0 1:0.09090909090909091 2:0.003099173553719008 3:0.045454545454545456 
1.0 1:0.09375 2:0.00390625 3:0.0625 
1.0 1:0.030303030303030304 3:0.06060606060606061 4:1.0 5:1.0 
1.0 1:0.05714285714285714 2:6.122448979591836E-4 3:0.04285714285714286 
1.0 1:0.02459016393442623 2:4.0311744154797097E-4 3:0.02459016393442623 
1.0 1:0.11764705882352941 2:0.0034602076124567475 3:0.058823529411764705 
1.0 1:0.13636363636363635 
1.0 1:0.09090909090909091 2:0.001983471074380165 3:0.05454545454545454 
1.0 1:0.03669724770642202 2:4.208399966332801E-4 3:0.009174311926605505 4:1.0 5:1.0 
1.0 1:0.12727272727272726 2:0.004628099173553718 3:0.12727272727272726 
1.0 1:0.07894736842105263 2:0.0020775623268698058 3:0.07894736842105263 
1.0 1:0.03361344537815126 2:2.824659275474896E-4 3:0.008403361344537815 4:1.0 5:1.0 
1.0 1:0.12121212121212122 2:0.003367003367003367 3:0.1111111111111111 
1.0 1:0.14705882352941177 2:0.013624567474048442 3:0.1323529411764706 
1.0 1:0.10526315789473684 2:0.0041551246537396115 3:0.07894736842105263 
1.0 1:0.08045977011494253 2:0.0015854141894569955 3:0.034482758620689655 
1.0 1:0.09210526315789473 2:0.0027700831024930744 3:0.05263157894736842 5:1.0 
1.0 1:0.07228915662650602 2:0.0017419073885905066 3:0.024096385542168676 
1.0 1:0.036585365853658534 2:4.46162998215348E-4 3:0.012195121951219513 4:1.0 5:1.0 
1.0 1:0.05454545454545454 2:9.917355371900824E-4 3:0.01818181818181818 4:1.0 5:1.0 
1.0 1:0.06557377049180328 2:0.0016124697661918839 3:0.03278688524590164 4:1.0 5:1.0 
1.0 1:0.09433962264150944 2:0.002135991456034176 3:0.018867924528301886 
1.0 1:0.12871287128712872 2:0.00470542103715322 3:0.07920792079207921 
1.0 1:0.07462686567164178 2:0.0013366005791935842 3:0.04477611940298507 
1.0 1:0.125 
1.0 1:0.05660377358490566 2:0.0014239943040227838 3:0.018867924528301886 
1.0 1:0.20833333333333334 2:0.010416666666666666 3:0.16666666666666666 
1.0 1:0.1 2:0.0032 3:0.08 
1.0 1:0.034482758620689655 2:0.0023781212841854932 3:0.034482758620689655 4:1.0 5:1.0 
1.0 1:0.012048192771084338 2:1.451589490492089E-4 3:0.012048192771084338 4:1.0 5:1.0 
1.0 1:0.0963855421686747 2:0.003048337930033386 3:0.08433734939759036 
1.0 1:0.22 2:0.011200000000000002 3:0.14 
1.0 1:0.15 2:0.00375 3:0.15 
1.0 1:0.02830188679245283 2:7.119971520113919E-4 3:0.03773584905660377 
1.0 1:0.07017543859649122 2:0.0024622960911049553 3:0.03508771929824561 
1.0 1:0.04225352112676056 2:9.918666931164452E-4 3:0.014084507042253521 4:1.0 5:1.0 
1.0 1:0.02857142857142857 2:3.6281179138322E-4 3:0.009523809523809525 4:1.0 5:1.0 
1.0 1:0.06666666666666667 
1.0 1:0.06896551724137931 
1.0 3:0.034482758620689655 4:1.0 5:1.0 
1.0 1:0.11320754716981132 2:0.00533997864008544 3:0.05660377358490566 
1.0 1:0.06172839506172839 2:0.0018289894833104707 3:0.037037037037037035 
1.0 3:0.045454545454545456 4:1.0 5:1.0 
1.0 1:0.14814814814814814 3:0.14814814814814814 
1.0 1:0.04878048780487805 3:0.07317073170731707 
1.0 1:0.06741573033707865 2:8.837268021714429E-4 3:0.011235955056179775 4:1.0 5:1.0 
1.0 1:0.015789473684210527 2:8.310249307479225E-5 3:0.005263157894736842 4:1.0 5:1.0 
1.0 1:0.06741573033707865 
1.0 1:0.043478260869565216 
1.0 1:0.021739130434782608 2:9.45179584120983E-5 3:0.004347826086956522 4:1.0 5:1.0 
1.0 3:0.047619047619047616 4:1.0 5:1.0 
1.0 1:0.05970149253731343 2:0.0026732011583871684 3:0.05970149253731343 
1.0 1:0.05333333333333334 2:0.0016 3:0.04 
1.0 1:0.02666666666666667 2:3.555555555555556E-4 3:0.013333333333333334 4:1.0 5:1.0 
1.0 1:0.06666666666666667 2:0.0014222222222222225 3:0.02666666666666667 
1.0 1:0.05102040816326531 
1.0 1:0.012658227848101266 2:1.602307322544464E-4 3:0.012658227848101266 4:1.0 5:1.0 
1.0 1:0.08 2:0.0032 3:0.04 4:1.0 5:1.0 
1.0 1:0.17647058823529413 2:0.018166089965397925 3:0.08823529411764706 
1.0 1:0.20833333333333334 2:0.026041666666666668 3:0.125 
1.0 1:0.10869565217391304 2:0.0028355387523629487 3:0.043478260869565216 
1.0 1:0.04 2:0.0016 3:0.04 
1.0 1:0.06666666666666667 2:0.0033333333333333335 3:0.03333333333333333 
1.0 1:0.06666666666666667 2:0.0033333333333333335 3:0.03333333333333333 4:1.0 5:1.0 
1.0 1:0.02857142857142857 2:8.163265306122448E-4 3:0.02857142857142857 4:1.0 5:1.0 
1.0 1:0.08888888888888889 
1.0 1:0.05660377358490566 
1.0 1:0.08571428571428572 
1.0 1:0.14285714285714285 2:0.0028344671201814054 3:0.023809523809523808 
1.0 1:0.1875 
1.0 1:0.07547169811320754 2:0.0014239943040227838 3:0.07547169811320754 
1.0 1:0.11428571428571428 2:0.0032653061224489793 3:0.11428571428571428 
1.0 1:0.03205128205128205 2:2.465483234714004E-4 3:0.019230769230769232 
1.0 1:0.09090909090909091 2:0.001549586776859504 3:0.06818181818181818 
1.0 1:0.02564102564102564 2:3.6982248520710064E-4 3:0.019230769230769232 
1.0 1:0.03488372093023256 2:0.0013520822065981612 3:0.023255813953488372 
1.0 1:0.010752688172043012 2:1.1562030292519369E-4 3:0.010752688172043012 4:1.0 5:1.0 
1.0 1:0.015625 
1.0 1:0.09433962264150944 2:0.002135991456034176 3:0.05660377358490566 
1.0 1:0.038461538461538464 2:3.6982248520710064E-4 3:0.019230769230769232 
1.0 1:0.09615384615384616 2:0.0022189349112426036 3:0.019230769230769232 4:1.0 5:1.0 
1.0 1:0.047619047619047616 2:0.004535147392290249 3:0.047619047619047616 4:1.0 5:1.0 
1.0 1:0.10588235294117647 2:0.0029065743944636678 3:0.08235294117647059 
1.0 1:0.038461538461538464 2:7.396449704142013E-4 3:0.038461538461538464 
1.0 3:0.03571428571428571 4:1.0 5:1.0 
1.0 1:0.05405405405405406 
1.0 1:0.07317073170731707 
1.0 1:0.06521739130434782 
1.0 1:0.04040404040404041 2:0.001020304050607081 3:0.020202020202020204 4:1.0 5:1.0 
1.0 1:0.010869565217391304 
1.0 1:0.02962962962962963 2:2.1947873799725654E-4 3:0.02962962962962963 
1.0 1:0.13043478260869565 2:0.0025992438563327033 3:0.11956521739130435 
1.0 1:0.14893617021276595 2:0.005432322317790855 3:0.1276595744680851 
1.0 1:0.21875 2:0.005859375 3:0.03125 
1.0 1:0.06666666666666667 
1.0 1:0.13821138211382114 2:0.006345429307951617 3:0.13008130081300814 
1.0 1:0.11904761904761904 2:0.006802721088435373 3:0.07142857142857142 
1.0 1:0.0851063829787234 2:0.0036215482118605704 3:0.0425531914893617 4:1.0 5:1.0 
1.0 1:0.09090909090909091 2:0.003099173553719008 3:0.045454545454545456 5:1.0 
1.0 1:0.06 2:0.0012 3:0.02 4:1.0 5:1.0 
1.0 1:0.016260162601626018 2:1.321964439156587E-4 3:0.008130081300813009 4:1.0 5:1.0 
1.0 1:0.03409090909090909 2:7.74793388429752E-4 3:0.03409090909090909 
1.0 1:0.09090909090909091 2:0.004648760330578512 3:0.06818181818181818 
1.0 1:0.05128205128205128 2:0.0013149243918474686 3:0.02564102564102564 
1.0 1:0.0379746835443038 2:9.613843935266784E-4 3:0.0379746835443038 
1.0 1:0.10204081632653061 2:0.009995835068721365 3:0.08163265306122448 
1.0 1:0.1111111111111111 
1.0 1:0.06329113924050633 2:0.0012818458580355712 3:0.02531645569620253 
1.0 1:0.06818181818181818 2:0.002066115702479339 3:0.022727272727272728 
1.0 1:0.10144927536231885 2:0.001260239445494644 3:0.014492753623188406 
1.0 1:0.06060606060606061 2:0.0027548209366391185 3:0.030303030303030304 4:1.0 5:1.0 
1.0 1:0.09090909090909091 2:0.005509641873278237 3:0.09090909090909091 
1.0 1:0.16 2:0.0064 3:0.16 
1.0 1:0.1 2:0.005000000000000001 3:0.05 
1.0 1:0.1875 2:0.0078125 3:0.0625 
1.0 1:0.07407407407407407 
1.0 1:0.08163265306122448 2:0.0024989587671803413 3:0.061224489795918366 
1.0 1:0.0547945205479452 2:7.506098705197973E-4 3:0.0547945205479452 
1.0 1:0.1346153846153846 3:0.17307692307692307 
1.0 1:0.0273972602739726 2:5.629574028898479E-4 3:0.0136986301369863 
1.0 1:0.15555555555555556 2:0.006913580246913581 3:0.15555555555555556 
1.0 1:0.0784313725490196 2:0.002306805074971165 3:0.058823529411764705 
1.0 1:0.18518518518518517 
1.0 1:0.0625 2:0.0029296875 3:0.03125 4:1.0 5:1.0 
1.0 1:0.0967741935483871 
1.0 1:0.014285714285714285 
1.0 1:0.047619047619047616 
1.0 1:0.046511627906976744 2:0.0010816657652785288 3:0.046511627906976744 4:1.0 5:1.0 
1.0 1:0.023809523809523808 
1.0 1:0.04 3:0.06 4:1.0 5:1.0 
1.0 1:0.06976744186046512 
1.0 1:0.09523809523809523 
1.0 1:0.05319148936170213 2:0.0027161611588954276 3:0.0425531914893617 
1.0 1:0.06382978723404255 2:7.922136713444997E-4 3:0.010638297872340425 4:1.0 5:1.0 
1.0 1:0.0425531914893617 
1.0 1:0.027777777777777776 
1.0 1:0.16666666666666666 3:0.16666666666666666 
1.0 1:0.10526315789473684 2:0.0027700831024930744 3:0.05263157894736842 
1.0 1:0.03225806451612903 
1.0 1:0.14285714285714285 2:0.01020408163265306 3:0.07142857142857142 
1.0 1:0.0851063829787234 2:0.0036215482118605704 3:0.0851063829787234 
1.0 1:0.05660377358490566 2:0.002135991456034176 3:0.05660377358490566 
1.0 1:0.1875 2:0.0078125 3:0.125 
1.0 1:0.1 2:0.0025000000000000005 3:0.025 
1.0 1:0.0967741935483871 2:0.003121748178980229 3:0.03225806451612903 
1.0 1:0.06451612903225806 2:0.003121748178980229 3:0.03225806451612903 4:1.0 5:1.0 
1.0 1:0.05 2:0.005000000000000001 3:0.05 4:1.0 5:1.0 
1.0 1:0.047619047619047616 
1.0 1:0.06896551724137931 2:0.0023781212841854932 3:0.034482758620689655 4:1.0 5:1.0 
1.0 3:0.05 4:1.0 5:1.0 
1.0 1:0.09090909090909091 2:0.004132231404958678 3:0.045454545454545456 4:1.0 5:1.0 
1.0 1:0.015151515151515152 2:4.5913682277318646E-4 3:0.015151515151515152 4:1.0 5:1.0 
1.0 1:0.075 2:0.001875 3:0.025 
1.0 1:0.046511627906976744 2:0.0010816657652785288 3:0.023255813953488372 
1.0 1:0.07874015748031496 2:0.0011160022320044639 3:0.015748031496062992 4:1.0 5:1.0 
1.0 1:0.078125 2:0.0014105902777777775 3:0.020833333333333332 4:1.0 5:1.0 
1.0 1:0.07079646017699115 2:0.00195786670843449 3:0.04424778761061947 4:1.0 5:1.0 
1.0 1:0.036458333333333336 
1.0 1:0.02654867256637168 
1.0 1:0.03125 2:1.6276041666666666E-4 3:0.005208333333333333 4:1.0 5:1.0 
1.0 1:0.040983606557377046 2:3.359312012899758E-4 3:0.00819672131147541 4:1.0 5:1.0 
1.0 1:0.04938271604938271 2:0.0012193263222069805 3:0.024691358024691357 4:1.0 5:1.0 
1.0 1:0.009523809523809525 2:1.8140589569161E-4 3:0.01904761904761905 4:1.0 5:1.0 
1.0 1:0.02857142857142857 
1.0 1:0.02608695652173913 
1.0 1:0.04938271604938271 2:6.096631611034902E-4 3:0.012345679012345678 4:1.0 5:1.0 
1.0 1:0.015037593984962405 2:1.1306461642828876E-4 3:0.007518796992481203 4:1.0 5:1.0 
1.0 1:0.07142857142857142 2:0.0012755102040816326 3:0.07142857142857142 4:1.0 5:1.0 
1.0 1:0.14285714285714285 
1.0 1:0.10810810810810811 
1.0 1:0.09259259259259259 
1.0 1:0.03508771929824561 
1.0 3:0.02631578947368421 4:1.0 5:1.0 
1.0 1:0.0410958904109589 2:7.506098705197973E-4 3:0.0273972602739726 4:1.0 5:1.0 
1.0 1:0.010526315789473684 2:2.2160664819944597E-4 3:0.021052631578947368 
1.0 1:0.027777777777777776 2:3.429355281207133E-4 3:0.018518518518518517 4:1.0 5:1.0 
1.0 1:0.07894736842105263 
1.0 1:0.07462686567164178 2:0.0011138338159946534 3:0.014925373134328358 
1.0 1:0.07058823529411765 2:6.920415224913495E-4 3:0.011764705882352941 
1.0 1:0.058823529411764705 2:9.611687812379853E-4 3:0.0196078431372549 
1.0 1:0.06521739130434782 2:0.0014177693761814744 3:0.06521739130434782 
1.0 1:0.047619047619047616 2:8.503401360544216E-4 3:0.03571428571428571 
1.0 1:0.11764705882352941 2:0.006920415224913495 3:0.058823529411764705 
1.0 1:0.05 2:0.0012500000000000002 3:0.025 
1.0 1:0.11538461538461539 2:0.0022189349112426036 3:0.019230769230769232 4:1.0 5:1.0 
1.0 1:0.09230769230769231 2:0.003550295857988166 3:0.046153846153846156 5:1.0 
1.0 1:0.06578947368421052 2:6.925207756232686E-4 3:0.013157894736842105 
1.0 1:0.1568627450980392 2:0.005382545174932718 3:0.0392156862745098 
1.0 1:0.09210526315789473 2:0.005193905817174515 3:0.06578947368421052 4:1.0 5:1.0 
1.0 1:0.07894736842105263 2:0.005193905817174515 3:0.06578947368421052 4:1.0 5:1.0 
1.0 1:0.08 2:0.006222222222222223 3:0.06666666666666667 
1.0 1:0.08333333333333333 2:0.0026041666666666665 3:0.041666666666666664 4:1.0 5:1.0 
1.0 1:0.02459016393442623 2:2.0155872077398548E-4 3:0.00819672131147541 
1.0 1:0.03225806451612903 3:0.06451612903225806 4:1.0 5:1.0 
1.0 1:0.07692307692307693 
1.0 1:0.03508771929824561 2:9.233610341643581E-4 3:0.017543859649122806 4:1.0 5:1.0 
1.0 1:0.08888888888888889 2:0.0019753086419753087 3:0.08888888888888889 
1.0 1:0.03636363636363636 3:0.05454545454545454 
1.0 1:0.057692307692307696 2:0.0014792899408284025 3:0.019230769230769232 
1.0 1:0.03896103896103896 2:5.05987518974532E-4 3:0.012987012987012988 
1.0 1:0.13846153846153847 2:0.009940828402366864 3:0.09230769230769231 
1.0 1:0.14285714285714285 2:0.0032653061224489793 3:0.02857142857142857 
1.0 1:0.075 2:0.001875 3:0.025 
1.0 1:0.08860759493670886 2:0.0028841531805800353 3:0.0379746835443038 
1.0 1:0.11320754716981132 2:0.012815948736205056 3:0.11320754716981132 
1.0 1:0.16666666666666666 2:0.004629629629629629 3:0.027777777777777776 
1.0 1:0.08974358974358974 
1.0 1:0.05714285714285714 
1.0 1:0.07462686567164178 3:0.07462686567164178 
1.0 1:0.06976744186046512 3:0.06976744186046512 
1.0 1:0.14285714285714285 2:0.007346938775510203 3:0.12857142857142856 
1.0 1:0.1346153846153846 2:0.0055473372781065095 3:0.09615384615384616 
1.0 1:0.028985507246376812 2:4.2007981516488136E-4 3:0.028985507246376812 
1.0 1:0.05454545454545454 2:6.611570247933884E-4 3:0.01818181818181818 
1.0 1:0.04430379746835443 2:7.210382951450088E-4 3:0.012658227848101266 4:1.0 5:1.0 
1.0 1:0.1015625 2:0.0015869140625 3:0.1015625 
1.0 1:0.05504587155963303 2:0.0010474239916206081 3:0.04892966360856269 
1.0 1:0.04395604395604396 2:4.830334500664172E-4 3:0.01098901098901099 
1.0 1:0.10526315789473684 2:0.0013850415512465372 3:0.013157894736842105 
1.0 1:0.07692307692307693 
1.0 1:0.05405405405405406 2:0.001460920379839299 3:0.02702702702702703 
1.0 1:0.1111111111111111 2:0.003950617283950617 3:0.08888888888888889 
1.0 1:0.06153846153846154 2:0.0011834319526627221 3:0.015384615384615385 
1.0 1:0.16923076923076924 2:0.01562130177514793 3:0.16923076923076924 
1.0 1:0.17777777777777778 2:0.013333333333333334 3:0.06666666666666667 
1.0 1:0.21153846153846154 
1.0 1:0.13333333333333333 2:0.0034567901234567903 3:0.022222222222222223 
1.0 1:0.06578947368421052 2:0.0017313019390581715 3:0.02631578947368421 4:1.0 5:1.0 
1.0 1:0.15555555555555556 
1.0 1:0.05 2:8.333333333333334E-4 3:0.016666666666666666 4:1.0 5:1.0 
1.0 1:0.04597701149425287 2:0.0015854141894569955 3:0.034482758620689655 4:1.0 5:1.0 
1.0 1:0.041666666666666664 2:8.680555555555555E-4 3:0.020833333333333332 4:1.0 5:1.0 
1.0 1:0.02197802197802198 2:3.6227508754981284E-4 3:0.01098901098901099 4:1.0 5:1.0 
1.0 1:0.08333333333333333 
1.0 1:0.06976744186046512 
1.0 1:0.06153846153846154 2:0.0011834319526627221 3:0.015384615384615385 4:1.0 5:1.0 
1.0 1:0.046875 2:9.765625E-4 3:0.015625 4:1.0 5:1.0 
1.0 1:0.11666666666666667 
1.0 1:0.09230769230769231 
1.0 1:0.05128205128205128 2:0.0013149243918474686 3:0.02564102564102564 4:1.0 5:1.0 
1.0 1:0.05454545454545454 2:9.917355371900824E-4 3:0.01818181818181818 4:1.0 5:1.0 
1.0 1:0.16 2:0.016 3:0.12 
1.0 1:0.09876543209876543 2:0.008535284255448864 3:0.09876543209876543 
1.0 1:0.09876543209876543 2:0.0036579789666209414 3:0.04938271604938271 5:1.0 
1.0 1:0.13333333333333333 2:0.004166666666666667 3:0.05 
1.0 1:0.04 2:0.0021333333333333334 3:0.04 
1.0 1:0.09302325581395349 2:0.0021633315305570576 3:0.023255813953488372 4:1.0 5:1.0 
1.0 1:0.058823529411764705 2:0.0034602076124567475 3:0.058823529411764705 4:1.0 5:1.0 
1.0 1:0.08695652173913043 3:0.13043478260869565 
1.0 1:0.061224489795918366 2:0.0016659725114535606 3:0.04081632653061224 
1.0 1:0.13793103448275862 2:0.011890606420927468 3:0.08620689655172414 
1.0 1:0.078125 2:0.003662109375 3:0.046875 
1.0 1:0.125 2:0.005859375 3:0.03125 
1.0 1:0.0851063829787234 2:0.006790402897238569 3:0.06382978723404255 5:1.0 
1.0 1:0.08928571428571429 2:0.0038265306122448974 3:0.07142857142857142 4:1.0 5:1.0 
1.0 1:0.08860759493670886 2:0.0019227687870533568 3:0.02531645569620253 5:1.0 
1.0 1:0.0625 2:0.0013020833333333333 3:0.020833333333333332 4:1.0 5:1.0 
1.0 1:0.13636363636363635 2:0.004648760330578512 3:0.06818181818181818 
1.0 1:0.13333333333333333 2:0.0024691358024691358 3:0.1111111111111111 
1.0 1:0.15151515151515152 2:0.004591368227731864 3:0.030303030303030304 
1.0 1:0.11627906976744186 2:0.0048674959437533805 3:0.06976744186046512 
1.0 1:0.06451612903225806 2:0.0020811654526534857 3:0.03225806451612903 
1.0 1:0.043478260869565216 2:0.0018903591682419658 3:0.043478260869565216 
1.0 1:0.08196721311475409 2:0.0016124697661918839 3:0.03278688524590164 
1.0 1:0.047619047619047616 2:5.039052658100277E-4 3:0.015873015873015872 
1.0 1:0.06896551724137931 2:0.0035671819262782403 3:0.06896551724137931 
1.0 1:0.06349206349206349 2:0.0010078105316200553 3:0.015873015873015872 
1.0 1:0.06097560975609756 2:0.002379535990481856 3:0.04878048780487805 
1.0 1:0.11627906976744186 2:0.0021633315305570576 3:0.023255813953488372 
1.0 1:0.05194805194805195 2:5.05987518974532E-4 3:0.012987012987012988 
1.0 1:0.10714285714285714 
1.0 1:0.05194805194805195 2:0.0015179625569235959 3:0.03896103896103896 
1.0 1:0.0847457627118644 2:0.0043091065785693765 3:0.05084745762711865 
1.0 1:0.2 2:0.024 3:0.2 
1.0 1:0.14285714285714285 
1.0 1:0.14285714285714285 2:0.006802721088435373 3:0.14285714285714285 
1.0 1:0.10714285714285714 
1.0 1:0.05660377358490566 2:0.001067995728017088 3:0.018867924528301886 
1.0 1:0.2 2:0.016 3:0.2 
1.0 1:0.10204081632653061 2:0.0016659725114535606 3:0.08163265306122448 
1.0 1:0.05714285714285714 2:0.0012244897959183673 3:0.04285714285714286 
1.0 1:0.08695652173913043 2:0.001260239445494644 3:0.08695652173913043 
1.0 1:0.12 2:0.0014222222222222225 3:0.10666666666666667 
1.0 1:0.06976744186046512 
1.0 1:0.15555555555555556 2:0.011851851851851853 3:0.13333333333333333 
1.0 1:0.0641025641025641 2:0.0032873109796186717 3:0.05128205128205128 
1.0 1:0.11578947368421053 2:0.007756232686980608 3:0.07368421052631578 
1.0 3:0.018867924528301886 4:1.0 5:1.0 
1.0 1:0.07692307692307693 2:0.002958579881656805 3:0.038461538461538464 
1.0 1:0.07368421052631578 2:0.002326869806094183 3:0.031578947368421054 
1.0 1:0.10256410256410256 2:0.0026298487836949372 3:0.02564102564102564 
1.0 1:0.12903225806451613 2:0.003121748178980229 3:0.0967741935483871 
1.0 1:0.10526315789473684 3:0.15789473684210525 
1.0 1:0.1111111111111111 2:0.0030864197530864196 3:0.1111111111111111 
1.0 1:0.14285714285714285 2:0.00510204081632653 3:0.14285714285714285 
1.0 1:0.030303030303030304 2:9.182736455463729E-4 3:0.030303030303030304 4:1.0 5:1.0 
1.0 1:0.056074766355140186 2:5.24063236963927E-4 3:0.009345794392523364 4:1.0 5:1.0 
1.0 1:0.06451612903225806 
1.0 1:0.04 2:0.0016 3:0.04 4:1.0 5:1.0 
1.0 1:0.045454545454545456 2:7.74793388429752E-4 3:0.022727272727272728 
1.0 1:0.043010752688172046 2:0.001387443635102324 3:0.03225806451612903 
1.0 1:0.046511627906976744 2:0.0010816657652785288 3:0.023255813953488372 4:1.0 5:1.0 
1.0 1:0.058823529411764705 2:8.304498269896194E-4 3:0.03529411764705882 
1.0 1:0.033707865168539325 2:2.524933720489837E-4 3:0.02247191011235955 
1.0 1:0.1276595744680851 2:0.006790402897238569 3:0.06382978723404255 
1.0 1:0.15 2:0.0125 3:0.125 
1.0 1:0.0641025641025641 
1.0 1:0.08974358974358974 2:0.004930966469428008 3:0.0641025641025641 
1.0 1:0.125 2:0.010000000000000002 3:0.1 
1.0 1:0.07142857142857142 2:8.503401360544216E-4 3:0.011904761904761904 
1.0 1:0.07142857142857142 2:0.0034013605442176865 3:0.07142857142857142 5:1.0 
1.0 1:0.045454545454545456 2:0.0010330578512396695 3:0.022727272727272728 
1.0 1:0.043478260869565216 2:0.001260239445494644 3:0.028985507246376812 4:1.0 5:1.0 
1.0 1:0.04 2:6.4E-4 3:0.016 5:1.0 
1.0 1:0.039473684210526314 2:5.193905817174514E-4 3:0.013157894736842105 4:1.0 5:1.0 
1.0 1:0.07462686567164178 2:0.0011138338159946534 3:0.014925373134328358 4:1.0 5:1.0 
1.0 1:0.047619047619047616 2:0.0011337868480725622 3:0.023809523809523808 
1.0 1:0.07547169811320754 2:0.0014239943040227838 3:0.07547169811320754 
1.0 1:0.02702702702702703 2:0.001460920379839299 3:0.02702702702702703 4:1.0 5:1.0 
1.0 1:0.05357142857142857 2:0.0012755102040816326 3:0.017857142857142856 4:1.0 5:1.0 
1.0 1:0.1891891891891892 2:0.005843681519357196 3:0.02702702702702703 
1.0 1:0.08695652173913043 2:0.00315059861373661 3:0.07246376811594203 
1.0 1:0.048484848484848485 2:2.571166207529844E-4 3:0.006060606060606061 
1.0 1:0.058823529411764705 2:7.689350249903883E-4 3:0.0196078431372549 
1.0 1:0.1 2:0.0014285714285714286 3:0.014285714285714285 4:1.0 5:1.0 
1.0 1:0.11904761904761904 
1.0 1:0.03636363636363636 2:2.571166207529844E-4 3:0.006060606060606061 4:1.0 5:1.0 
1.0 1:0.012658227848101266 2:4.806921967633392E-4 3:0.012658227848101266 4:1.0 5:1.0 
1.0 1:0.08974358974358974 2:0.0013149243918474686 3:0.01282051282051282 4:1.0 5:1.0 
1.0 1:0.1702127659574468 2:0.014486192847442281 3:0.1702127659574468 
1.0 1:0.14583333333333334 2:0.015625 3:0.125 
1.0 1:0.0759493670886076 2:9.613843935266784E-4 3:0.012658227848101266 
1.0 1:0.025974025974025976 2:0.001349300050598752 3:0.05194805194805195 
1.0 1:0.02564102564102564 2:0.0016436554898093358 3:0.0641025641025641 
1.0 1:0.0784313725490196 
1.0 1:0.058823529411764705 
1.0 1:0.03389830508474576 
1.0 1:0.08849557522123894 
1.0 1:0.11504424778761062 2:0.0010180906883859346 3:0.008849557522123894 
1.0 1:0.06666666666666667 
1.0 1:0.03488372093023256 2:4.0562466197944835E-4 3:0.011627906976744186 4:1.0 5:1.0 
1.0 1:0.0380952380952381 
1.0 1:0.037037037037037035 2:6.096631611034902E-4 3:0.012345679012345678 4:1.0 5:1.0 
1.0 1:0.02834008097165992 2:2.6225638840171123E-4 3:0.016194331983805668 
1.0 1:0.043478260869565216 2:4.7258979206049145E-4 3:0.021739130434782608 
1.0 1:0.05045871559633028 2:2.3146199814830405E-4 3:0.0045871559633027525 
1.0 1:0.037037037037037035 2:8.230452674897119E-4 3:0.037037037037037035 
1.0 1:0.05128205128205128 2:0.0019723865877712033 3:0.038461538461538464 
1.0 1:0.05128205128205128 2:9.861932938856016E-4 3:0.038461538461538464 5:1.0 
1.0 1:0.08235294117647059 2:9.688581314878892E-4 3:0.011764705882352941 
1.0 1:0.06593406593406594 2:0.002173650525298877 3:0.04395604395604396 
1.0 1:0.10204081632653061 2:0.0020824656393169513 3:0.02040816326530612 
1.0 1:0.20967741935483872 2:0.00858480749219563 3:0.1774193548387097 
1.0 1:0.16216216216216217 2:0.010226442658875092 3:0.05405405405405406 
1.0 1:0.05454545454545454 2:0.001983471074380165 3:0.03636363636363636 
1.0 1:0.08108108108108109 2:0.004382761139517897 3:0.05405405405405406 
1.0 1:0.15254237288135594 2:0.008043665613329504 3:0.11864406779661017 
1.0 1:0.058823529411764705 2:0.002595155709342561 3:0.029411764705882353 
1.0 1:0.0273972602739726 2:3.7530493525989863E-4 3:0.0136986301369863 
1.0 3:0.02631578947368421 4:1.0 5:1.0 
1.0 1:0.022727272727272728 
1.0 1:0.0684931506849315 2:0.0016888722086695438 3:0.0410958904109589 
1.0 1:0.10909090909090909 2:0.003305785123966942 3:0.03636363636363636 
1.0 1:0.0759493670886076 2:0.0011216151257811247 3:0.012658227848101266 4:1.0 5:1.0 
1.0 1:0.0410958904109589 2:7.506098705197973E-4 3:0.0273972602739726 
1.0 1:0.0641025641025641 2:0.0019723865877712033 3:0.05128205128205128 
1.0 1:0.08571428571428572 2:0.0014285714285714286 3:0.014285714285714285 4:1.0 5:1.0 
1.0 1:0.06451612903225806 2:0.001849924846803099 3:0.043010752688172046 
1.0 1:0.0684931506849315 2:7.506098705197973E-4 3:0.0136986301369863 
1.0 1:0.07964601769911504 2:0.0012530346933980734 3:0.017699115044247787 
1.0 1:0.06976744186046512 2:0.0016224986479177934 3:0.06976744186046512 
1.0 1:0.08333333333333333 2:0.005208333333333333 3:0.125 
1.0 1:0.037037037037037035 2:0.0013717421124828531 3:0.037037037037037035 
1.0 1:0.05925925925925926 2:0.0016460905349794238 3:0.044444444444444446 
1.0 1:0.06382978723404255 2:0.0010185604345857853 3:0.031914893617021274 
1.0 1:0.04 
1.0 1:0.06349206349206349 2:0.001511715797430083 3:0.047619047619047616 
1.0 1:0.09333333333333334 2:0.002488888888888889 3:0.09333333333333334 
1.0 1:0.06349206349206349 2:0.003023431594860166 3:0.06349206349206349 
1.0 1:0.125 
1.0 1:0.05172413793103448 2:8.917954815695601E-4 3:0.05172413793103448 
1.0 1:0.07142857142857142 2:0.0036734693877551014 3:0.05714285714285714 4:1.0 5:1.0 
1.0 1:0.07272727272727272 2:0.0029752066115702478 3:0.05454545454545454 4:1.0 5:1.0 
1.0 1:0.038461538461538464 3:0.07692307692307693 4:1.0 5:1.0 
1.0 1:0.045454545454545456 2:6.611570247933884E-4 3:0.01818181818181818 
1.0 1:0.020833333333333332 
1.0 1:0.0684931506849315 2:0.0015012197410395945 3:0.0273972602739726 
1.0 1:0.09375 2:0.001953125 3:0.03125 
1.0 1:0.05555555555555555 2:9.645061728395061E-4 3:0.013888888888888888 4:1.0 5:1.0 
1.0 1:0.045454545454545456 2:0.002066115702479339 3:0.045454545454545456 4:1.0 5:1.0 
1.0 1:0.042105263157894736 2:8.864265927977839E-4 3:0.021052631578947368 4:1.0 5:1.0 
1.0 1:0.05555555555555555 2:0.0010288065843621398 3:0.018518518518518517 4:1.0 5:1.0 
1.0 1:0.0449438202247191 2:5.049867440979674E-4 3:0.011235955056179775 4:1.0 5:1.0 
1.0 1:0.046153846153846156 2:7.100591715976332E-4 3:0.015384615384615385 4:1.0 5:1.0 
1.0 3:0.04 4:1.0 5:1.0 
1.0 1:0.1 2:0.005000000000000001 3:0.05 4:1.0 5:1.0 
1.0 1:0.07317073170731707 2:0.001784651992861392 3:0.024390243902439025 4:1.0 5:1.0 
1.0 1:0.02702702702702703 2:7.304601899196495E-4 3:0.02702702702702703 4:1.0 5:1.0 
1.0 1:0.06896551724137931 2:0.0023781212841854932 3:0.034482758620689655 4:1.0 5:1.0 
1.0 1:0.03333333333333333 2:0.0011111111111111111 3:0.03333333333333333 4:1.0 5:1.0 
1.0 1:0.05405405405405406 
1.0 1:0.0625 2:0.0026041666666666665 3:0.0625 4:1.0 5:1.0 
1.0 1:0.032467532467532464 2:8.433125316242199E-4 3:0.032467532467532464 
1.0 1:0.0625 2:0.0026041666666666665 3:0.0625 
1.0 1:0.045454545454545456 2:6.324843987181649E-4 3:0.01948051948051948 
1.0 1:0.07865168539325842 2:0.0015149602322939023 3:0.033707865168539325 
1.0 1:0.018867924528301886 2:7.119971520113919E-4 3:0.03773584905660377 4:1.0 5:1.0 
1.0 1:0.08955223880597014 2:0.0013366005791935842 3:0.08955223880597014 
1.0 1:0.047619047619047616 2:0.0022675736961451243 3:0.047619047619047616 4:1.0 5:1.0 
1.0 1:0.07042253521126761 2:7.934933544931561E-4 3:0.056338028169014086 
1.0 1:0.06060606060606061 2:0.0013774104683195593 3:0.045454545454545456 
1.0 1:0.04 
1.0 1:0.015151515151515152 
1.0 1:0.06 2:0.0012 3:0.02 4:1.0 5:1.0 
1.0 1:0.05263157894736842 2:0.0013850415512465372 3:0.02631578947368421 4:1.0 5:1.0 
1.0 1:0.05 2:8.333333333333334E-4 3:0.016666666666666666 
1.0 1:0.13793103448275862 2:0.0047562425683709865 3:0.034482758620689655 
1.0 1:0.03571428571428571 2:0.0012755102040816326 3:0.03571428571428571 5:1.0 
1.0 1:0.038461538461538464 2:7.396449704142013E-4 3:0.019230769230769232 4:1.0 5:1.0 
1.0 1:0.023255813953488372 2:4.0562466197944835E-4 3:0.011627906976744186 4:1.0 5:1.0 
1.0 1:0.15789473684210525 
1.0 1:0.11428571428571428 
1.0 1:0.05 
1.0 3:0.1 4:1.0 5:1.0 
1.0 1:0.18181818181818182 
1.0 1:0.07692307692307693 2:0.004437869822485207 3:0.038461538461538464 4:1.0 5:1.0 
1.0 1:0.02857142857142857 2:0.0016326530612244896 3:0.05714285714285714 5:1.0 
1.0 1:0.09166666666666666 2:0.0015277777777777776 3:0.09166666666666666 
1.0 1:0.1276595744680851 2:0.008148483476686282 3:0.1276595744680851 
1.0 1:0.06666666666666667 2:0.0019444444444444444 3:0.058333333333333334 4:1.0 5:1.0 
1.0 1:0.14166666666666666 2:0.005902777777777778 3:0.041666666666666664 
1.0 1:0.10638297872340426 2:0.004526935264825713 3:0.0425531914893617 
1.0 1:0.19444444444444445 2:0.012345679012345678 3:0.05555555555555555 
1.0 1:0.045454545454545456 2:0.001549586776859504 3:0.022727272727272728 4:1.0 5:1.0 
1.0 1:0.16666666666666666 2:0.018518518518518517 3:0.1111111111111111 
1.0 1:0.20689655172413793 2:0.005945303210463734 3:0.1724137931034483 
1.0 1:0.06976744186046512 2:0.0010816657652785288 3:0.046511627906976744 
1.0 1:0.09230769230769231 2:0.0014201183431952664 3:0.015384615384615385 
1.0 1:0.09836065573770492 2:0.0018812147272238647 3:0.01639344262295082 4:1.0 5:1.0 
1.0 1:0.06557377049180328 2:0.0010749798441279227 3:0.01639344262295082 4:1.0 5:1.0 
1.0 1:0.0625 2:0.001736111111111111 3:0.020833333333333332 
1.0 1:0.06451612903225806 2:0.003121748178980229 3:0.03225806451612903 4:1.0 5:1.0 
1.0 1:0.2054794520547945 2:0.018577594295364982 3:0.1232876712328767 
1.0 1:0.05660377358490566 2:7.119971520113919E-4 3:0.018867924528301886 
1.0 1:0.15384615384615385 2:0.007889546351084813 3:0.07692307692307693 
1.0 1:0.0847457627118644 2:0.0025854639471416265 3:0.05084745762711865 
1.0 1:0.13846153846153847 2:0.006390532544378699 3:0.13846153846153847 
1.0 1:0.13559322033898305 2:0.004021832806664752 3:0.11864406779661017 
1.0 1:0.019230769230769232 3:0.038461538461538464 4:1.0 5:1.0 
1.0 1:0.037037037037037035 3:0.07407407407407407 4:1.0 5:1.0 
1.0 1:0.0660377358490566 2:0.0022249911000356 3:0.04716981132075472 
1.0 1:0.037383177570093455 2:0.0013101580924098173 3:0.028037383177570093 
1.0 1:0.03773584905660377 2:5.33997864008544E-4 3:0.02830188679245283 5:1.0 
1.0 1:0.009950248756218905 2:1.9801490062127175E-4 3:0.009950248756218905 
1.0 1:0.047619047619047616 2:0.0011337868480725622 3:0.023809523809523808 4:1.0 5:1.0 
1.0 1:0.07692307692307693 2:0.0014792899408284025 3:0.019230769230769232 4:1.0 5:1.0 
1.0 1:0.06756756756756757 2:9.130752373995619E-4 3:0.013513513513513514 4:1.0 5:1.0 
1.0 1:0.08823529411764706 2:0.002595155709342561 3:0.029411764705882353 4:1.0 5:1.0 
1.0 3:0.05263157894736842 4:1.0 5:1.0 
1.0 1:0.07407407407407407 2:0.004115226337448559 3:0.037037037037037035 4:1.0 5:1.0 
1.0 1:0.04424778761061947 2:6.265173466990367E-4 3:0.017699115044247787 4:1.0 5:1.0 
1.0 1:0.035398230088495575 2:6.265173466990367E-4 3:0.017699115044247787 4:1.0 5:1.0 
1.0 1:0.041666666666666664 2:4.166666666666667E-4 3:0.03333333333333333 
1.0 1:0.061946902654867256 2:0.0010964053567233142 3:0.061946902654867256 
1.0 1:0.018518518518518517 2:1.7146776406035664E-4 3:0.018518518518518517 4:1.0 5:1.0 
1.0 1:0.0684931506849315 2:0.0028147870144492396 3:0.0410958904109589 4:1.0 5:1.0 
1.0 1:0.04597701149425287 2:5.284713964856652E-4 3:0.011494252873563218 4:1.0 5:1.0 
1.0 1:0.0979020979020979 2:0.0026407159274292147 3:0.04195804195804196 4:1.0 5:1.0 
1.0 1:0.040229885057471264 2:3.963535473642489E-4 3:0.017241379310344827 
1.0 1:0.1038961038961039 
1.0 1:0.027972027972027972 2:0.001173651523301873 3:0.04195804195804196 
1.0 1:0.03571428571428571 2:4.251700680272108E-4 3:0.011904761904761904 4:1.0 5:1.0 
1.0 2:0.010000000000000002 3:0.1 4:1.0 5:1.0 
1.0 1:0.07142857142857142 2:0.0017006802721088433 3:0.023809523809523808 
1.0 1:0.08695652173913043 2:0.0018903591682419658 3:0.021739130434782608 
1.0 1:0.1724137931034483 3:0.1724137931034483 
1.0 1:0.10344827586206896 2:0.0035671819262782403 3:0.034482758620689655 4:1.0 5:1.0 
1.0 1:0.08 2:0.0016 3:0.02 4:1.0 5:1.0 
1.0 1:0.09375 2:0.001708984375 3:0.015625 4:1.0 5:1.0 
1.0 1:0.03278688524590164 2:2.687449610319807E-4 3:0.00819672131147541 4:1.0 5:1.0 
1.0 1:0.06741573033707865 2:8.837268021714429E-4 3:0.011235955056179775 
1.0 1:0.0851063829787234 2:0.0022634676324128564 3:0.02127659574468085 
1.0 1:0.07547169811320754 
1.0 1:0.08333333333333333 
1.0 1:0.13157894736842105 2:0.0041551246537396115 3:0.02631578947368421 
1.0 1:0.08888888888888889 
1.0 1:0.08333333333333333 
1.0 1:0.022222222222222223 2:9.876543209876543E-4 3:0.022222222222222223 
1.0 1:0.05263157894736842 3:0.07894736842105263 
1.0 1:0.14634146341463414 2:0.005353955978584175 3:0.07317073170731707 
1.0 1:0.024390243902439025 2:5.94883997620464E-4 3:0.024390243902439025 4:1.0 5:1.0 
1.0 1:0.18181818181818182 2:0.008264462809917356 3:0.045454545454545456 
1.0 1:0.14634146341463414 2:0.01784651992861392 3:0.14634146341463414 
1.0 1:0.06976744186046512 2:0.0037858301784748517 3:0.046511627906976744 
1.0 1:0.12162162162162163 2:0.0032870708546384225 3:0.12162162162162163 
1.0 1:0.025806451612903226 2:3.3298647242455777E-4 3:0.012903225806451613 
1.0 1:0.02666666666666667 2:3.555555555555556E-4 3:0.013333333333333334 
1.0 3:0.0136986301369863 4:1.0 5:1.0 
1.0 1:0.010526315789473684 2:1.1080332409972299E-4 3:0.010526315789473684 
1.0 1:0.1 2:0.0033333333333333335 3:0.03333333333333333 4:1.0 5:1.0 
1.0 1:0.04477611940298507 
1.0 1:0.17647058823529413 2:0.02422145328719723 3:0.11764705882352941 
1.0 1:0.1643835616438356 2:0.009382623381497465 3:0.136986301369863 
1.0 1:0.07246376811594203 2:0.0016803192606595254 3:0.028985507246376812 
1.0 1:0.1509433962264151 2:0.008543965824136704 3:0.07547169811320754 
1.0 1:0.11267605633802817 2:0.0053560801428288035 3:0.08450704225352113 
1.0 1:0.10144927536231885 2:0.004200798151648814 3:0.07246376811594203 
1.0 1:0.0625 2:0.0029296875 3:0.03125 4:1.0 5:1.0 
1.0 1:0.1 2:0.0075 3:0.05 4:1.0 5:1.0 
1.0 1:0.09375 2:0.00390625 3:0.0625 
1.0 1:0.06976744186046512 2:0.0021633315305570576 3:0.046511627906976744 
1.0 1:0.07142857142857142 2:0.0019132653061224487 3:0.05357142857142857 4:1.0 5:1.0 
1.0 1:0.04395604395604396 2:9.660669001328344E-4 3:0.02197802197802198 4:1.0 5:1.0 
1.0 3:0.01098901098901099 4:1.0 5:1.0 
1.0 1:0.007407407407407408 
1.0 1:0.014814814814814815 2:1.0973936899862827E-4 3:0.007407407407407408 4:1.0 5:1.0 
1.0 1:0.02857142857142857 2:4.081632653061224E-4 3:0.014285714285714285 4:1.0 5:1.0 
1.0 2:2.415167250332086E-4 3:0.01098901098901099 4:1.0 5:1.0 
1.0 1:0.02962962962962963 
1.0 1:0.15384615384615385 2:0.007889546351084813 3:0.07692307692307693 
1.0 1:0.03333333333333333 2:5.555555555555556E-4 3:0.03333333333333333 
1.0 1:0.07272727272727272 2:0.001983471074380165 3:0.05454545454545454 
1.0 1:0.024096385542168676 2:2.903178980984178E-4 3:0.012048192771084338 4:1.0 5:1.0 
1.0 1:0.034782608695652174 
1.0 1:0.02608695652173913 2:2.268431001890359E-4 3:0.008695652173913044 4:1.0 5:1.0 
1.0 1:0.045454545454545456 
1.0 1:0.041666666666666664 
1.0 1:0.08333333333333333 2:0.003472222222222222 3:0.041666666666666664 4:1.0 5:1.0 
1.0 1:0.07462686567164178 2:0.0026732011583871684 3:0.05970149253731343 
1.0 1:0.044444444444444446 2:7.407407407407408E-4 3:0.03333333333333333 
1.0 1:0.05172413793103448 2:0.0017835909631391202 3:0.034482758620689655 
1.0 1:0.06060606060606061 2:0.001020304050607081 3:0.020202020202020204 
1.0 1:0.05333333333333334 2:7.111111111111113E-4 3:0.013333333333333334 4:1.0 5:1.0 
1.0 1:0.050505050505050504 
1.0 1:0.11450381679389313 2:8.740749373579628E-4 3:0.007633587786259542 
1.0 1:0.09782608695652174 
1.0 1:0.10666666666666667 
1.0 3:0.022727272727272728 4:1.0 5:1.0 
1.0 1:0.045454545454545456 2:0.0010330578512396695 3:0.022727272727272728 4:1.0 5:1.0 
1.0 1:0.05405405405405406 
1.0 1:0.07142857142857142 2:0.0022675736961451243 3:0.023809523809523808 4:1.0 5:1.0 
1.0 1:0.11666666666666667 2:0.0016666666666666668 3:0.016666666666666666 
1.0 1:0.11363636363636363 2:0.002066115702479339 3:0.022727272727272728 
1.0 1:0.0594059405940594 2:0.001960592098813842 3:0.04950495049504951 4:1.0 5:1.0 
1.0 1:0.0684931506849315 2:9.382623381497465E-4 3:0.0136986301369863 
1.0 1:0.11578947368421053 
1.0 1:0.0594059405940594 2:4.901480247034605E-4 3:0.009900990099009901 
1.0 1:0.07692307692307693 2:0.0032873109796186717 3:0.0641025641025641 4:1.0 5:1.0 
1.0 1:0.019801980198019802 2:3.921184197627684E-4 3:0.019801980198019802 
1.0 1:0.08695652173913043 2:0.002520478890989288 3:0.043478260869565216 
1.0 1:0.08045977011494253 2:0.001321178491214163 3:0.022988505747126436 
1.0 1:0.07 2:0.0012 3:0.02 4:1.0 5:1.0 
1.0 1:0.019417475728155338 2:7.540767273070034E-4 3:0.019417475728155338 4:1.0 5:1.0 
1.0 1:0.09278350515463918 2:0.0017004995217345094 3:0.020618556701030927 
1.0 1:0.07766990291262135 
1.0 1:0.125 2:0.005208333333333333 3:0.041666666666666664 
1.0 1:0.1111111111111111 2:0.005787037037037037 3:0.06944444444444445 
1.0 1:0.09090909090909091 2:0.001652892561983471 3:0.01818181818181818 4:1.0 5:1.0 
1.0 1:0.038461538461538464 2:6.574621959237343E-4 3:0.02564102564102564 
1.0 1:0.033707865168539325 2:2.524933720489837E-4 3:0.011235955056179775 
1.0 1:0.0641025641025641 
1.0 1:0.12195121951219512 2:0.004015466983938132 3:0.10975609756097561 
1.0 1:0.0851063829787234 2:0.0028293345405160705 3:0.05319148936170213 
1.0 1:0.07894736842105263 2:0.0020775623268698058 3:0.039473684210526314 
1.0 1:0.06382978723404255 2:0.0013580805794477138 3:0.031914893617021274 
1.0 1:0.09210526315789473 2:0.00363573407202216 3:0.039473684210526314 
1.0 1:0.016666666666666666 
1.0 1:0.0625 2:0.0012500000000000002 3:0.025 
1.0 1:0.0684931506849315 
1.0 1:0.11290322580645161 2:0.0026014568158168575 3:0.03225806451612903 
1.0 1:0.05 2:9.375E-4 3:0.025 
1.0 1:0.0625 
1.0 1:0.0425531914893617 
1.0 1:0.06451612903225806 2:0.0010405827263267429 3:0.016129032258064516 
1.0 1:0.05555555555555555 2:0.006172839506172839 3:0.05555555555555555 4:1.0 5:1.0 
1.0 1:0.05 
1.0 1:0.034482758620689655 2:0.0023781212841854932 3:0.034482758620689655 4:1.0 5:1.0 
1.0 1:0.13793103448275862 2:0.0047562425683709865 3:0.13793103448275862 
